svm_type c_svc
kernel_type linear
nr_class 2
total_sv 890
rho -59.666900532575283
label 1 -1
nr_sv 838 52
SV
1 1:41.2389 2:15.9386 3:34.2385 4:65.5254 5:36.5998 6:44.0029 7:22.8277 8:41.2371 9:78.7923 10:43.4462 11:46.6533 12:25.4521 13:44.2063 14:71.6678 15:40.1875 16:42.9236 17:20.0279 18:44.2478 19:61.0154 20:39.5901 21:42.4042 22:16.2996 23:38.326 24:55.9471 25:46.696 26:44.0931 27:22.4077 28:40.4218 29:66.3445 30:38.6643 31:48.8095 32:27.8146 33:64.9007 34:75.4967 35:46.3576 36:47.6812 37:29.0276 38:50.7983 39:68.2148 40:47.8955 
1 1:42.1708 2:14.8368 3:35.6083 4:67.0623 5:39.1691 6:43.7811 7:16.3585 8:44.808 9:68.2788 10:39.8293 11:46.7202 12:26.1219 13:46.8855 14:79.7053 15:36.8386 16:42.5047 17:20.9595 18:43.3163 19:56.8235 20:39.1244 21:42.9326 22:19.8238 23:39.6476 24:55.0661 25:40.9692 26:43.1708 27:21.529 28:38.225 29:66.3445 30:33.8313 31:48.9418 32:23.8411 33:66.2252 34:74.1722 35:50.3311 36:45.5696 37:28.169 38:45.0704 39:64.7887 40:50.7042 
1 1:42.3488 2:14.8368 3:35.0148 4:68.2493 5:39.1691 6:43.6389 7:17.0697 8:44.808 9:68.99 10:39.8293 11:46.8541 12:26.1219 13:46.8855 14:79.0355 15:36.8386 16:42.5047 17:20.9595 18:43.3163 19:56.3577 20:38.6586 21:42.8005 22:19.3833 23:39.6476 24:54.185 25:40.9692 26:43.1708 27:21.529 28:38.225 29:66.3445 30:33.8313 31:48.9418 32:23.8411 33:66.2252 34:74.1722 35:50.3311 36:45.5696 37:28.169 38:45.0704 39:64.7887 40:50.7042 
0.25725237278377772 1:42.1708 2:14.2433 3:35.6083 4:67.0623 5:37.9822 6:43.6389 7:18.4922 8:46.9417 9:67.5676 10:39.8293 11:46.7871 12:26.1219 13:46.8855 14:78.3657 15:38.1782 16:42.5978 17:20.4937 18:43.782 19:57.755 20:39.5901 21:42.8886 22:20.2643 23:39.207 24:55.9471 25:40.5286 26:43.1269 27:21.529 28:38.6643 29:65.9051 30:34.2707 31:49.2063 32:23.8411 33:66.2252 34:78.1457 35:50.3311 36:45.7103 37:28.169 38:45.0704 39:64.7887 40:50.7042 
0.014746125501241551 1:42.1708 2:14.2433 3:35.6083 4:67.0623 5:37.9822 6:43.6389 7:18.4922 8:46.9417 9:67.5676 10:39.8293 11:46.7871 12:26.1219 13:46.8855 14:78.3657 15:38.1782 16:42.5978 17:20.4937 18:43.782 19:57.755 20:39.5901 21:42.8886 22:20.2643 23:39.207 24:55.9471 25:40.5286 26:43.1269 27:21.529 28:38.6643 29:65.9051 30:34.2707 31:49.2063 32:23.8411 33:66.2252 34:78.1457 35:50.3311 36:45.7103 37:28.169 38:45.0704 39:64.7887 40:50.7042 
1 1:42.3488 2:12.4629 3:37.9822 4:68.2493 5:37.9822 6:43.4257 7:19.2034 8:44.0967 9:66.8563 10:38.4068 11:47.0549 12:26.1219 13:47.5553 14:79.0355 15:41.5271 16:42.2719 17:19.0964 18:43.782 19:55.4262 20:40.9874 21:42.9326 22:18.5022 23:40.0881 24:57.7093 25:39.207 26:42.9513 27:18.8928 28:36.9069 29:66.7838 30:37.7856 31:49.0741 32:22.5166 33:68.8742 34:78.1457 35:49.0066 36:45.7103 37:29.5775 38:45.0704 39:61.9718 40:49.2958 
1 1:42.1115 2:13.6499 3:37.9822 4:67.6558 5:38.5757 6:43.5679 7:19.2034 8:44.0967 9:66.8563 10:38.4068 11:46.921 12:26.7917 13:46.2157 14:79.0355 15:39.5177 16:42.5047 17:20.9595 18:44.2478 19:55.8919 20:41.4532 21:43.0207 22:19.3833 23:40.5286 24:58.1498 25:38.7665 26:42.9513 27:18.4534 28:36.9069 29:67.2232 30:37.3462 31:49.3386 32:23.8411 33:70.1987 34:78.1457 35:49.0066 36:45.1477 37:28.169 38:45.0704 39:60.5634 40:47.8873 
1 1:42.1115 2:13.0564 3:37.9822 4:67.6558 5:39.7626 6:43.3547 7:19.2034 8:43.3855 9:66.1451 10:38.4068 11:46.4525 12:25.4521 13:45.5459 14:76.3563 15:39.5177 16:42.6443 17:20.9595 18:44.2478 19:57.2892 20:41.4532 21:42.9326 22:19.3833 23:40.5286 24:57.2687 25:38.7665 26:42.9073 27:18.4534 28:36.9069 29:66.7838 30:37.3462 31:49.6032 32:22.5166 33:70.1987 34:78.1457 35:50.3311 36:45.2883 37:29.5775 38:45.0704 39:60.5634 40:49.2958 
1 1:42.1708 2:13.0564 3:37.9822 4:68.2493 5:39.7626 6:43.4257 7:19.2034 8:43.3855 9:66.8563 10:38.4068 11:46.5194 12:25.4521 13:46.2157 14:76.3563 15:39.5177 16:42.5978 17:20.9595 18:43.782 19:57.2892 20:41.4532 21:42.9326 22:19.3833 23:40.5286 24:57.2687 25:38.7665 26:42.9073 27:18.4534 28:36.9069 29:66.7838 30:37.3462 31:49.6032 32:22.5166 33:70.1987 34:78.1457 35:50.3311 36:45.2883 37:29.5775 38:45.0704 39:60.5634 40:49.2958 
1 1:42.4674 2:12.4629 3:37.9822 4:69.4362 5:39.7626 6:43.4968 7:17.7809 8:44.808 9:67.5676 10:38.4068 11:46.6533 12:26.7917 13:45.5459 14:75.6865 15:39.5177 16:42.5047 17:20.4937 18:43.782 19:56.8235 20:41.919 21:42.9767 22:19.3833 23:39.6476 24:57.2687 25:40.0881 26:43.083 27:18.4534 28:37.3462 29:67.6626 30:35.5888 31:49.4709 32:22.5166 33:70.1987 34:78.1457 35:50.3311 36:45.1477 37:29.5775 38:45.0704 39:63.3803 40:49.2958 
1 1:42.3488 2:12.4629 3:37.9822 4:69.4362 5:39.7626 6:43.4968 7:18.4922 8:44.808 9:67.5676 10:38.4068 11:46.7202 12:26.7917 13:45.5459 14:76.3563 15:39.5177 16:42.5047 17:20.0279 18:43.782 19:56.8235 20:41.919 21:42.9326 22:19.3833 23:39.6476 24:57.2687 25:40.0881 26:42.9513 27:18.4534 28:37.3462 29:66.7838 30:35.5888 31:49.4709 32:22.5166 33:68.8742 34:79.4702 35:50.3311 36:45.1477 37:29.5775 38:45.0704 39:63.3803 40:49.2958 
1 1:42.2894 2:11.8694 3:37.9822 4:68.8427 5:39.7626 6:43.3547 7:18.4922 8:44.808 9:66.8563 10:38.4068 11:46.7202 12:26.7917 13:45.5459 14:76.3563 15:39.5177 16:42.5047 17:20.0279 18:43.782 19:56.8235 20:41.919 21:42.9767 22:19.3833 23:39.6476 24:57.2687 25:40.0881 26:43.0391 27:18.4534 28:37.3462 29:67.6626 30:35.5888 31:49.4709 32:22.5166 33:70.1987 34:78.1457 35:50.3311 36:45.1477 37:29.5775 38:45.0704 39:63.3803 40:49.2958 
1 1:42.4081 2:12.4629 3:39.1691 4:68.8427 5:40.3561 6:43.2836 7:20.6259 8:45.5192 9:65.4339 10:38.4068 11:46.5863 12:27.4615 13:46.2157 14:75.0167 15:38.1782 16:42.8305 17:20.9595 18:44.2478 19:58.6865 20:41.919 21:42.9767 22:18.0617 23:40.0881 24:58.1498 25:39.207 26:42.7756 27:19.3322 28:36.0281 29:67.2232 30:36.0281 31:49.4709 32:22.5166 33:70.1987 34:78.1457 35:50.3311 36:45.2883 37:28.169 38:45.0704 39:61.9718 40:47.8873 
1 1:42.4674 2:13.6499 3:39.1691 4:68.2493 5:40.3561 6:43.5679 7:17.7809 8:46.2304 9:66.1451 10:38.4068 11:46.5194 12:26.1219 13:46.2157 14:73.6772 15:38.848 16:42.6909 17:20.4937 18:43.3163 19:57.755 20:43.3163 21:43.1528 22:19.3833 23:40.0881 24:57.2687 25:40.0881 26:42.6877 27:18.4534 28:36.9069 29:66.7838 30:36.0281 31:49.3386 32:22.5166 33:70.1987 34:78.1457 35:50.3311 36:45.2883 37:29.5775 38:45.0704 39:61.9718 40:49.2958 
1 1:42.5267 2:13.0564 3:39.1691 4:68.2493 5:40.3561 6:43.4257 7:17.7809 8:45.5192 9:66.1451 10:38.4068 11:46.7871 12:26.1219 13:46.8855 14:75.6865 15:38.848 16:42.6443 17:20.4937 18:43.3163 19:57.755 20:42.8505 21:43.1088 22:18.9427 23:40.0881 24:57.7093 25:40.0881 26:42.8634 27:18.4534 28:36.9069 29:67.6626 30:36.0281 31:49.0066 32:22.5764 33:70.3851 34:77.0252 35:50.4648 36:45.1477 37:29.5775 38:43.662 39:61.9718 40:49.2958 
1 1:42.7046 2:13.0564 3:39.7626 4:67.6558 5:40.9496 6:43.4257 7:18.4922 8:44.808 9:66.1451 10:38.4068 11:46.921 12:26.1219 13:46.8855 14:75.6865 15:41.5271 16:42.9236 17:20.4937 18:44.2478 19:57.755 20:44.7136 21:43.0647 22:20.7048 23:40.0881 24:59.0308 25:39.207 26:42.8195 27:19.3322 28:36.0281 29:66.7838 30:36.4675 31:49.4709 32:22.5166 33:68.8742 34:78.1457 35:50.3311 36:45.6522 37:30.479 38:44.9927 39:62.4093 40:53.701 
1 1:42.5267 2:13.0564 3:39.7626 4:67.0623 5:39.7626 6:43.5679 7:19.2034 8:45.5192 9:66.8563 10:38.4068 11:46.7871 12:26.1219 13:46.2157 14:75.0167 15:40.8573 16:42.8305 17:20.4937 18:43.3163 19:57.755 20:43.782 21:43.0647 22:20.2643 23:40.5286 24:58.5903 25:39.207 26:42.8195 27:18.4534 28:36.9069 29:66.3445 30:36.0281 31:49.4709 32:22.5166 33:70.1987 34:78.1457 35:50.3311 36:45.429 37:30.9859 38:45.0704 39:61.9718 40:49.2958 
1 1:41.9336 2:13.0564 3:37.9822 4:65.8754 5:36.7953 6:43.6389 7:20.6259 8:46.9417 9:66.8563 10:37.6956 11:46.7871 12:28.1313 13:46.8855 14:76.3563 15:38.848 16:42.9236 17:19.5622 18:44.2478 19:58.6865 20:43.3163 21:43.1528 22:20.7048 23:41.8502 24:59.0308 25:40.0881 26:42.9262 27:19.7889 28:36.4996 29:67.2823 30:36.0598 31:49.6032 32:22.5166 33:70.1987 34:76.8212 35:51.6556 36:45.7576 37:31.8665 38:45.5235 39:60.698 40:51.5933 
1 1:42.3488 2:14.2433 3:35.0148 4:68.2493 5:38.5757 6:43.4257 7:17.7809 8:44.0967 9:68.2788 10:39.8293 11:46.6533 12:26.7917 13:46.8855 14:77.6959 15:38.1782 16:42.6909 17:20.4937 18:44.7136 19:57.2892 20:39.5901 21:43.0207 22:20.7048 23:39.6476 24:55.9471 25:40.9692 26:43.0391 27:21.9684 28:38.225 29:67.2232 30:33.8313 31:49.4709 32:25.1656 33:67.5497 34:78.1457 35:50.3311 36:45.7103 37:30.9859 38:45.0704 39:63.3803 40:50.7042 
0.34318799203501316 1:42.2301 2:14.2433 3:35.0148 4:67.6558 5:38.5757 6:43.6389 7:17.7809 8:44.0967 9:68.2788 10:41.2518 11:46.6533 12:26.7917 13:46.8855 14:77.0261 15:38.1782 16:42.5047 17:20.9595 18:44.2478 19:56.8235 20:39.1244 21:43.1528 22:20.2643 23:40.0881 24:58.1498 25:40.9692 26:43.2148 27:21.9684 28:38.6643 29:67.2232 30:33.8313 31:49.2063 32:23.8411 33:67.5497 34:76.8212 35:50.3311 36:45.8509 37:29.5775 38:46.4789 39:64.7887 40:52.1127 
1 1:42.0522 2:14.2433 3:35.0148 4:66.4688 5:37.9822 6:43.5679 7:17.0697 8:46.9417 9:68.99 10:39.1181 11:46.7202 12:26.1219 13:46.8855 14:78.3657 15:38.1782 16:42.5047 17:19.5622 18:44.2478 19:56.3577 20:39.5901 21:43.1968 22:20.2643 23:40.9692 24:56.3877 25:40.5286 26:42.9952 27:21.529 28:38.6643 29:66.3445 30:33.8313 31:48.545 32:22.5166 33:64.9007 34:78.1457 35:47.6821 36:46.6974 37:29.2308 38:49.2308 39:64.6154 40:55.3846 
0.76045453006407671 1:43.2862 2:21.8032 3:47.142 4:65.9988 5:38.8922 6:42.9993 7:14.2248 8:46.2304 9:63.3001 10:44.0967 11:46.1178 12:28.1313 13:45.5459 14:77.6959 15:38.848 16:42.3184 17:18.6306 18:43.3163 19:55.8919 20:41.919 21:42.4042 22:16.2996 23:38.326 24:58.5903 25:44.9339 26:42.8195 27:19.7715 28:37.7856 29:65.9051 30:35.5888 31:48.545 32:22.5166 33:67.5497 34:80.7947 35:47.6821 36:44.4928 37:23.2221 38:40.6386 39:63.8607 40:47.8955 
1 1:42.8151 2:21.2139 3:46.5527 4:64.8203 5:37.7136 6:42.7861 7:14.2248 8:44.808 9:61.1664 10:44.0967 11:46.1847 12:28.1313 13:46.8855 14:78.3657 15:38.848 16:42.4581 17:19.5622 18:42.8505 19:56.8235 20:41.4532 21:42.14 22:14.978 23:38.326 24:59.0308 25:44.4934 26:43.0391 27:19.3322 28:36.4675 29:67.2232 30:37.3462 31:48.545 32:22.5166 33:68.8742 34:79.4702 35:47.6821 36:44.2029 37:23.2221 38:40.6386 39:62.4093 40:47.8955 
1 1:42.9918 2:22.3925 3:45.9635 4:65.4095 5:39.4814 6:43.2836 7:15.6472 8:45.5192 9:65.4339 10:44.0967 11:46.1178 12:28.1313 13:45.5459 14:78.3657 15:38.848 16:42.5512 17:20.0279 18:42.8505 19:57.755 20:42.3847 21:42.5363 22:17.1806 23:38.7665 24:60.3524 25:44.4934 26:42.7317 27:21.0896 28:36.4675 29:64.587 30:36.4675 31:48.4127 32:23.8411 33:67.5497 34:76.8212 35:47.6821 36:44.3478 37:21.7707 38:39.1872 39:62.4093 40:46.4441 
1 1:42.6973 2:20.0354 3:48.3206 4:64.231 5:38.3029 6:43.3547 7:17.7809 8:44.808 9:66.8563 10:45.5192 11:45.9839 12:28.8011 13:46.2157 14:77.0261 15:36.8386 16:42.5512 17:20.4937 18:42.3847 19:57.2892 20:42.3847 21:42.3162 22:18.0617 23:37.8855 24:62.1145 25:44.9339 26:42.7756 27:18.4534 28:36.9069 29:63.7083 30:38.225 31:48.2804 32:21.1921 33:66.2252 34:83.4437 35:49.0066 36:44.7826 37:23.2221 38:42.09 39:65.312 40:49.3469 
1 1:42.7562 2:21.8032 3:47.142 4:64.231 5:39.4814 6:42.8571 7:14.936 8:44.808 9:65.4339 10:41.963 11:46.1847 12:28.1313 13:44.2063 14:79.7053 15:39.5177 16:42.365 17:19.5622 18:41.919 19:57.2892 20:41.919 21:42.4483 22:16.7401 23:37.8855 24:60.793 25:44.0529 26:42.6877 27:20.2109 28:36.4675 29:65.0264 30:36.4675 31:48.2804 32:22.5166 33:66.2252 34:82.1192 35:47.6821 36:45.0725 37:23.2221 38:42.09 39:65.312 40:50.7983 
0.61541090443977586 1:42.5795 2:21.8032 3:46.5527 4:63.0524 5:38.8922 6:43.3547 7:17.0697 8:44.0967 9:66.1451 10:43.3855 11:46.1847 12:28.1313 13:44.8761 14:79.7053 15:38.848 16:42.2253 17:20.4937 18:40.9874 19:57.2892 20:41.919 21:42.2721 22:16.2996 23:37.8855 24:62.1145 25:43.1718 26:42.7756 27:20.6503 28:37.3462 29:64.1476 30:36.9069 31:48.1481 32:22.5166 33:66.2252 34:80.7947 35:47.6821 36:44.7826 37:23.2221 38:40.6386 39:65.312 40:49.3469 
1 1:42.5206 2:21.2139 3:46.5527 4:63.0524 5:38.8922 6:43.3692 7:17.2166 8:43.759 9:66.7145 10:43.0416 11:46.1847 12:28.1313 13:44.8761 14:79.7053 15:38.848 16:42.1788 17:20.4937 18:40.9874 19:56.3577 20:41.919 21:42.3162 22:16.2996 23:37.8855 24:62.9956 25:43.1718 26:42.7317 27:20.6503 28:37.3462 29:64.1476 30:36.9069 31:48.1481 32:22.5166 33:66.2252 34:80.7947 35:47.6821 36:44.7826 37:23.2221 38:40.6386 39:65.312 40:49.3469 
1 1:42.5206 2:21.2139 3:46.5527 4:63.0524 5:39.4814 6:43.4257 7:17.0697 8:44.0967 9:66.1451 10:43.3855 11:46.1847 12:28.1313 13:44.8761 14:79.7053 15:38.848 16:42.1788 17:19.5622 18:40.5217 19:56.8235 20:42.3847 21:42.2721 22:16.2996 23:37.8855 24:62.9956 25:43.1718 26:42.5999 27:20.2109 28:37.3462 29:63.2689 30:36.9069 31:48.1481 32:22.5166 33:67.5497 34:80.7947 35:46.3576 36:44.9275 37:23.2221 38:40.6386 39:68.2148 40:49.3469 
1 1:42.3439 2:20.6246 3:46.5527 4:63.0524 5:38.3029 6:43.2836 7:17.0697 8:44.0967 9:66.1451 10:43.3855 11:46.1847 12:28.1313 13:44.8761 14:79.7053 15:38.848 16:42.2253 17:20.0279 18:40.5217 19:56.8235 20:42.3847 21:42.3162 22:15.859 23:37.8855 24:62.5551 25:43.1718 26:42.7756 27:20.6503 28:37.3462 29:64.1476 30:36.9069 31:48.1481 32:22.5166 33:66.2252 34:80.7947 35:47.6821 36:44.7826 37:23.2221 38:40.6386 39:65.312 40:49.3469 
1 1:42.4028 2:21.2139 3:45.3742 4:62.4632 5:38.8922 6:43.5185 7:15.6807 8:43.4783 9:67.712 10:44.9038 11:46.1178 12:28.1313 13:44.8761 14:80.3751 15:37.5084 16:42.3184 17:19.5622 18:41.919 19:56.8235 20:40.9874 21:42.4483 22:16.2996 23:38.326 24:63.4361 25:43.1718 26:42.3364 27:19.7715 28:35.5888 29:62.3902 30:36.0281 31:48.1481 32:22.5166 33:66.2252 34:80.7947 35:47.6821 36:43.913 37:23.2221 38:39.1872 39:60.9579 40:44.9927 
1 1:42.3439 2:20.6246 3:45.3742 4:63.6417 5:38.3029 6:43.1414 7:15.6472 8:46.2304 9:64.0114 10:45.5192 11:46.1178 12:29.4709 13:44.2063 14:79.7053 15:38.1782 16:42.365 17:19.5622 18:40.9874 19:56.3577 20:41.919 21:42.3602 22:16.7401 23:37.0044 24:61.674 25:44.0529 26:42.6438 27:20.6503 28:36.9069 29:64.1476 30:35.5888 31:48.1481 32:22.5166 33:66.2252 34:80.7947 35:47.6821 36:44.6377 37:23.2221 38:42.09 39:63.8607 40:49.3469 
1 1:42.5795 2:20.6246 3:45.9635 4:64.231 5:38.8922 6:42.9993 7:15.6472 8:44.808 9:66.1451 10:41.963 11:45.9839 12:28.1313 13:44.8761 14:79.7053 15:37.5084 16:42.2719 17:19.0964 18:40.5217 19:57.2892 20:41.919 21:42.4042 22:16.7401 23:37.8855 24:60.793 25:44.0529 26:42.6438 27:20.2109 28:36.9069 29:64.587 30:36.9069 31:47.7513 32:22.5166 33:64.9007 34:78.1457 35:47.6821 36:44.7826 37:23.2221 38:42.09 39:65.312 40:49.3469 
1 1:42.7562 2:21.8032 3:46.5527 4:63.6417 5:40.0707 6:43.5679 7:16.3585 8:44.808 9:66.8563 10:43.3855 11:46.4525 12:28.8011 13:46.2157 14:81.0449 15:39.5177 16:42.0391 17:19.5622 18:40.9874 19:55.8919 20:41.4532 21:42.2281 22:16.2996 23:37.4449 24:59.9119 25:44.0529 26:42.556 27:19.7715 28:36.4675 29:63.7083 30:37.3462 31:48.2804 32:22.5166 33:66.2252 34:80.7947 35:47.6821 36:44.6377 37:23.2221 38:40.6386 39:63.8607 40:46.4441 
1 1:42.9329 2:21.8032 3:46.5527 4:63.6417 5:40.66 6:43.1414 7:14.936 8:45.5192 9:65.4339 10:43.3855 11:46.1847 12:28.1313 13:44.8761 14:80.3751 15:39.5177 16:42.2253 17:18.6306 18:40.9874 19:56.8235 20:42.3847 21:42.2281 22:16.7401 23:37.0044 24:59.4714 25:44.9339 26:42.7317 27:21.0896 28:36.4675 29:65.0264 30:36.4675 31:48.4127 32:23.8411 33:67.5497 34:79.4702 35:47.6821 36:44.4928 37:21.7707 38:39.1872 39:62.4093 40:47.8955 
1 1:42.5795 2:22.9817 3:46.5527 4:62.4632 5:38.8922 6:43.0704 7:14.936 8:41.963 9:65.4339 10:44.0967 11:46.5863 12:28.8011 13:43.5365 14:81.7147 15:40.1875 16:42.365 17:19.0964 18:40.9874 19:57.2892 20:42.3847 21:42.096 22:15.859 23:38.326 24:59.9119 25:43.6123 26:42.5999 27:19.3322 28:37.3462 29:64.587 30:36.0281 31:48.2804 32:23.8411 33:68.8742 34:80.7947 35:49.0066 36:44.9275 37:23.2221 38:42.09 39:66.7634 40:49.3469 
1 1:42.5206 2:21.2139 3:47.142 4:63.6417 5:37.7136 6:43.2125 7:15.6472 8:44.0967 9:65.4339 10:44.808 11:45.9839 12:28.1313 13:44.2063 14:78.3657 15:38.848 16:42.1788 17:19.0964 18:40.9874 19:56.3577 20:41.919 21:42.0079 22:16.2996 23:37.0044 24:59.0308 25:44.0529 26:42.6877 27:20.6503 28:36.9069 29:65.0264 30:36.0281 31:48.1481 32:22.5166 33:66.2252 34:80.7947 35:47.6821 36:44.7826 37:23.2221 38:42.09 39:66.7634 40:49.3469 
1 1:42.5795 2:21.2139 3:47.142 4:63.6417 5:38.8922 6:43.2125 7:15.6472 8:44.0967 9:65.4339 10:44.808 11:45.9839 12:28.1313 13:44.2063 14:78.3657 15:38.848 16:42.1788 17:19.0964 18:40.9874 19:56.3577 20:41.919 21:42.0079 22:16.2996 23:37.0044 24:59.0308 25:44.0529 26:42.6877 27:20.6503 28:36.9069 29:65.0264 30:36.0281 31:48.1481 32:22.5166 33:66.2252 34:80.7947 35:47.6821 36:44.7826 37:23.2221 38:42.09 39:66.7634 40:49.3469 
1 1:42.874 2:21.8032 3:46.5527 4:65.4095 5:38.8922 6:43.1414 7:14.936 8:44.0967 9:65.4339 10:44.0967 11:45.9933 12:27.628 13:44.4744 14:77.4933 15:39.0836 16:42.1322 17:19.0964 18:40.9874 19:55.8919 20:41.919 21:42.14 22:16.7401 23:37.4449 24:59.9119 25:43.1718 26:42.7317 27:20.6503 28:36.9069 29:65.0264 30:36.4675 31:48.1481 32:22.5166 33:66.2252 34:80.7947 35:47.6821 36:44.6377 37:23.2221 38:42.09 39:63.8607 40:49.3469 
1 1:42.7562 2:21.8032 3:47.142 4:64.231 5:37.7136 6:43.0912 7:14.9679 8:43.4783 9:64.861 10:45.6165 11:45.9839 12:28.1313 13:44.2063 14:77.0261 15:39.5177 16:42.2253 17:19.0964 18:40.9874 19:56.3577 20:41.919 21:42.1841 22:16.7401 23:37.4449 24:59.9119 25:43.6123 26:42.7317 27:20.6503 28:36.9069 29:65.0264 30:36.4675 31:48.1481 32:22.5166 33:66.2252 34:80.7947 35:47.6821 36:44.6377 37:23.2221 38:42.09 39:63.8607 40:49.3469 
1 1:42.2261 2:17.6783 3:45.9635 4:64.231 5:41.2493 6:42.715 7:14.2248 8:44.808 9:61.1664 10:43.3855 11:46.1694 12:26.2273 13:45.7297 14:82.7169 15:39.0047 16:42.1788 17:18.1649 18:40.5217 19:56.8235 20:43.3163 21:42.4042 22:15.859 23:37.0044 24:60.793 25:46.696 26:42.6438 27:22.4077 28:36.9069 29:62.3902 30:36.4675 31:48.0159 32:23.8411 33:67.5497 34:79.4702 35:45.0331 36:43.4783 37:23.2221 38:39.1872 39:56.6038 40:44.9927 
1 1:42.0495 2:17.6783 3:44.7849 4:63.0524 5:41.2493 6:43.0199 7:15.6807 8:44.191 9:62.7227 10:43.4783 11:46.1178 12:26.7917 13:45.5459 14:82.3845 15:38.848 16:42.0391 17:18.6306 18:40.0559 19:56.8235 20:43.3163 21:42.3602 22:15.4185 23:37.0044 24:61.2335 25:46.696 26:42.6438 27:22.4077 28:36.9069 29:62.3902 30:36.9069 31:47.8836 32:23.8411 33:66.2252 34:79.4702 35:43.7086 36:43.6232 37:23.2221 38:39.1872 39:56.6038 40:44.9927 
1 1:42.0495 2:18.2675 3:44.7849 4:63.0524 5:41.8385 6:42.7861 7:14.2248 8:43.3855 9:61.8777 10:42.6743 11:46.1847 12:27.4615 13:46.2157 14:81.0449 15:38.848 16:41.9926 17:19.0964 18:39.5901 19:56.3577 20:42.8505 21:42.4042 22:14.978 23:37.0044 24:62.1145 25:45.815 26:42.5999 27:22.4077 28:36.9069 29:63.2689 30:36.4675 31:48.2804 32:23.8411 33:67.5497 34:79.4702 35:45.0331 36:43.4783 37:23.2221 38:37.7358 39:58.0552 40:44.9927 
1 1:41.9317 2:17.6783 3:44.1956 4:63.6417 5:40.0707 6:42.6439 7:16.3585 8:43.3855 9:60.4552 10:43.3855 11:46.0509 12:26.1219 13:45.5459 14:81.0449 15:38.848 16:42.1788 17:17.6991 18:40.0559 19:57.2892 20:44.2478 21:42.2281 22:15.859 23:35.6828 24:59.9119 25:45.815 26:42.6438 27:21.9684 28:36.4675 29:63.7083 30:35.5888 31:47.619 32:22.5166 33:63.5762 34:76.8212 35:43.7086 36:43.913 37:23.2221 38:42.09 39:63.8607 40:43.5414 
1 1:41.8139 2:16.4997 3:44.1956 4:63.0524 5:40.0707 6:42.6439 7:14.936 8:44.0967 9:59.744 10:43.3855 11:45.8501 12:26.1219 13:45.5459 14:79.7053 15:38.1782 16:42.1322 17:18.1649 18:40.0559 19:56.3577 20:43.3163 21:42.4042 22:15.859 23:36.1233 24:60.3524 25:46.696 26:42.7756 27:21.529 28:36.4675 29:64.587 30:36.0281 31:47.8836 32:22.5166 33:66.2252 34:78.1457 35:45.0331 36:43.4783 37:23.2221 38:37.7358 39:60.9579 40:44.9927 
1 1:41.8728 2:17.6783 3:43.6064 4:61.8739 5:40.66 6:42.715 7:15.6472 8:43.3855 9:60.4552 10:43.3855 11:46.0509 12:26.7917 13:45.5459 14:81.0449 15:38.848 16:42.1788 17:18.1649 18:40.0559 19:56.8235 20:44.2478 21:42.3162 22:15.859 23:36.5639 24:61.2335 25:45.3744 26:42.5999 27:21.9684 28:36.9069 29:63.2689 30:35.1494 31:47.8836 32:22.5166 33:66.2252 34:78.1457 35:45.0331 36:43.7681 37:23.2221 38:39.1872 39:60.9579 40:44.9927 
1 1:42.1673 2:17.6783 3:45.3742 4:63.0524 5:41.2493 6:42.9993 7:15.6472 8:43.3855 9:62.5889 10:42.6743 11:45.917 12:25.4521 13:44.8761 14:81.0449 15:38.848 16:42.1322 17:18.1649 18:40.0559 19:56.8235 20:44.2478 21:42.3602 22:16.2996 23:37.0044 24:61.674 25:46.2555 26:42.7756 27:22.8471 28:36.9069 29:63.7083 30:36.4675 31:47.7513 32:22.5166 33:66.2252 34:75.4967 35:45.0331 36:43.913 37:23.2221 38:40.6386 39:60.9579 40:44.9927 
1 1:42.2261 2:17.6783 3:45.3742 4:63.6417 5:40.66 6:42.6439 7:15.6472 8:41.2518 9:61.1664 10:41.2518 11:46.1847 12:27.4615 13:45.5459 14:81.7147 15:38.848 16:41.9926 17:18.6306 18:39.5901 19:54.4946 20:43.782 21:42.3602 22:15.4185 23:37.0044 24:62.1145 25:45.3744 26:42.556 27:21.9684 28:36.9069 29:62.3902 30:35.5888 31:47.7513 32:23.8411 33:67.5497 34:75.4967 35:46.3576 36:43.4716 37:20 38:38.4615 39:58.4615 40:44.6154 
1 1:41.9906 2:17.6783 3:44.1956 4:63.0524 5:38.8922 6:42.7861 7:15.6472 8:41.963 9:62.5889 10:42.6743 11:45.8501 12:27.4615 13:45.5459 14:79.0355 15:36.8386 16:42.5978 17:19.0964 18:40.0559 19:59.6181 20:42.8505 21:42.5363 22:16.7401 23:38.326 24:63.4361 25:44.9339 26:41.9412 27:23.2865 28:37.3462 29:64.587 30:39.1037 31:48.2804 32:21.1921 33:67.5497 34:79.4702 35:43.7086 36:43.913 37:23.2221 38:39.1872 39:60.9579 40:46.4441 
1 1:41.8728 2:17.089 3:44.7849 4:61.8739 5:38.8922 6:42.8571 7:14.936 8:43.3855 9:61.8777 10:42.6743 11:45.7831 12:26.7917 13:45.5459 14:81.7147 15:36.8386 16:42.5512 17:19.0964 18:40.5217 19:58.6865 20:42.3847 21:42.5804 22:16.2996 23:37.8855 24:61.674 25:45.3744 26:42.8634 27:22.8471 28:37.3462 29:64.587 30:37.3462 31:48.2804 32:21.1921 33:67.5497 34:79.4702 35:45.0331 36:44.2029 37:23.2221 38:39.1872 39:62.4093 40:46.4441 
1 1:41.8728 2:17.089 3:44.7849 4:62.4632 5:39.4814 6:42.8571 7:14.936 8:43.3855 9:61.8777 10:42.6743 11:45.7831 12:27.4615 13:45.5459 14:81.7147 15:34.8292 16:42.5978 17:19.0964 18:40.5217 19:58.6865 20:42.3847 21:42.5363 22:16.2996 23:37.8855 24:62.1145 25:45.3744 26:42.8634 27:22.8471 28:37.7856 29:63.7083 30:37.3462 31:48.4127 32:21.1921 33:67.5497 34:79.4702 35:45.0331 36:43.6232 37:21.7707 38:37.7358 39:60.9579 40:44.9927 
1 1:42.285 2:19.4461 3:44.1956 4:63.6417 5:40.0707 6:43.0704 7:17.0697 8:45.5192 9:66.8563 10:43.3855 11:45.917 12:28.8011 13:45.5459 14:77.6959 15:36.8386 16:42.365 17:20.4937 18:41.919 19:56.3577 20:41.919 21:42.2721 22:18.0617 23:37.8855 24:61.2335 25:44.4934 26:42.556 27:17.5747 28:36.4675 29:62.8295 30:37.7856 31:48.2804 32:21.1921 33:66.2252 34:84.7682 35:49.0066 36:44.7826 37:23.2221 38:42.09 39:66.7634 40:49.3469 
1 1:42.251 2:17.6991 3:44.2478 4:63.7168 5:40.708 6:42.99 7:14.3164 8:43.665 9:62.2763 10:42.2334 11:46.3186 12:27.4615 13:46.2157 14:83.0543 15:38.848 16:42.0168 17:17.7487 18:40.6352 19:56.0486 20:42.5035 21:42.3162 22:16.7401 23:37.0044 24:60.3524 25:46.2555 26:42.7317 27:22.8471 28:36.9069 29:62.8295 30:36.9069 31:48.1481 32:22.5166 33:67.5497 34:79.4702 35:45.0331 36:43.7681 37:23.2221 38:39.1872 39:60.9579 40:44.9927 
1 1:42.1084 2:17.089 3:44.7849 4:63.6417 5:41.8385 6:42.9993 7:15.6472 8:42.6743 9:61.1664 10:43.3855 11:46.0509 12:26.7917 13:45.5459 14:81.0449 15:38.848 16:41.8994 17:18.1649 18:39.5901 19:55.8919 20:42.8505 21:42.4042 22:16.2996 23:37.4449 24:60.3524 25:46.696 26:42.5999 27:21.529 28:36.4675 29:62.8295 30:36.0281 31:48.2804 32:23.8411 33:67.5497 34:79.4702 35:45.0331 36:43.7681 37:23.2221 38:39.1872 39:58.0552 40:44.9927 
1 1:42.0495 2:17.6783 3:44.7849 4:61.8739 5:42.4278 6:42.4307 7:12.8023 8:43.3855 9:60.4552 10:42.6743 11:45.917 12:25.4521 13:46.2157 14:79.0355 15:38.848 16:42.0391 17:18.6306 18:39.5901 19:55.4262 20:45.1793 21:42.096 22:16.7401 23:37.0044 24:60.793 25:45.815 26:42.6877 27:21.9684 28:36.4675 29:63.2689 30:36.9069 31:48.1481 32:23.8411 33:67.5497 34:76.8212 35:45.0331 36:43.913 37:23.2221 38:40.6386 39:63.8607 40:44.9927 
1 1:41.9317 2:17.089 3:44.7849 4:61.2846 5:40.66 6:42.6439 7:14.936 8:41.963 9:61.8777 10:42.6743 11:45.7162 12:26.7917 13:45.5459 14:80.3751 15:37.5084 16:42.6909 17:19.0964 18:40.5217 19:60.0838 20:42.3847 21:42.2721 22:16.7401 23:37.4449 24:62.1145 25:44.4934 26:42.6877 27:21.9684 28:37.7856 29:63.2689 30:37.3462 31:48.1481 32:21.1921 33:67.5497 34:78.1457 35:43.7086 36:43.7681 37:23.2221 38:39.1872 39:62.4093 40:43.5414 
1 1:41.8975 2:17.1091 3:44.8378 4:60.767 5:40.708 6:42.6439 7:14.936 8:41.963 9:61.8777 10:42.6743 11:45.7162 12:26.7917 13:45.5459 14:80.3751 15:37.5084 16:42.6909 17:19.0964 18:40.5217 19:60.0838 20:42.3847 21:42.2721 22:16.7401 23:37.4449 24:62.1145 25:44.4934 26:42.6877 27:21.9684 28:37.7856 29:63.2689 30:37.3462 31:48.1481 32:21.1921 33:67.5497 34:78.1457 35:43.7086 36:43.7681 37:23.2221 38:39.1872 39:62.4093 40:43.5414 
1 1:42.1084 2:18.2675 3:45.9635 4:62.4632 5:40.66 6:42.9282 7:15.6472 8:44.808 9:61.8777 10:42.6743 11:45.9839 12:25.4521 13:46.2157 14:81.0449 15:38.848 16:42.6909 17:20.4937 18:40.9874 19:59.6181 20:42.3847 21:42.096 22:16.7401 23:36.5639 24:59.9119 25:45.815 26:42.7317 27:22.8471 28:36.4675 29:62.8295 30:36.0281 31:48.4127 32:25.1656 33:68.8742 34:79.4702 35:45.0331 36:43.7681 37:23.2221 38:37.7358 39:62.4093 40:44.9927 
1 1:42.285 2:17.6783 3:45.3742 4:63.0524 5:40.66 6:43.0704 7:15.6472 8:44.0967 9:61.8777 10:42.6743 11:46.1178 12:26.7917 13:46.2157 14:81.7147 15:38.848 16:42.6443 17:19.0964 18:41.4532 19:59.6181 20:42.8505 21:42.0079 22:16.7401 23:36.5639 24:58.1498 25:44.4934 26:42.7756 27:22.4077 28:36.4675 29:63.2689 30:36.4675 31:48.4127 32:23.8411 33:68.8742 34:79.4702 35:45.0331 36:43.7681 37:23.2221 38:39.1872 39:63.8607 40:44.9927 
1 1:41.9906 2:18.8568 3:44.1956 4:60.1061 5:40.66 6:42.8571 7:14.936 8:40.5405 9:62.5889 10:42.6743 11:45.5823 12:26.1219 13:44.2063 14:81.0449 15:37.5084 16:42.6909 17:20.4937 18:39.5901 19:60.5496 20:42.8505 21:42.3162 22:15.859 23:36.1233 24:63.8767 25:45.815 26:42.556 27:20.2109 28:36.4675 29:63.2689 30:36.4675 31:48.0159 32:21.1921 33:67.5497 34:76.8212 35:45.0331 36:43.913 37:24.6734 38:39.1872 39:62.4093 40:43.5414 
1 1:42.1084 2:17.089 3:44.1956 4:61.2846 5:40.0707 6:42.9282 7:16.3585 8:40.5405 9:62.5889 10:42.6743 11:45.6493 12:27.4615 13:44.2063 14:79.7053 15:38.1782 16:42.5047 17:19.0964 18:40.5217 19:57.2892 20:43.3163 21:42.4042 22:14.5374 23:35.6828 24:62.9956 25:45.3744 26:41.9851 27:20.2109 28:35.5888 29:62.3902 30:36.0281 31:47.8836 32:21.1921 33:66.2252 34:76.8212 35:43.7086 36:43.7681 37:23.2221 38:39.1872 39:62.4093 40:43.5414 
1 1:42.285 2:17.089 3:44.7849 4:61.8739 5:38.8922 6:42.8571 7:16.3585 8:39.8293 9:61.8777 10:42.6743 11:45.6493 12:27.4615 13:44.2063 14:79.7053 15:38.1782 16:42.4115 17:19.0964 18:39.5901 19:57.755 20:42.3847 21:42.4923 22:14.978 23:36.5639 24:62.9956 25:45.3744 26:42.1168 27:20.6503 28:35.5888 29:62.8295 30:36.0281 31:47.8836 32:21.1921 33:66.2252 34:76.8212 35:43.7086 36:44.058 37:24.6734 38:39.1872 39:62.4093 40:43.5414 
1 1:42.0495 2:16.4997 3:45.3742 4:61.2846 5:40.0707 6:43.0704 7:17.0697 8:40.5405 9:62.5889 10:42.6743 11:45.6493 12:27.4615 13:43.5365 14:81.0449 15:38.1782 16:42.6909 17:21.4252 18:40.5217 19:57.2892 20:41.919 21:42.3602 22:13.6564 23:36.5639 24:62.5551 25:44.9339 26:42.2486 27:20.6503 28:36.0281 29:62.8295 30:36.4675 31:48.0159 32:21.1921 33:67.5497 34:76.8212 35:43.7086 36:43.913 37:23.2221 38:39.1872 39:62.4093 40:43.5414 
1 1:42.0495 2:16.4997 3:45.3742 4:61.2846 5:40.0707 6:42.9993 7:17.0697 8:40.5405 9:62.5889 10:42.6743 11:45.5823 12:27.4615 13:44.2063 14:79.7053 15:38.1782 16:42.6909 17:21.4252 18:40.5217 19:57.2892 20:42.8505 21:42.5363 22:14.0969 23:37.0044 24:63.4361 25:45.3744 26:42.2047 27:20.6503 28:35.5888 29:62.8295 30:36.4675 31:48.0159 32:21.1921 33:67.5497 34:76.8212 35:43.7086 36:43.913 37:23.2221 38:39.1872 39:62.4093 40:43.5414 
1 1:42.0495 2:15.9104 3:44.7849 4:61.2846 5:40.0707 6:43.2125 7:17.0697 8:41.963 9:62.5889 10:43.3855 11:45.4485 12:27.4615 13:44.2063 14:79.7053 15:36.8386 16:42.4115 17:18.6306 18:40.0559 19:57.755 20:42.8505 21:42.5804 22:15.4185 23:36.1233 24:62.9956 25:45.815 26:42.1168 27:20.2109 28:35.1494 29:62.3902 30:36.4675 31:48.0159 32:21.1921 33:67.5497 34:76.8212 35:43.7086 36:43.913 37:23.2221 38:39.1872 39:62.4093 40:43.5414 
1 1:42.285 2:15.9104 3:45.3742 4:61.8739 5:39.4814 6:43.2836 7:17.0697 8:40.5405 9:62.5889 10:43.3855 11:45.7162 12:27.4615 13:44.8761 14:79.0355 15:39.5177 16:42.4581 17:19.0964 18:39.5901 19:56.8235 20:43.782 21:42.3162 22:14.0969 23:36.5639 24:62.5551 25:45.815 26:42.2925 27:20.6503 28:36.4675 29:62.8295 30:36.4675 31:48.0159 32:21.1921 33:67.5497 34:76.8212 35:43.7086 36:43.7681 37:23.2221 38:39.1872 39:60.9579 40:43.5414 
1 1:42.1084 2:16.4997 3:45.3742 4:61.2846 5:40.0707 6:43.4257 7:17.7809 8:41.2518 9:64.0114 10:44.808 11:45.4485 12:27.4615 13:44.2063 14:79.7053 15:36.8386 16:42.4581 17:18.6306 18:40.0559 19:57.755 20:42.8505 21:42.5804 22:15.4185 23:36.1233 24:62.9956 25:45.815 26:42.1168 27:20.2109 28:35.1494 29:62.3902 30:36.4675 31:48.0159 32:21.1921 33:67.5497 34:76.8212 35:43.7086 36:43.913 37:23.2221 38:39.1872 39:62.4093 40:43.5414 
1 1:42.1673 2:17.089 3:44.7849 4:61.8739 5:40.66 6:43.1414 7:17.0697 8:41.2518 9:63.3001 10:42.6743 11:45.7831 12:28.1313 13:44.2063 14:79.0355 15:40.1875 16:42.5047 17:18.6306 18:40.0559 19:57.2892 20:43.3163 21:42.2281 22:15.4185 23:37.0044 24:62.5551 25:45.3744 26:42.0729 27:20.2109 28:35.1494 29:62.8295 30:36.4675 31:47.7513 32:21.1921 33:66.2252 34:75.4967 35:43.7086 36:43.6232 37:23.2221 38:39.1872 39:62.4093 40:40.6386 
1 1:42.0495 2:17.089 3:44.1956 4:61.2846 5:40.66 6:43.1721 7:17.094 8:41.3105 9:63.3903 10:43.4473 11:45.8501 12:28.8011 13:44.2063 14:79.7053 15:40.1875 16:42.4581 17:18.6306 18:40.0559 19:57.2892 20:43.3163 21:42.2721 22:14.978 23:37.0044 24:62.1145 25:45.3744 26:42.029 27:20.2109 28:35.1494 29:62.8295 30:36.4675 31:47.8836 32:21.1921 33:66.2252 34:75.4967 35:43.7086 36:43.6232 37:23.2221 38:39.1872 39:62.4093 40:40.6386 
1 1:42.2261 2:17.089 3:44.7849 4:61.2846 5:41.2493 6:43.1721 7:17.094 8:41.3105 9:63.3903 10:43.4473 11:45.7831 12:28.1313 13:43.5365 14:79.0355 15:40.1875 16:42.4779 17:18.648 18:40.0932 19:57.3427 20:43.8228 21:42.3162 22:14.978 23:36.5639 24:62.9956 25:44.4934 26:42.2047 27:20.6503 28:35.1494 29:62.8295 30:36.4675 31:47.5497 32:21.2483 33:65.073 34:73.0412 35:43.8247 36:43.6865 37:23.2897 38:37.8457 39:61.1354 40:42.2125 
1 1:42.2261 2:16.4997 3:44.7849 4:61.8739 5:41.2493 6:43.1414 7:17.0697 8:41.2518 9:63.3001 10:43.3855 11:45.7831 12:28.1313 13:43.5365 14:78.3657 15:40.1875 16:42.4581 17:18.6306 18:40.0559 19:57.2892 20:44.2478 21:42.2721 22:14.5374 23:36.5639 24:62.5551 25:44.9339 26:42.2047 27:20.6503 28:35.5888 29:62.8295 30:36.0281 31:47.619 32:21.1921 33:66.2252 34:74.1722 35:43.7086 36:43.6232 37:23.2221 38:39.1872 39:62.4093 40:40.6386 
1 1:42.1673 2:16.4997 3:44.7849 4:61.2846 5:41.2493 6:43.2125 7:17.0697 8:41.2518 9:64.7226 10:43.3855 11:45.7831 12:28.1313 13:43.5365 14:78.3657 15:40.1875 16:42.3381 17:18.648 18:40.0932 19:56.4103 20:43.8228 21:42.2281 22:14.5374 23:36.5639 24:62.5551 25:44.9339 26:42.2047 27:20.6503 28:35.5888 29:62.8295 30:36.4675 31:47.619 32:21.1921 33:66.2252 34:74.1722 35:43.7086 36:43.5414 37:23.2897 38:37.8457 39:61.1354 40:40.7569 
1 1:42.0555 2:16.0047 3:43.8648 4:61.0551 5:42.0865 6:43.1414 7:17.0697 8:41.2518 9:63.3001 10:43.3855 11:45.7162 12:28.1313 13:43.5365 14:78.3657 15:40.1875 16:42.5047 17:18.6306 18:40.0559 19:57.2892 20:44.2478 21:42.2281 22:14.5374 23:36.5639 24:62.9956 25:45.3744 26:42.2232 27:21.1082 28:35.6201 29:62.445 30:36.9393 31:47.619 32:21.1921 33:66.2252 34:74.1722 35:43.7086 36:43.6232 37:23.2221 38:39.1872 39:62.4093 40:40.6386 
1 1:41.9906 2:16.4997 3:44.1956 4:61.2846 5:41.2493 6:43.0704 7:17.0697 8:41.2518 9:63.3001 10:41.963 11:45.7162 12:28.1313 13:43.5365 14:78.3657 15:40.1875 16:42.4581 17:18.6306 18:40.0559 19:57.2892 20:44.2478 21:42.3162 22:14.5374 23:37.0044 24:62.9956 25:44.9339 26:42.2486 27:20.6503 28:35.5888 29:62.8295 30:36.4675 31:47.6821 32:21.2483 33:66.4011 34:74.3692 35:43.8247 36:43.7681 37:23.2221 38:39.1872 39:62.4093 40:42.09 
1 1:42.0495 2:16.4997 3:44.7849 4:61.2846 5:40.66 6:43.1414 7:17.0697 8:41.2518 9:62.5889 10:43.3855 11:45.7831 12:28.1313 13:44.2063 14:79.0355 15:40.1875 16:42.5047 17:18.6306 18:40.0559 19:57.2892 20:43.3163 21:42.3162 22:15.4185 23:36.5639 24:61.674 25:45.815 26:42.0729 27:19.7715 28:35.1494 29:63.2689 30:36.4675 31:47.619 32:19.8675 33:66.2252 34:74.1722 35:43.7086 36:43.6232 37:23.2221 38:39.1872 39:62.4093 40:40.6386 
1 1:41.8728 2:15.3212 3:44.7849 4:61.2846 5:40.0707 6:43.2125 7:16.3585 8:41.963 9:63.3001 10:43.3855 11:45.9478 12:28.169 13:44.2656 14:79.1415 15:40.2414 16:42.5047 17:18.6306 18:40.0559 19:57.2892 20:43.3163 21:42.4229 22:14.9912 23:37.037 24:63.0511 25:45.4145 26:42.3364 27:21.0896 28:35.5888 29:63.2689 30:37.3462 31:47.8146 32:21.2483 33:66.4011 34:75.6972 35:43.8247 36:43.5414 37:23.2897 38:37.8457 39:62.591 40:40.7569 
1 1:41.9906 2:15.3212 3:44.7849 4:61.2846 5:40.0707 6:43.1414 7:17.0697 8:41.2518 9:62.5889 10:43.3855 11:45.917 12:28.1313 13:44.2063 14:79.0355 15:40.1875 16:42.5512 17:18.6306 18:40.5217 19:57.755 20:43.3163 21:42.4042 22:14.978 23:37.0044 24:62.9956 25:45.3744 26:42.2047 27:21.0896 28:35.5888 29:63.2689 30:36.4675 31:47.7513 32:21.1921 33:66.2252 34:75.4967 35:43.7086 36:43.6232 37:23.2221 38:39.1872 39:62.4093 40:40.6386 
1 1:41.9906 2:15.3212 3:44.7849 4:61.2846 5:40.0707 6:43.2125 7:17.0697 8:41.2518 9:63.3001 10:43.3855 11:45.917 12:28.1313 13:44.2063 14:79.0355 15:40.1875 16:42.5512 17:18.6306 18:40.5217 19:57.755 20:43.3163 21:42.4042 22:14.978 23:37.0044 24:62.9956 25:45.3744 26:42.2047 27:21.0896 28:35.5888 29:63.2689 30:36.4675 31:47.7513 32:21.1921 33:66.2252 34:75.4967 35:43.7086 36:43.6232 37:23.2221 38:39.1872 39:62.4093 40:40.6386 
1 1:41.9906 2:15.3212 3:44.7849 4:61.2846 5:40.0707 6:43.2125 7:17.0697 8:41.2518 9:63.3001 10:43.3855 11:45.917 12:28.1313 13:44.2063 14:79.0355 15:40.1875 16:42.4581 17:18.6306 18:40.0559 19:57.2892 20:43.3163 21:42.4042 22:14.978 23:37.0044 24:62.9956 25:45.3744 26:42.2047 27:21.0896 28:35.5888 29:63.2689 30:36.4675 31:47.8836 32:21.1921 33:66.2252 34:76.8212 35:43.7086 36:43.6232 37:23.2221 38:39.1872 39:62.4093 40:40.6386 
1 1:41.6961 2:15.3212 3:43.0171 4:60.6953 5:40.66 6:43.4968 7:17.0697 8:41.2518 9:63.3001 10:44.808 11:45.7831 12:28.1313 13:43.5365 14:79.7053 15:38.848 16:42.365 17:18.1649 18:40.0559 19:57.755 20:42.8505 21:42.2281 22:14.978 23:37.4449 24:61.674 25:44.9339 26:42.3803 27:21.0896 28:35.5888 29:65.4657 30:36.4675 31:47.619 32:21.1921 33:66.2252 34:75.4967 35:41.0596 36:43.6232 37:24.6734 38:39.1872 39:62.4093 40:40.6386 
1 1:42.0495 2:15.3212 3:45.3742 4:61.8739 5:39.4814 6:43.2836 7:16.3585 8:41.2518 9:63.3001 10:43.3855 11:45.917 12:28.1313 13:43.5365 14:79.0355 15:39.5177 16:42.4581 17:18.6306 18:40.0559 19:56.8235 20:43.3163 21:42.3162 22:14.5374 23:37.4449 24:62.1145 25:44.9339 26:42.3364 27:21.529 28:36.0281 29:63.7083 30:36.4675 31:47.7513 32:22.5166 33:66.2252 34:75.4967 35:41.0596 36:43.6232 37:23.2221 38:39.1872 39:62.4093 40:40.6386 
1 1:42.1084 2:16.4997 3:45.3742 4:61.2846 5:40.0707 6:42.9993 7:17.0697 8:40.5405 9:62.5889 10:42.6743 11:45.7162 12:28.1313 13:44.2063 14:80.3751 15:38.1782 16:42.365 17:18.6306 18:40.0559 19:57.2892 20:42.8505 21:42.3602 22:14.0969 23:36.5639 24:63.4361 25:45.3744 26:42.2047 27:20.6503 28:35.5888 29:63.2689 30:36.0281 31:48.1481 32:22.5166 33:67.5497 34:76.8212 35:45.0331 36:44.058 37:23.2221 38:40.6386 39:62.4093 40:42.09 
1 1:42.285 2:15.9104 3:45.9635 4:61.2846 5:40.0707 6:43.0704 7:16.3585 8:40.5405 9:62.5889 10:42.6743 11:45.7831 12:28.1313 13:43.5365 14:80.3751 15:38.848 16:42.5978 17:18.6306 18:40.5217 19:58.2208 20:42.8505 21:42.4483 22:14.5374 23:37.0044 24:63.4361 25:45.815 26:42.1607 27:20.6503 28:36.0281 29:62.3902 30:36.0281 31:48.0159 32:21.1921 33:67.5497 34:78.1457 35:43.7086 36:43.913 37:23.2221 38:39.1872 39:62.4093 40:43.5414 
1 1:42.1673 2:15.9104 3:45.3742 4:61.2846 5:40.66 6:43.1721 7:17.094 8:39.886 9:63.3903 10:42.735 11:45.5823 12:28.1313 13:43.5365 14:79.7053 15:38.848 16:42.5047 17:19.0964 18:40.5217 19:57.755 20:43.3163 21:42.3602 22:14.0969 23:36.1233 24:63.4361 25:45.3744 26:42.0729 27:20.2109 28:34.71 29:62.3902 30:36.0281 31:48.545 32:23.8411 33:67.5497 34:76.8212 35:45.0331 36:43.8316 37:23.2897 38:37.8457 39:61.1354 40:43.6681 
1 1:42.0495 2:15.9104 3:43.6064 4:61.2846 5:40.66 6:43.4968 7:15.6472 8:42.6743 9:63.3001 10:44.0967 11:45.5823 12:28.1313 13:42.8667 14:79.7053 15:39.5177 16:42.5512 17:18.6306 18:40.5217 19:58.2208 20:43.3163 21:42.2721 22:14.0969 23:36.1233 24:62.1145 25:45.3744 26:42.1168 27:20.6503 28:35.1494 29:62.3902 30:36.0281 31:48.0159 32:21.1921 33:67.5497 34:76.8212 35:43.7086 36:43.913 37:23.2221 38:39.1872 39:62.4093 40:42.09 
0.3612428012179606 1:41.9906 2:15.9104 3:44.1956 4:60.6953 5:40.66 6:43.0704 7:16.3585 8:41.2518 9:62.5889 10:42.6743 11:45.5823 12:28.1313 13:42.8667 14:79.7053 15:38.848 16:42.4581 17:18.1649 18:40.0559 19:58.2208 20:42.8505 21:42.3162 22:14.5374 23:36.1233 24:63.4361 25:45.3744 26:42.1168 27:20.6503 28:36.4675 29:62.3902 30:36.4675 31:47.8836 32:21.1921 33:66.2252 34:76.8212 35:43.7086 36:43.913 37:24.6734 38:39.1872 39:62.4093 40:44.9927 
1 1:42.285 2:16.4997 3:45.3742 4:61.2846 5:41.2493 6:43.4257 7:17.0697 8:41.963 9:64.0114 10:43.3855 11:45.5154 12:27.4615 13:43.5365 14:79.7053 15:38.848 16:42.365 17:18.6306 18:40.0559 19:57.2892 20:43.782 21:42.2721 22:14.5374 23:36.1233 24:62.9956 25:45.3744 26:42.1607 27:20.2109 28:35.5888 29:61.9508 30:36.0281 31:47.7513 32:21.1921 33:67.5497 34:74.1722 35:43.7086 36:43.913 37:23.2221 38:39.1872 39:63.8607 40:43.5414 
1 1:42.0495 2:16.4997 3:44.7849 4:62.4632 5:40.0707 6:43.2125 7:16.3585 8:41.2518 9:61.8777 10:44.0967 11:45.3815 12:26.7917 13:43.5365 14:79.7053 15:38.848 16:42.5978 17:18.6306 18:40.5217 19:57.2892 20:43.3163 21:42.2721 22:14.5374 23:35.6828 24:62.9956 25:45.815 26:42.2486 27:20.6503 28:35.5888 29:62.8295 30:37.3462 31:48.0159 32:21.1921 33:67.5497 34:76.8212 35:43.7086 36:43.6232 37:21.7707 38:37.7358 39:62.4093 40:42.09 
1 1:42.1673 2:16.4997 3:44.7849 4:62.4632 5:40.66 6:43.2836 7:16.3585 8:41.2518 9:62.5889 10:44.0967 11:45.4119 12:26.8276 13:43.5949 14:79.1415 15:38.9001 16:42.5512 17:18.6306 18:40.5217 19:57.755 20:43.3163 21:42.3162 22:14.5374 23:35.6828 24:62.9956 25:45.815 26:42.1607 27:20.6503 28:35.5888 29:62.8295 30:36.0281 31:48.0159 32:21.1921 33:67.5497 34:76.8212 35:43.7086 36:43.913 37:23.2221 38:39.1872 39:62.4093 40:43.5414 
1 1:42.1084 2:16.4997 3:44.1956 4:62.4632 5:40.66 6:43.2125 7:16.3585 8:41.2518 9:61.8777 10:44.0967 11:45.4485 12:26.7917 13:43.5365 14:79.7053 15:38.848 16:42.5512 17:18.6306 18:40.5217 19:57.755 20:43.3163 21:42.2281 22:14.0969 23:35.6828 24:62.9956 25:45.3744 26:42.1607 27:20.6503 28:35.5888 29:62.3902 30:36.0281 31:48.0159 32:21.1921 33:67.5497 34:76.8212 35:43.7086 36:43.913 37:23.2221 38:39.1872 39:62.4093 40:43.5414 
1 1:42.1673 2:16.4997 3:45.3742 4:62.4632 5:40.0707 6:43.2125 7:15.6472 8:41.2518 9:62.5889 10:44.0967 11:45.4485 12:27.4615 13:43.5365 14:79.7053 15:38.848 16:42.4115 17:18.6306 18:40.0559 19:57.755 20:42.3847 21:42.3162 22:14.5374 23:35.6828 24:63.4361 25:45.3744 26:42.1168 27:20.6503 28:35.5888 29:62.3902 30:36.0281 31:47.8836 32:21.1921 33:67.5497 34:75.4967 35:43.7086 36:43.7681 37:21.7707 38:39.1872 39:62.4093 40:43.5414 
1 1:42.1673 2:16.4997 3:44.7849 4:62.4632 5:40.66 6:43.3547 7:16.3585 8:41.963 9:62.5889 10:44.0967 11:45.5154 12:27.4615 13:43.5365 14:79.7053 15:38.848 16:42.5512 17:18.6306 18:40.0559 19:58.2208 20:43.782 21:42.2721 22:14.5374 23:35.6828 24:63.4361 25:45.3744 26:42.1168 27:20.6503 28:35.5888 29:62.3902 30:36.0281 31:48.0159 32:21.1921 33:67.5497 34:76.8212 35:43.7086 36:43.7681 37:21.7707 38:39.1872 39:62.4093 40:43.5414 
1 1:42.1673 2:16.4997 3:45.3742 4:61.2846 5:40.66 6:43.0299 7:16.3818 8:40.5983 9:61.9658 10:42.735 11:45.5823 12:28.1313 13:42.8667 14:79.7053 15:38.1782 16:42.5978 17:18.6306 18:40.5217 19:58.2208 20:43.3163 21:42.3602 22:14.5374 23:36.5639 24:62.9956 25:45.3744 26:42.1607 27:21.0896 28:35.5888 29:62.3902 30:36.4675 31:48.0159 32:21.1921 33:67.5497 34:76.8212 35:43.7086 36:43.7681 37:23.2221 38:39.1872 39:62.4093 40:43.5414 
1 1:42.1673 2:16.4997 3:45.3742 4:61.2846 5:40.66 6:43.1414 7:16.3585 8:41.2518 9:62.5889 10:43.3855 11:45.5823 12:28.1313 13:42.8667 14:79.7053 15:38.848 16:42.5978 17:19.0964 18:40.5217 19:57.755 20:43.782 21:42.467 22:14.5503 23:36.5961 24:63.933 25:45.4145 26:42.1607 27:20.6503 28:35.1494 29:61.9508 30:36.4675 31:48.0159 32:21.1921 33:67.5497 34:76.8212 35:43.7086 36:43.913 37:23.2221 38:39.1872 39:62.4093 40:43.5414 
1 1:42.1673 2:16.4997 3:45.3742 4:61.2846 5:40.66 6:43.1414 7:16.3585 8:41.2518 9:62.5889 10:42.6743 11:45.5823 12:28.1313 13:42.8667 14:79.7053 15:38.848 16:42.6443 17:18.6306 18:40.5217 19:58.2208 20:43.3163 21:42.4042 22:14.5374 23:36.5639 24:62.9956 25:45.3744 26:42.2486 27:21.0896 28:35.5888 29:62.8295 30:36.4675 31:48.0159 32:21.1921 33:67.5497 34:76.8212 35:43.7086 36:43.7681 37:23.2221 38:39.1872 39:62.4093 40:42.09 
1 1:42.1084 2:16.4997 3:45.3742 4:61.2846 5:40.66 6:43.1965 7:15.8501 8:41.0663 9:63.4006 10:42.5072 11:45.929 12:27.8552 13:43.8719 14:81.4763 15:40.39 16:42.7374 17:20.0279 18:40.5217 19:58.2208 20:43.782 21:42.3706 22:14.6082 23:36.7419 24:62.417 25:45.5954 26:42.1425 27:20.8149 28:35.4296 29:62.4446 30:35.8725 31:47.9839 32:21.5343 33:67.2948 34:76.716 35:43.0686 36:43.913 37:23.2221 38:39.1872 39:62.4093 40:43.5414 
1 1:42.1084 2:16.4997 3:44.7849 4:61.2846 5:40.66 6:43.2125 7:16.3585 8:41.2518 9:63.3001 10:42.6743 11:45.5823 12:27.4615 13:42.8667 14:79.0355 15:39.5177 16:42.6909 17:18.6306 18:40.9874 19:58.6865 20:43.3163 21:42.4483 22:14.5374 23:36.5639 24:62.9956 25:45.3744 26:42.4682 27:21.9684 28:36.4675 29:63.2689 30:37.3462 31:48.0159 32:21.1921 33:67.5497 34:76.8212 35:43.7086 36:43.913 37:23.2221 38:39.1872 39:62.4093 40:43.5414 
1 1:42.1673 2:16.4997 3:45.3742 4:60.6953 5:41.2493 6:43.1414 7:16.3585 8:41.2518 9:62.5889 10:42.6743 11:45.5823 12:28.1313 13:42.8667 14:79.7053 15:38.848 16:42.5978 17:18.6306 18:40.9874 19:58.2208 20:42.8505 21:42.4042 22:14.978 23:36.5639 24:63.4361 25:45.3744 26:42.0914 27:20.6684 28:35.1803 29:62.445 30:36.0598 31:48.0159 32:21.1921 33:67.5497 34:76.8212 35:43.7086 36:43.913 37:23.2221 38:39.1872 39:62.4093 40:43.5414 
1 1:42.0495 2:16.4997 3:45.3742 4:61.2846 5:38.8922 6:42.8571 7:14.936 8:39.1181 9:61.8777 10:42.6743 11:45.6493 12:28.8011 13:42.8667 14:80.3751 15:38.848 16:42.365 17:18.6306 18:40.5217 19:57.2892 20:42.8505 21:42.3162 22:14.978 23:36.1233 24:62.9956 25:45.815 26:42.029 27:20.2109 28:35.5888 29:61.5114 30:36.0281 31:47.8836 32:21.1921 33:67.5497 34:75.4967 35:43.7086 36:43.7681 37:23.2221 38:39.1872 39:60.9579 40:43.5414 
1 1:42.1673 2:16.4997 3:45.3742 4:61.8739 5:40.0707 6:42.9993 7:16.3585 8:40.5405 9:62.5889 10:44.808 11:45.7831 12:27.4615 13:44.2063 14:81.0449 15:38.1782 16:42.6443 17:20.0279 18:40.0559 19:57.755 20:42.8505 21:42.4923 22:14.978 23:37.0044 24:62.5551 25:45.3744 26:41.9412 27:20.6503 28:34.71 29:61.9508 30:35.1494 31:48.0159 32:21.1921 33:67.5497 34:76.8212 35:43.7086 36:43.7681 37:23.2221 38:39.1872 39:62.4093 40:42.09 
1 1:42.4028 2:17.089 3:44.7849 4:62.4632 5:40.66 6:43.2125 7:16.3585 8:41.2518 9:62.5889 10:43.3855 11:45.7831 12:28.1313 13:43.5365 14:79.7053 15:38.848 16:42.5512 17:18.6306 18:40.5217 19:57.755 20:42.8505 21:42.4042 22:14.5374 23:37.0044 24:63.4361 25:45.815 26:42.1168 27:20.6503 28:36.0281 29:62.3902 30:36.0281 31:48.1481 32:22.5166 33:67.5497 34:78.1457 35:45.0331 36:44.058 37:23.2221 38:39.1872 39:62.4093 40:43.5414 
1 1:42.1673 2:17.089 3:44.1956 4:62.4632 5:40.0707 6:42.9993 7:16.3585 8:40.5405 9:62.5889 10:43.3855 11:46.0509 12:28.1313 13:44.8761 14:81.7147 15:38.848 16:42.4115 17:18.6306 18:40.0559 19:56.8235 20:42.8505 21:42.2281 22:14.978 23:35.6828 24:60.793 25:45.3744 26:42.0729 27:20.6503 28:35.5888 29:62.3902 30:36.4675 31:48.0159 32:21.1921 33:67.5497 34:76.8212 35:43.7086 36:44.2029 37:23.2221 38:40.6386 39:62.4093 40:43.5414 
1 1:42.1673 2:17.089 3:45.3742 4:61.8739 5:40.0707 6:42.8571 7:16.3585 8:40.5405 9:61.8777 10:43.3855 11:45.7162 12:28.1313 13:44.8761 14:79.7053 15:38.1782 16:42.5512 17:19.5622 18:39.5901 19:55.8919 20:43.782 21:42.4483 22:15.4185 23:37.0044 24:61.674 25:45.815 26:42.1168 27:20.6503 28:35.1494 29:61.5114 30:36.0281 31:48.0159 32:21.1921 33:67.5497 34:76.8212 35:43.7086 36:44.058 37:23.2221 38:40.6386 39:63.8607 40:44.9927 
1 1:42.2261 2:17.089 3:45.3742 4:61.8739 5:40.0707 6:42.9282 7:16.3585 8:40.5405 9:61.8777 10:43.3855 11:45.7162 12:28.1313 13:44.8761 14:79.7053 15:38.1782 16:42.5512 17:19.5622 18:39.5901 19:55.8919 20:43.782 21:42.4923 22:15.4185 23:37.0044 24:61.674 25:45.815 26:42.2047 27:20.6503 28:35.1494 29:61.9508 30:36.0281 31:48.0159 32:21.1921 33:67.5497 34:76.8212 35:43.7086 36:43.7681 37:23.2221 38:39.1872 39:62.4093 40:43.5414 
1 1:42.2261 2:17.089 3:45.3742 4:61.8739 5:40.0707 6:42.9282 7:16.3585 8:40.5405 9:61.8777 10:43.3855 11:45.7162 12:28.1313 13:44.8761 14:79.7053 15:38.1782 16:42.5978 17:20.0279 18:40.0559 19:55.8919 20:43.782 21:42.4923 22:15.4185 23:37.0044 24:61.674 25:45.815 26:42.1168 27:20.6503 28:35.1494 29:61.5114 30:36.0281 31:48.0159 32:21.1921 33:67.5497 34:76.8212 35:43.7086 36:43.7681 37:23.2221 38:39.1872 39:62.4093 40:43.5414 
1 1:42.2261 2:17.089 3:45.3742 4:61.8739 5:40.0707 6:42.9993 7:16.3585 8:40.5405 9:61.8777 10:44.0967 11:45.7162 12:28.1313 13:44.8761 14:79.7053 15:38.1782 16:42.4581 17:19.0964 18:39.5901 19:55.8919 20:43.782 21:42.6244 22:15.859 23:37.0044 24:61.674 25:46.2555 26:42.1168 27:20.6503 28:35.1494 29:60.6327 30:36.4675 31:47.8836 32:21.1921 33:67.5497 34:75.4967 35:43.7086 36:43.7681 37:23.2221 38:39.1872 39:62.4093 40:43.5414 
1 1:42.2261 2:17.089 3:45.3742 4:61.8739 5:40.0707 6:42.9282 7:16.3585 8:40.5405 9:61.8777 10:43.3855 11:45.7162 12:28.1313 13:44.8761 14:79.7053 15:38.1782 16:42.5978 17:20.0279 18:40.0559 19:55.8919 20:43.782 21:42.4923 22:15.4185 23:37.0044 24:61.674 25:45.815 26:42.1168 27:20.6503 28:35.1494 29:61.5114 30:36.0281 31:48.0159 32:21.1921 33:67.5497 34:76.8212 35:43.7086 36:43.7681 37:23.2221 38:39.1872 39:62.4093 40:43.5414 
1 1:42.285 2:17.089 3:45.3742 4:61.8739 5:40.0707 6:42.9282 7:16.3585 8:40.5405 9:61.8777 10:43.3855 11:45.7162 12:28.1313 13:44.8761 14:79.7053 15:38.1782 16:42.4581 17:19.5622 18:39.5901 19:55.4262 20:43.782 21:42.4483 22:15.4185 23:37.0044 24:61.674 25:45.3744 26:42.1607 27:20.6503 28:35.1494 29:61.9508 30:36.0281 31:48.1481 32:22.5166 33:67.5497 34:76.8212 35:43.7086 36:43.7681 37:23.2221 38:39.1872 39:62.4093 40:43.5414 
1 1:42.1084 2:15.3212 3:44.1956 4:61.8739 5:41.8385 6:43.6389 7:17.0697 8:41.2518 9:63.3001 10:46.2304 11:45.4485 12:27.4615 13:44.2063 14:78.3657 15:38.1782 16:42.5978 17:19.5622 18:40.0559 19:56.8235 20:43.3163 21:42.4483 22:14.978 23:36.1233 24:62.5551 25:44.9339 26:42.2486 27:20.6503 28:35.5888 29:63.7083 30:35.5888 31:48.0159 32:21.1921 33:67.5497 34:76.8212 35:43.7086 36:43.913 37:23.2221 38:40.6386 39:62.4093 40:43.5414 
1 1:42.1673 2:17.089 3:45.3742 4:61.8739 5:39.4814 6:42.9993 7:16.3585 8:40.5405 9:61.8777 10:43.3855 11:45.6493 12:27.4615 13:44.2063 14:79.0355 15:38.1782 16:42.5512 17:19.0964 18:39.5901 19:56.8235 20:43.782 21:42.4042 22:14.978 23:37.0044 24:62.1145 25:45.815 26:42.1168 27:20.6503 28:35.5888 29:61.5114 30:36.0281 31:48.0159 32:21.1921 33:67.5497 34:76.8212 35:43.7086 36:43.7681 37:23.2221 38:39.1872 39:62.4093 40:43.5414 
1 1:42.1673 2:17.089 3:45.3742 4:61.8739 5:39.4814 6:42.9993 7:16.3585 8:40.5405 9:61.8777 10:43.3855 11:45.7831 12:28.8011 13:44.8761 14:79.7053 15:38.1782 16:42.5512 17:19.5622 18:39.5901 19:55.8919 20:43.782 21:42.4923 22:15.4185 23:37.0044 24:61.674 25:45.815 26:42.1607 27:20.6503 28:35.5888 29:61.9508 30:36.0281 31:48.0159 32:21.1921 33:67.5497 34:76.8212 35:43.7086 36:43.7681 37:23.2221 38:39.1872 39:62.4093 40:43.5414 
1 1:42.1673 2:17.089 3:45.3742 4:61.8739 5:39.4814 6:42.9993 7:16.3585 8:40.5405 9:61.8777 10:43.3855 11:45.8501 12:28.8011 13:45.5459 14:79.7053 15:38.1782 16:42.4581 17:19.5622 18:39.5901 19:55.8919 20:43.3163 21:42.4042 22:15.4185 23:37.0044 24:60.793 25:45.815 26:42.1168 27:21.0896 28:35.1494 29:61.5114 30:36.4675 31:48.0159 32:21.1921 33:67.5497 34:76.8212 35:43.7086 36:43.913 37:23.2221 38:40.6386 39:62.4093 40:43.5414 
1 1:42.1673 2:17.089 3:45.3742 4:61.8739 5:39.4814 6:42.9993 7:16.3585 8:40.5405 9:61.8777 10:43.3855 11:45.6493 12:27.4615 13:43.5365 14:79.7053 15:38.1782 16:42.5512 17:19.0964 18:39.5901 19:56.8235 20:43.782 21:42.4483 22:14.978 23:37.0044 24:62.1145 25:45.815 26:42.1168 27:20.6503 28:35.5888 29:61.5114 30:36.0281 31:48.0159 32:21.1921 33:67.5497 34:76.8212 35:43.7086 36:43.7681 37:23.2221 38:39.1872 39:62.4093 40:43.5414 
1 1:42.1673 2:17.089 3:45.3742 4:61.8739 5:39.4814 6:42.9993 7:16.3585 8:40.5405 9:61.8777 10:43.3855 11:45.7831 12:28.8011 13:44.8761 14:79.7053 15:38.1782 16:42.5512 17:19.5622 18:39.5901 19:55.8919 20:43.782 21:42.4483 22:15.4185 23:36.5639 24:61.674 25:45.815 26:42.1168 27:20.6503 28:35.1494 29:61.5114 30:36.0281 31:48.0159 32:21.1921 33:67.5497 34:76.8212 35:43.7086 36:43.6232 37:23.2221 38:39.1872 39:62.4093 40:42.09 
1 1:42.1673 2:17.089 3:45.3742 4:61.8739 5:39.4814 6:43.1414 7:16.3585 8:41.2518 9:61.8777 10:43.3855 11:45.7162 12:28.1313 13:44.8761 14:79.7053 15:38.1782 16:42.5512 17:19.5622 18:39.5901 19:55.8919 20:43.782 21:42.4923 22:15.4185 23:37.0044 24:61.674 25:45.815 26:42.2486 27:20.6503 28:35.5888 29:62.3902 30:36.0281 31:48.0159 32:21.1921 33:67.5497 34:76.8212 35:43.7086 36:43.7681 37:23.2221 38:39.1872 39:62.4093 40:43.5414 
1 1:42.1673 2:17.089 3:45.3742 4:61.8739 5:39.4814 6:42.9993 7:16.3585 8:40.5405 9:61.8777 10:43.3855 11:45.6493 12:27.4615 13:44.2063 14:79.0355 15:38.1782 16:42.5512 17:19.0964 18:39.5901 19:56.8235 20:43.782 21:42.4042 22:14.978 23:37.0044 24:62.1145 25:45.815 26:42.1168 27:20.6503 28:35.5888 29:61.5114 30:36.0281 31:48.0159 32:21.1921 33:67.5497 34:76.8212 35:43.7086 36:43.7681 37:23.2221 38:39.1872 39:62.4093 40:43.5414 
1 1:42.1673 2:17.089 3:45.3742 4:61.8739 5:39.4814 6:42.9993 7:16.3585 8:40.5405 9:61.8777 10:43.3855 11:45.8501 12:28.8011 13:44.8761 14:80.3751 15:38.1782 16:42.5512 17:19.5622 18:39.5901 19:55.8919 20:43.782 21:42.4923 22:15.4185 23:37.0044 24:61.674 25:45.815 26:42.1607 27:20.6503 28:35.5888 29:61.9508 30:36.0281 31:48.0159 32:21.1921 33:67.5497 34:76.8212 35:43.7086 36:43.7681 37:23.2221 38:39.1872 39:62.4093 40:43.5414 
1 1:42.1673 2:17.089 3:45.3742 4:61.8739 5:39.4814 6:42.9993 7:16.3585 8:40.5405 9:61.8777 10:43.3855 11:45.6493 12:27.4615 13:44.2063 14:79.0355 15:38.1782 16:42.5512 17:19.0964 18:39.5901 19:56.8235 20:43.782 21:42.4042 22:14.978 23:37.0044 24:62.1145 25:45.815 26:42.1168 27:20.6503 28:35.5888 29:61.5114 30:36.0281 31:48.0159 32:21.1921 33:67.5497 34:76.8212 35:43.7086 36:43.7681 37:23.2221 38:39.1872 39:62.4093 40:43.5414 
1 1:42.1673 2:17.089 3:45.3742 4:61.8739 5:39.4814 6:42.9993 7:16.3585 8:40.5405 9:61.8777 10:43.3855 11:45.7831 12:28.8011 13:44.8761 14:79.7053 15:38.1782 16:42.5512 17:19.5622 18:39.5901 19:55.8919 20:43.782 21:42.4483 22:15.4185 23:36.5639 24:61.674 25:45.815 26:42.1168 27:20.6503 28:35.1494 29:61.5114 30:36.0281 31:48.0159 32:21.1921 33:67.5497 34:76.8212 35:43.7086 36:43.913 37:23.2221 38:39.1872 39:63.8607 40:43.5414 
1 1:42.1673 2:17.089 3:45.3742 4:61.8739 5:39.4814 6:42.9993 7:16.3585 8:40.5405 9:61.8777 10:43.3855 11:45.6493 12:27.4615 13:44.2063 14:79.0355 15:38.1782 16:42.6443 17:19.5622 18:39.5901 19:57.2892 20:43.782 21:42.4042 22:14.978 23:37.0044 24:62.1145 25:45.815 26:42.1168 27:20.6503 28:35.5888 29:61.5114 30:36.0281 31:47.8836 32:21.1921 33:67.5497 34:76.8212 35:42.3841 36:43.7681 37:23.2221 38:39.1872 39:62.4093 40:43.5414 
1 1:42.1673 2:17.089 3:45.3742 4:61.8739 5:39.4814 6:43.1414 7:17.0697 8:40.5405 9:61.8777 10:43.3855 11:45.7162 12:27.4615 13:44.2063 14:79.7053 15:38.1782 16:42.5512 17:19.0964 18:39.5901 19:56.8235 20:43.782 21:42.4483 22:14.978 23:37.0044 24:62.1145 25:45.815 26:42.1607 27:21.0896 28:35.5888 29:61.9508 30:36.0281 31:47.8836 32:21.1921 33:67.5497 34:76.8212 35:42.3841 36:43.7681 37:23.2221 38:39.1872 39:62.4093 40:43.5414 
1 1:42.1673 2:17.089 3:45.3742 4:61.8739 5:39.4814 6:43.1414 7:17.0697 8:40.5405 9:61.8777 10:43.3855 11:45.7162 12:27.4615 13:44.2063 14:79.7053 15:38.1782 16:42.5512 17:19.0964 18:39.5901 19:56.8235 20:43.782 21:42.4483 22:14.978 23:37.0044 24:62.1145 25:45.815 26:42.1607 27:21.0896 28:35.5888 29:61.9508 30:36.0281 31:47.8836 32:21.1921 33:67.5497 34:76.8212 35:42.3841 36:43.7681 37:23.2221 38:39.1872 39:62.4093 40:43.5414 
1 1:42.1084 2:17.089 3:45.3742 4:61.8739 5:39.4814 6:42.9282 7:16.3585 8:40.5405 9:61.8777 10:43.3855 11:45.8501 12:27.4615 13:44.2063 14:79.7053 15:38.1782 16:42.5047 17:19.0964 18:39.5901 19:56.8235 20:43.3163 21:42.4483 22:14.978 23:37.0044 24:62.1145 25:45.815 26:42.029 27:20.6503 28:35.5888 29:61.0721 30:35.5888 31:48.0159 32:21.1921 33:67.5497 34:76.8212 35:43.7086 36:43.7681 37:23.2221 38:39.1872 39:62.4093 40:43.5414 
1 1:42.1084 2:17.089 3:45.3742 4:61.8739 5:39.4814 6:42.9993 7:15.6472 8:40.5405 9:61.8777 10:44.0967 11:45.6493 12:26.7917 13:44.2063 14:79.7053 15:38.1782 16:42.5512 17:19.0964 18:39.5901 19:56.8235 20:43.782 21:42.3602 22:14.978 23:37.4449 24:62.5551 25:45.3744 26:42.1168 27:20.6503 28:35.5888 29:61.9508 30:35.5888 31:48.0159 32:21.1921 33:67.5497 34:76.8212 35:43.7086 36:43.7681 37:23.2221 38:39.1872 39:62.4093 40:43.5414 
1 1:42.1084 2:17.089 3:45.3742 4:61.8739 5:39.4814 6:42.9993 7:15.6472 8:40.5405 9:61.8777 10:44.0967 11:45.6493 12:26.7917 13:44.2063 14:79.7053 15:38.1782 16:42.5512 17:19.0964 18:39.5901 19:56.8235 20:43.782 21:42.3602 22:14.978 23:37.4449 24:62.5551 25:45.3744 26:42.1168 27:20.6503 28:35.5888 29:61.9508 30:35.5888 31:48.0159 32:21.1921 33:67.5497 34:76.8212 35:43.7086 36:43.7681 37:23.2221 38:39.1872 39:62.4093 40:43.5414 
1 1:42.1084 2:17.089 3:45.3742 4:61.8739 5:39.4814 6:42.9993 7:15.6472 8:40.5405 9:61.8777 10:44.0967 11:45.6493 12:26.7917 13:44.2063 14:79.7053 15:38.1782 16:42.5512 17:19.0964 18:39.5901 19:56.8235 20:43.782 21:42.3602 22:14.978 23:37.4449 24:62.5551 25:45.3744 26:42.1168 27:20.6503 28:35.5888 29:61.9508 30:35.5888 31:48.0159 32:21.1921 33:67.5497 34:76.8212 35:43.7086 36:43.7681 37:23.2221 38:39.1872 39:62.4093 40:43.5414 
1 1:42.0495 2:17.089 3:45.3742 4:61.8739 5:39.4814 6:42.9282 7:16.3585 8:39.8293 9:61.8777 10:43.3855 11:45.7162 12:27.4615 13:44.2063 14:79.7053 15:38.1782 16:42.5512 17:19.0964 18:39.5901 19:56.8235 20:43.782 21:42.3602 22:14.5374 23:37.0044 24:61.674 25:45.815 26:42.1168 27:20.6503 28:35.5888 29:61.5114 30:36.0281 31:48.0159 32:21.1921 33:67.5497 34:74.1722 35:43.7086 36:43.7681 37:23.2221 38:39.1872 39:62.4093 40:43.5414 
1 1:42.0495 2:17.089 3:45.3742 4:61.8739 5:39.4814 6:42.9282 7:16.3585 8:39.8293 9:61.8777 10:43.3855 11:45.7162 12:27.4615 13:44.2063 14:79.7053 15:38.1782 16:42.5512 17:19.0964 18:39.5901 19:56.8235 20:43.782 21:42.3602 22:14.5374 23:37.0044 24:61.674 25:45.815 26:42.1168 27:20.6503 28:35.5888 29:61.5114 30:36.0281 31:48.0159 32:21.1921 33:67.5497 34:74.1722 35:43.7086 36:43.7681 37:23.2221 38:39.1872 39:62.4093 40:43.5414 
1 1:42.0495 2:17.089 3:45.3742 4:61.8739 5:39.4814 6:42.9282 7:16.3585 8:39.8293 9:61.8777 10:43.3855 11:45.7162 12:27.4615 13:44.2063 14:79.7053 15:38.1782 16:42.5512 17:19.0964 18:39.5901 19:56.8235 20:43.782 21:42.3602 22:14.5374 23:37.0044 24:61.674 25:45.815 26:42.1168 27:20.6503 28:35.5888 29:61.5114 30:36.0281 31:48.0159 32:21.1921 33:67.5497 34:74.1722 35:43.7086 36:43.7681 37:23.2221 38:39.1872 39:62.4093 40:43.5414 
1 1:42.1084 2:17.089 3:44.7849 4:61.2846 5:40.0707 6:42.7861 7:16.3585 8:40.5405 9:61.8777 10:42.6743 11:45.7162 12:27.4615 13:44.2063 14:79.7053 15:38.1782 16:42.5978 17:20.4937 18:40.5217 19:56.8235 20:42.8505 21:42.5363 22:15.859 23:36.5639 24:62.1145 25:45.3744 26:42.1168 27:21.0896 28:35.1494 29:61.9508 30:36.0281 31:47.8836 32:21.1921 33:66.2252 34:76.8212 35:43.7086 36:43.6232 37:23.2221 38:39.1872 39:62.4093 40:42.09 
0.77527492678798582 1:42.2261 2:17.089 3:44.7849 4:61.8739 5:40.0707 6:42.8571 7:16.3585 8:40.5405 9:62.5889 10:42.6743 11:45.7831 12:27.4615 13:44.2063 14:80.3751 15:38.1782 16:42.5047 17:18.6306 18:40.5217 19:57.2892 20:43.3163 21:42.3602 22:14.978 23:36.1233 24:63.4361 25:45.3744 26:41.9851 27:20.6503 28:35.1494 29:62.3902 30:36.0281 31:47.8836 32:21.1921 33:67.5497 34:76.8212 35:43.7086 36:43.913 37:23.2221 38:39.1872 39:62.4093 40:43.5414 
1 1:42.3439 2:16.4997 3:44.7849 4:61.8739 5:41.8385 6:42.9282 7:17.0697 8:40.5405 9:61.8777 10:43.3855 11:45.6493 12:27.4615 13:44.2063 14:80.3751 15:38.1782 16:42.5047 17:19.5622 18:40.5217 19:56.8235 20:43.3163 21:42.3602 22:14.978 23:36.1233 24:63.4361 25:45.815 26:42.0729 27:20.6503 28:35.1494 29:62.3902 30:36.0281 31:48.0159 32:21.1921 33:67.5497 34:76.8212 35:43.7086 36:44.058 37:23.2221 38:39.1872 39:62.4093 40:43.5414 
1 1:42.3439 2:16.4997 3:44.7849 4:63.0524 5:41.2493 6:42.9282 7:17.0697 8:40.5405 9:61.8777 10:43.3855 11:45.5823 12:27.4615 13:43.5365 14:80.3751 15:37.5084 16:42.4581 17:19.0964 18:40.5217 19:56.8235 20:43.3163 21:42.4042 22:14.978 23:36.1233 24:63.8767 25:45.3744 26:42.029 27:20.6503 28:35.1494 29:61.9508 30:36.0281 31:47.8836 32:21.1921 33:67.5497 34:76.8212 35:43.7086 36:43.913 37:23.2221 38:39.1872 39:62.4093 40:43.5414 
1 1:42.285 2:16.4997 3:44.7849 4:61.8739 5:41.2493 6:42.9993 7:17.0697 8:40.5405 9:62.5889 10:43.3855 11:45.6493 12:27.4615 13:44.2063 14:80.3751 15:38.1782 16:42.5047 17:19.0964 18:40.5217 19:56.8235 20:43.3163 21:42.3602 22:14.978 23:36.1233 24:63.4361 25:45.815 26:42.0729 27:20.6503 28:35.1494 29:62.3902 30:36.0281 31:48.0159 32:21.1921 33:67.5497 34:76.8212 35:43.7086 36:43.913 37:23.2221 38:39.1872 39:62.4093 40:43.5414 
1 1:42.1673 2:17.089 3:44.7849 4:61.2846 5:41.2493 6:42.9282 7:16.3585 8:40.5405 9:62.5889 10:42.6743 11:45.7162 12:27.4615 13:44.2063 14:79.7053 15:38.1782 16:42.4581 17:18.6306 18:40.5217 19:56.8235 20:43.3163 21:42.3602 22:14.978 23:36.1233 24:63.8767 25:45.3744 26:42.1425 27:20.372 28:35.4296 29:62.4446 30:36.3153 31:48.0159 32:21.1921 33:67.5497 34:76.8212 35:43.7086 36:43.7681 37:23.2221 38:39.1872 39:62.4093 40:43.5414 
1 1:42.3439 2:17.089 3:44.7849 4:63.0524 5:40.66 6:42.9587 7:16.3818 8:40.5983 9:62.6781 10:42.735 11:45.7831 12:27.4615 13:44.2063 14:81.0449 15:38.1782 16:42.5047 17:18.6306 18:40.5217 19:56.8235 20:43.782 21:42.3162 22:14.978 23:35.6828 24:63.4361 25:45.3744 26:42.0475 27:20.6684 28:35.6201 29:62.0053 30:35.6201 31:48.1481 32:22.5166 33:67.5497 34:76.8212 35:43.7086 36:43.913 37:23.2221 38:39.1872 39:62.4093 40:43.5414 
1 1:42.1084 2:17.089 3:44.1956 4:61.8739 5:40.0707 6:42.715 7:17.0697 8:39.1181 9:62.5889 10:41.963 11:45.7831 12:26.7917 13:44.2063 14:81.0449 15:38.1782 16:42.4115 17:19.0964 18:40.0559 19:56.3577 20:42.8505 21:42.4483 22:15.859 23:36.5639 24:62.5551 25:45.3744 26:42.1607 27:21.0896 28:35.1494 29:62.3902 30:36.4675 31:48.0159 32:21.1921 33:67.5497 34:76.8212 35:43.7086 36:43.7681 37:23.2221 38:39.1872 39:62.4093 40:43.5414 
1 1:42.1673 2:17.6783 3:44.7849 4:63.0524 5:40.66 6:43.4968 7:17.0697 8:41.963 9:63.3001 10:43.3855 11:45.5823 12:26.1219 13:44.2063 14:78.3657 15:38.1782 16:42.4581 17:19.5622 18:40.0559 19:56.8235 20:43.3163 21:42.2281 22:16.2996 23:37.0044 24:62.5551 25:43.6123 26:42.6877 27:23.7258 28:37.3462 29:61.0721 30:36.0281 31:47.8836 32:21.1921 33:66.2252 34:75.4967 35:43.7086 36:43.7681 37:23.2221 38:37.7358 39:63.8607 40:44.9927 
1 1:42.1084 2:17.089 3:44.7849 4:61.8739 5:39.4814 6:42.7861 7:16.3585 8:40.5405 9:61.8777 10:42.6743 11:45.7162 12:27.4615 13:44.2063 14:79.7053 15:38.1782 16:42.5978 17:20.4937 18:40.5217 19:56.8235 20:42.8505 21:42.4923 22:15.4185 23:36.5639 24:62.1145 25:45.3744 26:42.1168 27:21.0896 28:35.1494 29:61.9508 30:35.5888 31:48.0159 32:21.1921 33:67.5497 34:76.8212 35:43.7086 36:43.6232 37:23.2221 38:39.1872 39:62.4093 40:42.09 
1 1:42.1673 2:17.089 3:44.7849 4:61.8739 5:40.0707 6:42.7861 7:16.3585 8:40.5405 9:61.8777 10:42.6743 11:45.6493 12:26.7917 13:43.5365 14:79.7053 15:38.1782 16:42.5512 17:20.0279 18:40.0559 19:56.8235 20:42.8505 21:42.4923 22:15.4185 23:36.5639 24:62.1145 25:45.3744 26:42.0729 27:21.0896 28:35.1494 29:61.9508 30:35.5888 31:48.0159 32:21.1921 33:67.5497 34:76.8212 35:43.7086 36:43.6232 37:23.2221 38:39.1872 39:62.4093 40:42.09 
1 1:42.1673 2:17.089 3:44.7849 4:61.8739 5:40.0707 6:42.8571 7:16.3585 8:40.5405 9:61.8777 10:42.6743 11:45.7162 12:27.4615 13:44.2063 14:79.7053 15:38.1782 16:42.5512 17:20.0279 18:40.0559 19:56.8235 20:42.8505 21:42.4923 22:15.4185 23:36.5639 24:62.1145 25:45.3744 26:42.0729 27:21.0896 28:35.1494 29:61.9508 30:35.5888 31:48.0159 32:21.1921 33:67.5497 34:76.8212 35:43.7086 36:43.6232 37:23.2221 38:39.1872 39:62.4093 40:42.09 
1 1:41.6961 2:17.6783 3:43.6064 4:60.6953 5:40.0707 6:43.2836 7:17.0697 8:41.2518 9:62.5889 10:44.0967 11:45.7831 12:29.4709 13:44.8761 14:82.3845 15:36.1688 16:43.7151 17:22.8225 18:44.2478 19:61.0154 20:44.7136 21:42.4802 22:14.9582 23:36.9556 24:65.1122 25:44.4347 26:43.4343 27:20.6503 28:38.6643 29:67.2232 30:38.225 31:48.6772 32:22.5166 33:67.5497 34:80.7947 35:46.3576 36:43.913 37:23.2221 38:40.6386 39:63.8607 40:44.9927 
1 1:42.2261 2:17.089 3:45.3742 4:63.0524 5:41.2493 6:43.1414 7:15.6472 8:40.5405 9:61.8777 10:43.3855 11:45.6493 12:26.7917 13:42.8667 14:78.3657 15:38.848 16:42.5978 17:19.5622 18:40.5217 19:57.755 20:42.3847 21:42.14 22:15.859 23:37.0044 24:60.793 25:46.2555 26:42.5999 27:21.0896 28:36.9069 29:62.8295 30:36.0281 31:48.545 32:22.5166 33:67.5497 34:76.8212 35:46.3576 36:43.913 37:23.2221 38:40.6386 39:62.4093 40:46.4441 
0.77188324313201395 1:42.285 2:17.6783 3:45.3742 4:63.0524 5:41.8385 6:43.2125 7:15.6472 8:40.5405 9:61.1664 10:44.0967 11:45.7162 12:26.7917 13:43.5365 14:78.3657 15:38.848 16:42.5512 17:19.5622 18:40.9874 19:56.8235 20:42.3847 21:42.2721 22:15.859 23:37.0044 24:60.793 25:46.2555 26:42.5999 27:21.0896 28:36.9069 29:62.8295 30:36.0281 31:48.545 32:22.5166 33:67.5497 34:78.1457 35:46.3576 36:43.913 37:23.2221 38:40.6386 39:62.4093 40:46.4441 
1 1:41.755 2:16.4997 3:44.7849 4:60.1061 5:40.66 6:43.3547 7:17.7809 8:39.8293 9:63.3001 10:44.0967 11:45.6798 12:26.1569 13:43.5949 14:77.8001 15:38.2294 16:42.6443 17:20.4937 18:40.5217 19:57.2892 20:42.3847 21:42.4483 22:15.859 23:37.0044 24:60.793 25:46.696 26:42.7317 27:21.529 28:36.0281 29:63.7083 30:36.0281 31:48.2804 32:22.5166 33:67.5497 34:76.8212 35:45.0331 36:44.7167 37:22.5443 38:41.868 39:67.6329 40:46.6989 
1 1:42.5684 2:17.4174 3:45.6456 4:62.4625 5:43.2432 6:43.3547 7:18.4922 8:40.5405 9:63.3001 10:44.0967 11:45.6493 12:26.1219 13:43.5365 14:79.0355 15:38.1782 16:42.4907 17:20.1029 18:41.6082 19:56.101 20:42.5432 21:42.5363 22:13.6564 23:39.6476 24:61.2335 25:40.0881 26:42.8383 27:21.9877 28:37.3791 29:65.0836 30:36.0598 31:48.3444 32:22.5764 33:67.7291 34:75.6972 35:46.4807 36:43.6681 37:23.4261 38:40.9956 39:62.9575 40:42.4597 
1 1:41.9906 2:18.2675 3:44.7849 4:61.2846 5:40.0707 6:42.9993 7:16.3585 8:39.8293 9:62.5889 10:44.0967 11:45.7162 12:27.4615 13:43.5365 14:78.3657 15:38.848 16:42.8305 17:21.4252 18:40.5217 19:59.1523 20:42.8505 21:42.1841 22:15.859 23:36.5639 24:60.3524 25:46.696 26:42.5999 27:21.0896 28:36.9069 29:63.2689 30:35.5888 31:48.4127 32:22.5166 33:67.5497 34:76.8212 35:46.3576 36:43.913 37:23.2221 38:39.1872 39:62.4093 40:46.4441 
1 1:42.1084 2:18.2675 3:44.7849 4:61.8739 5:41.2493 6:43.0704 7:16.3585 8:39.1181 9:63.3001 10:44.0967 11:45.5154 12:26.1219 13:43.5365 14:77.6959 15:38.1782 16:42.5978 17:20.0279 18:40.0559 19:59.6181 20:42.8505 21:42.2721 22:16.2996 23:37.0044 24:60.3524 25:46.696 26:42.8195 27:21.529 28:36.9069 29:65.0264 30:36.4675 31:48.2804 32:22.5166 33:67.5497 34:76.8212 35:43.7086 36:44.058 37:23.2221 38:40.6386 39:63.8607 40:46.4441 
1 1:41.8139 2:18.2675 3:44.1956 4:61.2846 5:40.66 6:43.2125 7:16.3585 8:39.8293 9:62.5889 10:45.5192 11:45.5823 12:25.4521 13:43.5365 14:77.6959 15:38.1782 16:42.6443 17:20.4937 18:40.9874 19:58.6865 20:42.8505 21:41.9639 22:14.978 23:36.5639 24:61.674 25:44.9339 26:42.5999 27:21.9684 28:36.4675 29:64.1476 30:35.5888 31:48.4127 32:23.8411 33:67.5497 34:76.8212 35:46.3576 36:44.2029 37:23.2221 38:42.09 39:65.312 40:46.4441 
1 1:41.8975 2:18.2891 3:44.2478 4:61.3569 5:41.2979 6:43.2125 7:16.3585 8:39.8293 9:62.5889 10:45.5192 11:45.4485 12:26.1219 13:43.5365 14:76.3563 15:38.1782 16:42.4115 17:20.9595 18:39.5901 19:57.2892 20:41.919 21:42.096 22:15.859 23:37.0044 24:61.674 25:45.3744 26:42.5308 27:21.5479 28:36.0598 29:62.8848 30:35.6201 31:48.545 32:23.8411 33:67.5497 34:78.1457 35:46.3576 36:44.2029 37:23.2221 38:40.6386 39:63.8607 40:46.4441 
1 1:41.6961 2:15.9104 3:43.6064 4:61.2846 5:40.0707 6:43.3547 7:17.0697 8:41.2518 9:64.0114 10:44.0967 11:45.6493 12:26.1219 13:44.2063 14:81.0449 15:37.5084 16:42.365 17:19.5622 18:40.0559 19:57.2892 20:42.8505 21:42.6244 22:16.2996 23:37.8855 24:63.8767 25:44.9339 26:42.5999 27:21.9684 28:36.0281 29:63.2689 30:36.0281 31:48.4127 32:21.1921 33:67.5497 34:76.8212 35:45.0331 36:44.2029 37:24.6734 38:40.6386 39:60.9579 40:44.9927 
1 1:42.0495 2:17.6783 3:44.1956 4:61.8739 5:40.0707 6:43.3547 7:17.0697 8:41.2518 9:63.3001 10:43.3855 11:45.5154 12:26.1219 13:42.1969 14:79.0355 15:36.8386 16:42.5047 17:19.5622 18:40.0559 19:57.2892 20:42.8505 21:42.2281 22:16.2996 23:37.4449 24:62.5551 25:43.1718 26:42.1607 27:21.0896 28:35.5888 29:61.5114 30:35.5888 31:48.6772 32:22.5166 33:67.5497 34:76.8212 35:46.3576 36:43.7681 37:23.2221 38:40.6386 39:63.8607 40:43.5414 
1 1:41.9906 2:18.2675 3:44.1956 4:61.8739 5:40.0707 6:42.9993 7:15.6472 8:40.5405 9:62.5889 10:41.963 11:45.3815 12:26.1219 13:41.5271 14:78.3657 15:36.8386 16:42.5512 17:19.5622 18:39.5901 19:57.755 20:43.3163 21:42.4483 22:15.859 23:37.4449 24:62.1145 25:45.3744 26:42.1607 27:20.6503 28:35.5888 29:61.9508 30:36.0281 31:48.0159 32:21.1921 33:67.5497 34:76.8212 35:43.7086 36:43.7681 37:23.2221 38:40.6386 39:63.8607 40:44.9927 
1 1:41.9906 2:18.2675 3:44.1956 4:61.8739 5:40.0707 6:42.9282 7:15.6472 8:40.5405 9:62.5889 10:41.2518 11:45.5154 12:26.1219 13:42.1969 14:79.0355 15:36.8386 16:42.5978 17:19.0964 18:40.0559 19:57.755 20:43.3163 21:42.2721 22:16.7401 23:37.4449 24:62.9956 25:44.0529 26:42.8195 27:23.2865 28:37.7856 29:63.7083 30:36.4675 31:48.6772 32:22.5166 33:67.5497 34:76.8212 35:46.3576 36:43.7681 37:23.2221 38:40.6386 39:63.8607 40:44.9927 
1 1:41.755 2:18.2675 3:43.6064 4:63.0524 5:39.4814 6:42.9282 7:17.0697 8:40.5405 9:60.4552 10:40.5405 11:44.9612 12:28.4728 13:44.0035 14:75.0647 15:35.3753 16:42.3496 17:19.4405 18:38.881 19:56.4248 20:43.1484 21:43.2139 22:17.4102 23:39.173 24:63.6561 25:48.4222 26:43.2406 27:24.9252 28:33.8983 29:62.8116 30:47.8564 31:48.8095 32:22.5166 33:67.5497 34:78.1457 35:46.3576 36:43.6232 37:23.2221 38:40.6386 39:66.7634 40:43.5414 
1 1:42.2261 2:17.6783 3:43.6064 4:66.5881 5:40.66 6:43.2836 7:16.3585 8:41.963 9:62.5889 10:43.3855 11:46.2517 12:24.7823 13:46.8855 14:72.3376 15:35.499 16:43.6685 17:17.6991 18:45.6451 19:62.4127 20:47.0424 21:42.6684 22:17.1806 23:39.6476 24:58.5903 25:48.0176 26:43.5222 27:21.529 28:38.6643 29:67.6626 30:36.4675 31:47.4868 32:26.4901 33:62.2517 34:70.1987 35:45.0331 36:43.913 37:26.1248 38:42.09 39:60.9579 40:49.3469 
1 1:41.8139 2:17.089 3:44.7849 4:64.231 5:40.66 6:42.9282 7:15.6472 8:42.6743 9:63.3001 10:41.963 11:46.1178 12:26.7917 13:48.2251 14:75.0167 15:39.5177 16:42.8771 17:19.5622 18:42.8505 19:57.2892 20:48.9054 21:42.2281 22:15.4185 23:37.8855 24:62.1145 25:45.3744 26:43.7857 27:18.8928 28:38.6643 29:69.42 30:37.7856 31:48.1481 32:21.1921 33:67.5497 34:76.8212 35:46.3576 36:43.7681 37:24.6734 38:40.6386 39:63.8607 40:40.6386 
0.15270562291133849 1:41.6372 2:17.089 3:43.0171 4:63.0524 5:40.0707 6:43.1414 7:18.4922 8:40.5405 9:63.3001 10:42.6743 11:45.3306 12:26.6212 13:44.3686 14:77.8157 15:38.2253 16:42.4867 17:19.9867 18:37.3085 19:55.2965 20:47.968 21:43.2451 22:16.9952 23:36.0299 24:65.2617 25:52.3453 26:42.6168 27:23.4522 28:34.7092 29:68.4803 30:37.5235 31:48.2804 32:22.5166 33:67.5497 34:78.1457 35:46.3576 36:43.7681 37:24.6734 38:40.6386 39:63.8607 40:43.5414 
0.094809976847179206 1:41.3584 2:17.5202 3:39.7574 4:64.0162 5:37.7358 6:43.2836 7:17.7809 8:41.2518 9:63.3001 10:42.6743 11:44.4772 12:35.503 13:38.4615 14:78.4024 15:23.6686 16:42.9157 17:19.3776 18:41.1039 19:59.3071 20:43.4527 21:43.8406 22:18.1554 23:38.4895 24:64.6333 25:55.1924 26:44.2341 27:26.7472 28:44.8663 29:65.5738 30:39.6894 31:48.2804 32:22.5166 33:67.5497 34:78.1457 35:46.3576 36:43.7681 37:23.2221 38:39.1872 39:65.312 40:46.4441 
1 1:41.6372 2:17.089 3:43.0171 4:63.0524 5:39.4814 6:43.1414 7:17.7809 8:41.2518 9:64.0114 10:41.2518 11:46.4789 12:31.3972 13:36.1068 14:83.2025 15:39.2465 16:42.0527 17:16.3934 18:37.3406 19:62.8415 20:38.2514 21:43.5484 22:18.2584 23:36.5169 24:65.309 25:53.3708 26:42.7434 27:23.0496 28:36.3475 29:60.2837 30:45.2128 31:48.2804 32:22.5166 33:67.5497 34:78.1457 35:46.3576 36:43.6232 37:24.6734 38:39.1872 39:63.8607 40:43.5414 
1 1:40.8957 2:15.3392 3:38.9381 4:61.3569 5:37.1681 6:42.1464 7:16.3585 8:36.9844 9:69.7013 10:38.4068 11:46.1178 12:24.1125 13:51.574 14:70.998 15:44.8761 16:44.1341 17:22.3568 18:46.1109 19:62.4127 20:45.6451 21:41.8871 22:15.0177 23:37.9859 24:59.629 25:41.0777 26:44.4884 27:18.8928 28:43.058 29:66.7838 30:41.7399 31:48.2804 32:26.4901 33:64.9007 34:67.5497 35:43.7086 36:45.9665 37:33.5366 38:41.1585 39:64.0244 40:50.3049 
1 1:40.8716 2:15.3212 3:38.8922 4:61.2846 5:37.1243 6:42.1464 7:16.3585 8:36.9844 9:69.7013 10:38.4068 11:46.1178 12:24.1125 13:51.574 14:70.998 15:44.8761 16:44.1341 17:22.3568 18:46.1109 19:62.4127 20:45.6451 21:41.8943 22:15.4321 23:37.9189 24:59.5238 25:41.0053 26:44.4884 27:18.8928 28:43.058 29:66.7838 30:41.7399 31:48.2804 32:26.4901 33:64.9007 34:67.5497 35:43.7086 36:45.9665 37:33.5366 38:41.1585 39:64.0244 40:50.3049 
1 1:40.8716 2:15.3212 3:38.8922 4:61.8739 5:37.1243 6:42.3898 7:16.3818 8:37.037 9:69.8006 10:39.1738 11:46.3855 12:24.7823 13:51.574 14:73.0074 15:44.8761 16:44.0875 17:21.891 18:46.1109 19:61.4811 20:45.6451 21:41.9199 22:15.4185 23:37.8855 24:59.9119 25:40.9692 26:44.3761 27:18.4697 28:42.6561 29:66.8426 30:41.3369 31:48.2804 32:26.4901 33:66.2252 34:66.2252 35:43.7086 36:45.9665 37:33.5366 38:41.1585 39:64.0244 40:50.3049 
1 1:40.8127 2:15.3212 3:38.8922 4:61.8739 5:37.1243 6:42.3596 7:16.3585 8:36.9844 9:69.7013 10:39.1181 11:46.3855 12:24.7823 13:51.574 14:73.0074 15:44.8761 16:44.0875 17:21.891 18:46.1109 19:61.4811 20:45.6451 21:41.9639 22:15.4185 23:37.8855 24:59.9119 25:41.8502 26:44.3127 27:18.4534 28:42.6186 29:66.7838 30:41.3005 31:48.2804 32:26.4901 33:66.2252 34:66.2252 35:43.7086 36:45.9665 37:33.5366 38:41.1585 39:64.0244 40:50.3049 
1 1:40.9894 2:14.7319 3:39.4814 4:61.2846 5:37.7136 6:42.0753 7:16.3585 8:36.9844 9:69.7013 10:37.6956 11:46.1178 12:24.1125 13:50.9042 14:70.998 15:44.8761 16:43.9944 17:21.891 18:46.1109 19:62.4127 20:45.6451 21:41.8318 22:14.978 23:37.4449 24:59.4714 25:41.8502 26:44.4884 27:19.3322 28:43.058 29:66.3445 30:41.7399 31:48.4127 32:26.4901 33:64.9007 34:67.5497 35:43.7086 36:45.9665 37:33.5366 38:41.1585 39:64.0244 40:50.3049 
1 1:40.8127 2:14.7319 3:38.8922 4:61.2846 5:37.7136 6:42.1464 7:16.3585 8:36.9844 9:69.7013 10:37.6956 11:45.9839 12:23.4427 13:50.2344 14:70.998 15:44.8761 16:44.041 17:21.891 18:46.1109 19:61.9469 20:45.6451 21:42.0079 22:15.4185 23:37.8855 24:60.3524 25:41.4097 26:44.5762 27:18.8928 28:43.4974 29:68.1019 30:41.7399 31:48.2804 32:26.4901 33:63.5762 34:67.5497 35:43.7086 36:45.9665 37:33.5366 38:41.1585 39:64.0244 40:50.3049 
1 1:40.8127 2:14.7319 3:38.8922 4:61.2846 5:37.1243 6:42.0753 7:16.3585 8:36.9844 9:69.7013 10:38.4068 11:45.9839 12:22.7729 13:51.574 14:70.998 15:44.2063 16:44.1341 17:21.891 18:46.1109 19:61.9469 20:45.6451 21:41.8758 22:15.4185 23:37.8855 24:59.9119 25:40.5286 26:44.4884 27:18.8928 28:43.058 29:67.2232 30:41.7399 31:48.4127 32:26.4901 33:64.9007 34:67.5497 35:43.7086 36:45.9665 37:33.5366 38:41.1585 39:64.0244 40:50.3049 
1 1:40.8127 2:14.7319 3:38.8922 4:61.2846 5:37.1243 6:42.2175 7:16.3585 8:36.9844 9:70.4125 10:38.4068 11:45.9839 12:24.1125 13:51.574 14:70.998 15:44.8761 16:44.1806 17:22.3568 18:46.1109 19:61.9469 20:46.1109 21:41.8318 22:15.4185 23:37.8855 24:59.4714 25:40.9692 26:44.5079 27:18.9094 28:43.0959 29:66.8426 30:41.7766 31:48.4127 32:26.4901 33:64.9007 34:67.5497 35:43.7086 36:45.9665 37:33.5366 38:41.1585 39:64.0244 40:50.3049 
1 1:40.8127 2:14.7319 3:38.8922 4:61.2846 5:37.1243 6:42.1464 7:16.3585 8:36.9844 9:69.7013 10:38.4068 11:46.1178 12:24.1125 13:51.574 14:70.998 15:44.8761 16:44.082 17:21.9216 18:45.709 19:62.0336 20:45.709 21:41.9199 22:15.4185 23:37.8855 24:60.3524 25:40.9692 26:44.4347 27:18.9344 28:42.7125 29:66.4905 30:41.8318 31:48.4127 32:26.4901 33:64.9007 34:67.5497 35:43.7086 36:45.9665 37:33.5366 38:41.1585 39:64.0244 40:50.3049 
1 1:40.7778 2:14.7493 3:38.3481 4:61.3569 5:37.1681 6:42.1464 7:15.6472 8:36.9844 9:68.99 10:38.4068 11:46.1178 12:24.1125 13:51.574 14:70.998 15:44.8761 16:44.1341 17:21.891 18:45.6451 19:61.9469 20:45.6451 21:41.8174 22:15.4594 23:37.9859 24:59.629 25:41.0777 26:44.4884 27:18.8928 28:43.058 29:66.7838 30:41.7399 31:48.4127 32:26.4901 33:64.9007 34:67.5497 35:43.7086 36:46.0366 37:33.6391 38:41.2844 39:64.2202 40:50.4587 
1 1:40.8716 2:14.7319 3:38.8922 4:61.8739 5:37.1243 6:42.1464 7:16.3585 8:36.9844 9:69.7013 10:38.4068 11:46.1178 12:24.1125 13:51.574 14:70.998 15:44.8761 16:44.1341 17:21.891 18:46.1109 19:61.9469 20:45.6451 21:41.8758 22:15.4185 23:37.8855 24:59.9119 25:40.9692 26:44.4884 27:18.8928 28:43.058 29:66.7838 30:41.7399 31:48.4127 32:26.4901 33:64.9007 34:67.5497 35:43.7086 36:45.9665 37:33.5366 38:41.1585 39:64.0244 40:50.3049 
1 1:40.7538 2:14.7319 3:38.8922 4:61.8739 5:37.1243 6:42.2175 7:16.3585 8:36.9844 9:69.7013 10:37.6956 11:46.0509 12:24.7823 13:50.2344 14:71.6678 15:44.2063 16:44.1341 17:22.3568 18:46.1109 19:62.4127 20:45.6451 21:42.0079 22:15.4185 23:37.8855 24:60.3524 25:42.2907 26:44.3566 27:18.8928 28:43.058 29:66.7838 30:41.7399 31:48.4127 32:26.4901 33:64.9007 34:67.5497 35:43.7086 36:45.8143 37:33.5366 38:41.1585 39:64.0244 40:48.7805 
1 1:40.8127 2:14.1426 3:38.8922 4:61.2846 5:37.1243 6:42.0753 7:16.3585 8:36.9844 9:69.7013 10:37.6956 11:46.1178 12:24.1125 13:50.9042 14:70.998 15:44.8761 16:44.041 17:21.4252 18:46.1109 19:61.4811 20:45.6451 21:41.8318 22:15.4185 23:37.8855 24:59.9119 25:40.5286 26:44.4884 27:18.8928 28:43.058 29:66.7838 30:41.7399 31:48.1481 32:26.4901 33:64.9007 34:67.5497 35:41.0596 36:45.8143 37:33.5366 38:39.6341 39:64.0244 40:48.7805 
1 1:40.8716 2:14.7319 3:38.8922 4:61.8739 5:37.1243 6:42.2886 7:16.3585 8:36.9844 9:69.7013 10:38.4068 11:45.9839 12:23.4427 13:50.9042 14:70.998 15:44.2063 16:43.9944 17:21.891 18:46.1109 19:61.4811 20:45.6451 21:41.9199 22:15.4185 23:37.8855 24:60.3524 25:41.8502 26:44.4884 27:18.8928 28:43.058 29:66.7838 30:41.7399 31:48.4127 32:26.4901 33:64.9007 34:67.5497 35:43.7086 36:45.6621 37:32.0122 38:39.6341 39:64.0244 40:50.3049 
1 1:40.8127 2:15.3212 3:38.8922 4:61.2846 5:37.7136 6:42.0753 7:16.3585 8:36.9844 9:69.7013 10:37.6956 11:46.0509 12:24.1125 13:49.5646 14:72.3376 15:43.5365 16:43.9944 17:21.891 18:46.1109 19:61.9469 20:45.6451 21:42.0079 22:15.4185 23:37.8855 24:60.3524 25:41.4097 26:44.4884 27:18.8928 28:43.058 29:66.3445 30:41.3005 31:48.4127 32:26.4901 33:64.9007 34:67.5497 35:43.7086 36:46.5753 37:33.5366 38:42.6829 39:67.0732 40:50.3049 
1 1:40.6949 2:15.3212 3:38.3029 4:61.8739 5:35.9458 6:42.0753 7:16.3585 8:36.9844 9:69.7013 10:37.6956 11:46.1178 12:24.1125 13:50.9042 14:71.6678 15:44.8761 16:43.9944 17:21.891 18:46.1109 19:61.4811 20:45.6451 21:42.0079 22:15.4185 23:37.4449 24:60.793 25:41.4097 26:44.5323 27:18.8928 28:43.058 29:66.3445 30:42.1793 31:48.4127 32:26.4901 33:64.9007 34:67.5497 35:43.7086 36:46.7275 37:33.5366 38:42.6829 39:68.5976 40:50.3049 
1 1:40.6949 2:14.7319 3:38.3029 4:62.4632 5:37.1243 6:42.1464 7:17.0697 8:37.6956 9:69.7013 10:37.6956 11:45.8501 12:23.4427 13:50.2344 14:72.3376 15:42.8667 16:44.1341 17:23.7541 18:46.5766 19:61.4811 20:45.6451 21:41.9639 22:14.0969 23:37.4449 24:61.2335 25:41.4097 26:44.3566 27:18.4534 28:42.6186 29:65.9051 30:41.3005 31:48.4127 32:26.4901 33:64.9007 34:67.5497 35:43.7086 36:45.6621 37:33.5366 38:39.6341 39:64.0244 40:48.7805 
1 1:40.636 2:14.7319 3:37.7136 4:61.8739 5:37.1243 6:42.1464 7:17.0697 8:37.6956 9:69.7013 10:38.4068 11:45.8501 12:23.4427 13:50.2344 14:72.3376 15:42.8667 16:44.041 17:23.2883 18:46.1109 19:61.4811 20:45.6451 21:42.0079 22:14.5374 23:37.4449 24:61.2335 25:41.4097 26:44.4444 27:18.8928 28:42.6186 29:65.9051 30:41.7399 31:48.4127 32:26.4901 33:64.9007 34:67.5497 35:43.7086 36:45.9665 37:35.061 38:41.1585 39:64.0244 40:48.7805 
1 1:40.636 2:14.7319 3:38.3029 4:62.4632 5:36.5351 6:42.2175 7:17.0697 8:37.6956 9:70.4125 10:37.6956 11:45.917 12:22.7729 13:50.2344 14:71.6678 15:43.5365 16:44.1341 17:23.2883 18:46.5766 19:61.9469 20:45.6451 21:42.0079 22:14.0969 23:37.4449 24:60.793 25:41.4097 26:44.4005 27:18.4534 28:42.6186 29:65.9051 30:40.8612 31:48.2804 32:26.4901 33:63.5762 34:67.5497 35:42.3841 36:45.6621 37:32.0122 38:39.6341 39:64.0244 40:48.7805 
1 1:40.4832 2:14.7493 3:37.7581 4:61.9469 5:35.9882 6:42.0753 7:16.3585 8:37.6956 9:69.7013 10:37.6956 11:45.917 12:23.4427 13:50.9042 14:71.6678 15:44.2063 16:44.041 17:22.8225 18:45.6451 19:61.9469 20:45.6451 21:41.9199 22:14.978 23:37.4449 24:61.2335 25:39.6476 26:44.5323 27:18.0141 28:43.058 29:67.2232 30:41.3005 31:48.6772 32:29.1391 33:64.9007 34:67.5497 35:45.0331 36:45.8143 37:33.5366 38:41.1585 39:64.0244 40:48.7805 
1 1:40.636 2:14.1426 3:38.3029 4:61.2846 5:37.1243 6:41.9929 7:16.4051 8:37.0899 9:69.1869 10:37.0899 11:45.9839 12:24.1125 13:50.2344 14:71.6678 15:44.2063 16:43.9683 17:23.31 18:45.2214 19:61.0723 20:45.6876 21:42.052 22:14.978 23:37.8855 24:61.2335 25:40.5286 26:44.5323 27:18.4534 28:43.058 29:66.7838 30:41.3005 31:48.6772 32:29.1391 33:64.9007 34:67.5497 35:45.0331 36:45.8143 37:33.5366 38:41.1585 39:64.0244 40:48.7805 
1 1:40.4594 2:15.3212 3:37.7136 4:61.8739 5:35.9458 6:42.1464 7:16.3585 8:37.6956 9:68.99 10:38.4068 11:46.1178 12:24.7823 13:50.2344 14:72.3376 15:44.2063 16:44.0875 17:23.2883 18:46.1109 19:61.9469 20:46.5766 21:42.096 22:14.978 23:37.4449 24:61.2335 25:42.2907 26:44.5323 27:18.8928 28:43.058 29:66.3445 30:41.3005 31:48.4127 32:26.4901 33:64.9007 34:67.5497 35:42.3841 36:45.5099 37:33.5366 38:39.6341 39:64.0244 40:45.7317 
1 1:40.3654 2:15.3392 3:37.7581 4:62.5369 5:34.2183 6:42.1764 7:16.3818 8:37.037 9:69.8006 10:37.037 11:45.917 12:22.7729 13:49.5646 14:70.998 15:43.5365 16:43.9944 17:23.2883 18:46.1109 19:61.4811 20:46.1109 21:41.8758 22:15.4185 23:37.8855 24:59.9119 25:40.9692 26:44.4005 27:18.0141 28:43.4974 29:66.7838 30:40.4218 31:48.4127 32:25.1656 33:64.9007 34:67.5497 35:43.7086 36:45.9665 37:33.5366 38:41.1585 39:64.0244 40:48.7805 
1 1:40.106 2:14.7319 3:37.7136 4:61.8739 5:34.178 6:42.0753 7:17.0697 8:36.9844 9:69.7013 10:36.9844 11:45.917 12:22.7729 13:49.5646 14:70.998 15:43.5365 16:43.9944 17:23.2883 18:46.1109 19:61.0154 20:46.1109 21:41.8758 22:15.4185 23:37.8855 24:60.3524 25:40.5286 26:44.3127 27:18.4534 28:43.4974 29:65.9051 30:40.4218 31:48.545 32:26.4901 33:64.9007 34:67.5497 35:43.7086 36:45.9665 37:33.5366 38:41.1585 39:64.0244 40:48.7805 
1 1:40.106 2:14.7319 3:37.7136 4:61.8739 5:34.178 6:42.0753 7:16.3585 8:36.9844 9:69.7013 10:36.9844 11:45.917 12:22.7729 13:49.5646 14:70.998 15:43.5365 16:43.9479 17:23.2883 18:45.6451 19:61.4811 20:46.1109 21:41.8758 22:15.4185 23:37.8855 24:59.9119 25:40.5286 26:44.4005 27:18.4534 28:43.4974 29:66.3445 30:40.4218 31:48.545 32:26.4901 33:64.9007 34:67.5497 35:43.7086 36:45.9665 37:33.5366 38:41.1585 39:64.0244 40:48.7805 
1 1:40.8249 2:14.4753 3:39.2039 4:63.9324 5:36.7913 6:42.3221 7:15.3965 8:36.9515 9:71.5935 10:37.7213 11:46.323 12:24.4755 13:51.049 14:72.028 15:43.3566 16:44.1849 17:23.1996 18:45.4326 19:64.2823 20:46.3992 21:42.1461 22:15.3488 23:38.6047 24:60.4651 25:40 26:44.8586 27:18.1571 28:44.0309 29:67.635 30:42.2152 31:48.0641 32:25.4351 33:64.257 34:66.9344 35:44.1767 36:46.08 37:32.6264 38:42.4144 39:66.8842 40:48.9396 
1 1:40.6949 2:14.7319 3:38.3029 4:63.0524 5:37.1243 6:41.791 7:16.3585 8:36.2731 9:67.5676 10:39.1181 11:45.9839 12:23.4427 13:50.2344 14:72.3376 15:43.5365 16:43.8082 17:22.8225 18:44.7136 19:61.9469 20:45.6451 21:42.052 22:14.978 23:37.4449 24:59.9119 25:41.4097 26:44.4444 27:18.0141 28:43.4974 29:66.7838 30:41.3005 31:47.8836 32:25.1656 33:63.5762 34:66.2252 35:43.7086 36:45.6621 37:33.5366 38:41.1585 39:64.0244 40:48.7805 
1 1:40.636 2:15.3212 3:37.7136 4:62.4632 5:37.7136 6:41.8621 7:15.6472 8:35.5619 9:67.5676 10:39.8293 11:45.8501 12:22.7729 13:49.5646 14:71.6678 15:43.5365 16:43.9944 17:23.2883 18:45.1793 19:61.9469 20:45.6451 21:42.052 22:14.978 23:37.4449 24:59.9119 25:41.4097 26:44.4444 27:18.0141 28:43.9367 29:66.7838 30:41.3005 31:47.8836 32:25.1656 33:63.5762 34:66.2252 35:45.0331 36:45.3577 37:32.0122 38:41.1585 39:64.0244 40:48.7805 
1 1:40.6949 2:14.7319 3:38.3029 4:62.4632 5:37.7136 6:42.0043 7:17.0697 8:36.2731 9:68.2788 10:39.1181 11:45.9839 12:23.4427 13:50.2344 14:72.3376 15:43.5365 16:43.8547 17:22.8225 18:44.7136 19:61.9469 20:45.6451 21:42.0079 22:14.978 23:37.4449 24:59.9119 25:40.5286 26:44.4884 27:18.0141 28:43.4974 29:66.7838 30:41.3005 31:47.8836 32:25.1656 33:63.5762 34:66.2252 35:43.7086 36:45.6621 37:33.5366 38:41.1585 39:64.0244 40:48.7805 
1 1:40.6949 2:14.7319 3:38.3029 4:62.4632 5:37.7136 6:41.9332 7:16.3585 8:36.2731 9:68.2788 10:39.1181 11:45.917 12:23.4427 13:50.2344 14:71.6678 15:43.5365 16:43.9479 17:22.8225 18:45.1793 19:61.9469 20:46.5766 21:42.052 22:14.978 23:37.4449 24:59.9119 25:41.4097 26:44.4444 27:18.4534 28:43.4974 29:66.7838 30:41.3005 31:48.0159 32:23.8411 33:62.2517 34:66.2252 35:45.0331 36:45.6621 37:33.5366 38:41.1585 39:65.5488 40:47.2561 
1 1:40.6949 2:14.7319 3:38.3029 4:62.4632 5:37.7136 6:42.0043 7:16.3585 8:36.2731 9:68.2788 10:39.8293 11:45.9839 12:23.4427 13:50.9042 14:71.6678 15:44.2063 16:43.9013 17:23.2883 18:45.6451 19:61.9469 20:45.6451 21:42.096 22:15.4185 23:37.4449 24:59.9119 25:41.4097 26:44.5323 27:18.0141 28:43.4974 29:67.2232 30:41.3005 31:47.8836 32:25.1656 33:63.5762 34:66.2252 35:43.7086 36:45.6621 37:33.5366 38:41.1585 39:64.0244 40:48.7805 
1 1:40.6949 2:14.7319 3:38.3029 4:62.4632 5:37.7136 6:41.791 7:16.3585 8:36.2731 9:68.2788 10:39.1181 11:45.9839 12:23.4427 13:50.2344 14:72.3376 15:43.5365 16:43.8082 17:22.8225 18:44.7136 19:61.9469 20:45.6451 21:42.0079 22:14.978 23:37.4449 24:59.9119 25:41.4097 26:44.4884 27:18.4534 28:43.4974 29:66.7838 30:41.3005 31:47.8836 32:25.1656 33:63.5762 34:66.2252 35:43.7086 36:45.6621 37:33.5366 38:41.1585 39:64.0244 40:48.7805 
1 1:40.8127 2:14.7319 3:38.3029 4:62.4632 5:37.7136 6:42.0753 7:17.0697 8:36.2731 9:68.2788 10:39.1181 11:45.917 12:23.4427 13:50.2344 14:71.6678 15:43.5365 16:43.9013 17:22.3568 18:45.1793 19:61.9469 20:45.6451 21:42.0079 22:14.978 23:37.4449 24:59.9119 25:41.4097 26:44.5323 27:18.0141 28:43.4974 29:67.2232 30:41.3005 31:47.7513 32:25.1656 33:63.5762 34:66.2252 35:43.7086 36:45.6621 37:33.5366 38:41.1585 39:64.0244 40:48.7805 
1 1:40.673 2:14.8017 3:37.8922 4:63.3511 5:37.8922 6:42.1464 7:17.0697 8:36.2731 9:68.2788 10:39.8293 11:45.9839 12:23.4427 13:50.2344 14:72.3376 15:43.5365 16:43.8547 17:22.8225 18:44.7136 19:61.9469 20:45.6451 21:42.1145 22:14.9912 23:37.478 24:59.9647 25:41.8871 26:44.4005 27:17.5747 28:43.058 29:66.3445 30:41.3005 31:47.7513 32:25.1656 33:62.2517 34:66.2252 35:43.7086 36:45.5099 37:33.5366 38:41.1585 39:64.0244 40:47.2561 
1 1:40.6509 2:14.8544 3:38.6215 4:63.5769 5:38.0273 6:42.1669 7:16.2963 8:36.2963 9:69.6296 10:37.7778 11:46.2116 12:24.2718 13:51.3176 14:73.509 15:40.9154 16:44.2199 17:23.1898 18:44.9598 19:63.8902 20:45.9063 21:42.3752 22:15.1015 23:39.1694 24:59.462 25:41.0571 26:44.7462 27:17.9211 28:44.3548 29:67.6523 30:41.6667 31:47.9947 32:25.5034 33:63.0872 34:67.1141 35:44.2953 36:46.0815 37:34.8101 38:42.7215 39:64.8734 40:49.0506 
1 1:40.7538 2:14.1426 3:38.3029 4:62.4632 5:38.8922 6:41.72 7:15.6472 8:36.2731 9:67.5676 10:39.1181 11:45.917 12:23.4427 13:50.2344 14:71.6678 15:43.5365 16:43.8082 17:22.8225 18:44.7136 19:61.9469 20:44.7136 21:42.0079 22:14.978 23:37.4449 24:59.9119 25:41.4097 26:44.4444 27:18.0141 28:43.4974 29:66.7838 30:41.3005 31:47.8836 32:25.1656 33:63.5762 34:66.2252 35:43.7086 36:45.6621 37:33.5366 38:41.1585 39:64.0244 40:48.7805 
1 1:40.7538 2:14.1426 3:38.3029 4:62.4632 5:38.8922 6:41.72 7:15.6472 8:36.2731 9:67.5676 10:39.1181 11:45.917 12:23.4427 13:50.2344 14:71.6678 15:43.5365 16:43.8082 17:22.8225 18:44.7136 19:61.9469 20:44.7136 21:42.0079 22:14.978 23:37.4449 24:59.9119 25:41.4097 26:44.4444 27:18.0141 28:43.4974 29:66.7838 30:41.3005 31:47.8836 32:25.1656 33:63.5762 34:66.2252 35:43.7086 36:45.6621 37:33.5366 38:41.1585 39:64.0244 40:48.7805 
1 1:40.6949 2:14.1426 3:37.7136 4:62.4632 5:38.8922 6:41.72 7:15.6472 8:36.2731 9:67.5676 10:39.1181 11:45.917 12:23.4427 13:50.2344 14:71.6678 15:43.5365 16:43.8082 17:22.8225 18:44.7136 19:61.9469 20:44.7136 21:42.0079 22:14.978 23:37.4449 24:59.9119 25:41.4097 26:44.4444 27:18.0141 28:43.4974 29:66.7838 30:41.3005 31:47.8836 32:25.1656 33:63.5762 34:66.2252 35:43.7086 36:45.6621 37:33.5366 38:41.1585 39:64.0244 40:48.7805 
1 1:40.6949 2:14.1426 3:37.7136 4:62.4632 5:38.8922 6:41.72 7:15.6472 8:36.2731 9:67.5676 10:39.1181 11:45.8501 12:23.4427 13:49.5646 14:71.6678 15:43.5365 16:43.8547 17:22.8225 18:44.7136 19:61.9469 20:44.7136 21:42.052 22:14.978 23:37.4449 24:59.9119 25:41.8502 26:44.4444 27:18.0141 28:43.4974 29:66.7838 30:41.3005 31:47.8836 32:25.1656 33:63.5762 34:66.2252 35:43.7086 36:45.6621 37:33.5366 38:41.1585 39:64.0244 40:48.7805 
1 1:40.6949 2:14.1426 3:37.7136 4:62.4632 5:38.8922 6:41.72 7:15.6472 8:36.2731 9:67.5676 10:39.1181 11:45.917 12:23.4427 13:50.2344 14:71.6678 15:43.5365 16:43.7616 17:22.8225 18:44.7136 19:61.9469 20:44.7136 21:42.0079 22:14.978 23:37.4449 24:59.9119 25:41.4097 26:44.4444 27:18.0141 28:43.4974 29:66.7838 30:41.3005 31:47.8836 32:25.1656 33:63.5762 34:66.2252 35:43.7086 36:45.5099 37:33.5366 38:41.1585 39:64.0244 40:48.7805 
1 1:40.8127 2:14.1426 3:38.3029 4:62.4632 5:38.8922 6:41.791 7:15.6472 8:36.2731 9:67.5676 10:39.1181 11:45.917 12:23.4427 13:50.2344 14:71.6678 15:43.5365 16:43.8082 17:22.8225 18:44.7136 19:61.9469 20:44.7136 21:41.9639 22:14.978 23:37.4449 24:59.9119 25:41.4097 26:44.4444 27:18.0141 28:43.4974 29:66.7838 30:41.3005 31:47.8836 32:25.1656 33:63.5762 34:66.2252 35:43.7086 36:45.6621 37:33.5366 38:41.1585 39:64.0244 40:48.7805 
1 1:40.7538 2:14.1426 3:38.8922 4:62.4632 5:38.8922 6:41.72 7:15.6472 8:36.2731 9:67.5676 10:39.1181 11:45.8501 12:22.7729 13:50.2344 14:70.998 15:43.5365 16:43.8082 17:22.8225 18:44.7136 19:61.9469 20:44.7136 21:42.052 22:14.978 23:37.4449 24:59.9119 25:41.8502 26:44.4444 27:18.0141 28:43.4974 29:66.7838 30:41.3005 31:47.8836 32:25.1656 33:63.5762 34:66.2252 35:43.7086 36:45.6621 37:33.5366 38:41.1585 39:64.0244 40:48.7805 
1 1:40.8127 2:14.1426 3:38.8922 4:62.4632 5:38.8922 6:41.72 7:15.6472 8:36.2731 9:67.5676 10:39.1181 11:45.917 12:23.4427 13:50.2344 14:71.6678 15:43.5365 16:43.8082 17:22.8225 18:44.7136 19:61.9469 20:44.7136 21:42.0079 22:14.978 23:37.4449 24:59.9119 25:41.4097 26:44.4444 27:18.0141 28:43.4974 29:66.7838 30:41.3005 31:47.8836 32:25.1656 33:63.5762 34:66.2252 35:43.7086 36:45.6621 37:33.5366 38:41.1585 39:64.0244 40:48.7805 
1 1:40.8127 2:14.1426 3:38.8922 4:62.4632 5:38.8922 6:41.791 7:15.6472 8:36.2731 9:67.5676 10:39.1181 11:45.917 12:23.4427 13:50.2344 14:71.6678 15:43.5365 16:43.7616 17:22.8225 18:44.2478 19:61.9469 20:44.7136 21:42.0079 22:14.978 23:37.4449 24:59.9119 25:41.4097 26:44.4005 27:18.0141 28:43.4974 29:66.3445 30:41.3005 31:47.8836 32:25.1656 33:63.5762 34:66.2252 35:43.7086 36:45.6621 37:33.5366 38:41.1585 39:64.0244 40:48.7805 
1 1:40.7538 2:13.5533 3:38.3029 4:62.4632 5:38.8922 6:41.8621 7:16.3585 8:36.2731 9:68.2788 10:38.4068 11:45.9839 12:23.4427 13:50.2344 14:73.0074 15:43.5365 16:43.8547 17:22.8225 18:45.1793 19:61.9469 20:45.6451 21:42.052 22:14.978 23:37.4449 24:59.9119 25:41.4097 26:44.3127 27:18.0141 28:43.058 29:66.7838 30:41.3005 31:48.0159 32:25.1656 33:64.9007 34:66.2252 35:45.0331 36:45.6621 37:33.5366 38:41.1585 39:64.0244 40:48.7805 
1 1:40.636 2:13.5533 3:38.3029 4:62.4632 5:38.3029 6:42.0753 7:15.6472 8:36.9844 9:69.7013 10:37.6956 11:45.9839 12:23.4427 13:50.2344 14:72.3376 15:43.5365 16:43.9013 17:22.8225 18:45.1793 19:61.9469 20:45.6451 21:42.052 22:14.978 23:37.4449 24:59.4714 25:41.4097 26:44.4884 27:18.0141 28:43.4974 29:67.2232 30:41.3005 31:47.8836 32:25.1656 33:64.9007 34:66.2252 35:45.0331 36:45.5099 37:32.0122 38:39.6341 39:64.0244 40:48.7805 
1 1:40.636 2:14.7319 3:38.3029 4:62.4632 5:37.1243 6:41.9332 7:16.3585 8:36.2731 9:68.2788 10:39.1181 11:45.8501 12:23.4427 13:50.2344 14:71.6678 15:42.8667 16:43.9013 17:22.8225 18:45.1793 19:61.9469 20:45.6451 21:42.052 22:14.978 23:37.4449 24:59.9119 25:41.4097 26:44.4884 27:18.0141 28:43.4974 29:66.7838 30:41.3005 31:47.8836 32:25.1656 33:63.5762 34:66.2252 35:43.7086 36:45.6621 37:33.5366 38:41.1585 39:64.0244 40:48.7805 
1 1:40.636 2:14.7319 3:38.3029 4:62.4632 5:37.7136 6:41.8621 7:16.3585 8:35.5619 9:68.2788 10:39.1181 11:45.917 12:23.4427 13:50.2344 14:71.6678 15:43.5365 16:43.9479 17:22.8225 18:45.1793 19:62.4127 20:45.6451 21:42.0079 22:14.978 23:37.4449 24:59.9119 25:40.9692 26:44.5323 27:18.0141 28:43.4974 29:67.2232 30:41.3005 31:47.8836 32:25.1656 33:63.5762 34:66.2252 35:43.7086 36:45.6621 37:33.5366 38:41.1585 39:64.0244 40:48.7805 
1 1:40.5771 2:14.7319 3:37.7136 4:62.4632 5:37.7136 6:42.0753 7:17.0697 8:36.2731 9:68.2788 10:39.8293 11:45.917 12:23.4427 13:50.2344 14:71.6678 15:43.5365 16:43.8082 17:22.8225 18:44.7136 19:61.4811 20:45.6451 21:42.0079 22:14.978 23:37.4449 24:59.9119 25:41.4097 26:44.5323 27:17.5747 28:43.058 29:66.7838 30:41.3005 31:47.8836 32:25.1656 33:63.5762 34:66.2252 35:43.7086 36:45.6621 37:33.5366 38:41.1585 39:64.0244 40:48.7805 
1 1:40.66 2:14.7493 3:38.3481 4:62.5369 5:37.7581 6:41.791 7:15.6472 8:36.2731 9:68.2788 10:39.1181 11:45.9839 12:23.4427 13:50.2344 14:72.3376 15:43.5365 16:43.8024 17:22.8651 18:44.3304 19:62.0625 20:45.7303 21:42.0264 22:14.5503 23:37.478 24:59.9647 25:41.0053 26:44.3127 27:17.5747 28:43.058 29:65.4657 30:40.8612 31:47.8836 32:25.1656 33:63.5762 34:66.2252 35:43.7086 36:45.6621 37:33.5366 38:41.1585 39:64.0244 40:48.7805 
1 1:40.636 2:14.1426 3:38.3029 4:62.4632 5:37.7136 6:41.791 7:15.6472 8:36.2731 9:68.2788 10:39.1181 11:45.917 12:23.4427 13:49.5646 14:72.3376 15:43.5365 16:43.9479 17:22.8225 18:45.1793 19:61.9469 20:45.6451 21:42.14 22:14.978 23:37.4449 24:60.793 25:41.8502 26:44.4444 27:18.0141 28:43.4974 29:65.9051 30:41.3005 31:47.8836 32:25.1656 33:63.5762 34:66.2252 35:43.7086 36:45.6621 37:33.5366 38:41.1585 39:64.0244 40:48.7805 
0.40563146176177739 1:40.7189 2:15.3392 3:38.3481 4:61.3569 5:38.3481 6:42.0043 7:16.3585 8:36.2731 9:68.2788 10:38.4068 11:45.917 12:22.7729 13:50.2344 14:70.998 15:43.5365 16:43.9013 17:22.8225 18:45.1793 19:61.9469 20:45.6451 21:41.9639 22:14.5374 23:37.8855 24:59.4714 25:41.4097 26:44.3127 27:18.0141 28:43.058 29:65.4657 30:41.3005 31:47.7513 32:25.1656 33:63.5762 34:66.2252 35:43.7086 36:45.4268 37:33.6391 38:41.2844 39:64.2202 40:48.9297 
1 1:40.7189 2:15.3392 3:37.7581 4:62.5369 5:37.7581 6:41.9332 7:17.0697 8:36.9844 9:68.2788 10:39.1181 11:45.8501 12:22.7729 13:49.5646 14:71.6678 15:43.5365 16:43.8547 17:22.8225 18:45.1793 19:61.9469 20:45.6451 21:42.052 22:15.4185 23:37.0044 24:60.3524 25:41.4097 26:44.4884 27:18.0141 28:43.4974 29:67.2232 30:41.3005 31:47.8836 32:25.1656 33:63.5762 34:66.2252 35:43.7086 36:45.6621 37:33.5366 38:41.1585 39:64.0244 40:48.7805 
1 1:40.66 2:14.7493 3:37.7581 4:62.5369 5:37.7581 6:41.8621 7:16.3585 8:36.2731 9:68.2788 10:39.8293 11:45.9839 12:23.4427 13:50.9042 14:72.3376 15:44.2063 16:43.8547 17:22.8225 18:44.7136 19:61.9469 20:45.6451 21:42.052 22:14.978 23:37.4449 24:59.9119 25:41.4097 26:44.3322 27:18.4697 28:43.5356 29:65.9631 30:41.7766 31:47.7513 32:25.1656 33:62.2517 34:66.2252 35:43.7086 36:45.6621 37:33.5366 38:41.1585 39:64.0244 40:48.7805 
1 1:40.5183 2:14.1426 3:38.3029 4:61.2846 5:37.1243 6:42.1464 7:15.6472 8:36.9844 9:68.99 10:38.4068 11:45.9839 12:24.1125 13:50.2344 14:71.6678 15:44.2063 16:44.041 17:22.8225 18:45.6451 19:61.9469 20:45.6451 21:42.096 22:14.978 23:37.4449 24:61.2335 25:41.4097 26:44.2688 27:18.0141 28:42.6186 29:65.9051 30:40.4218 31:48.4127 32:26.4901 33:64.9007 34:67.5497 35:43.7086 36:45.9665 37:33.5366 38:42.6829 39:64.0244 40:48.7805 
1 1:40.5771 2:14.1426 3:38.3029 4:61.8739 5:37.1243 6:41.8621 7:15.6472 8:36.9844 9:68.2788 10:36.9844 11:46.1178 12:24.1125 13:50.9042 14:72.3376 15:44.8761 16:44.041 17:22.3568 18:45.6451 19:62.4127 20:45.6451 21:42.0079 22:14.978 23:37.4449 24:61.2335 25:40.9692 26:44.4884 27:18.8928 28:42.6186 29:66.3445 30:41.3005 31:48.2804 32:26.4901 33:63.5762 34:67.5497 35:43.7086 36:45.8143 37:33.5366 38:41.1585 39:64.0244 40:48.7805 
1 1:40.6949 2:14.1426 3:37.7136 4:62.4632 5:37.1243 6:41.9332 7:16.3585 8:36.9844 9:69.7013 10:36.9844 11:46.1178 12:24.1125 13:50.2344 14:73.6772 15:44.2063 16:43.9013 17:22.3568 18:44.7136 19:61.4811 20:45.1793 21:41.9199 22:14.5374 23:37.4449 24:61.2335 25:41.8502 26:44.4005 27:18.8928 28:43.058 29:66.3445 30:41.3005 31:48.1481 32:26.4901 33:63.5762 34:67.5497 35:43.7086 36:45.6621 37:32.0122 38:39.6341 39:64.0244 40:48.7805 
1 1:40.6949 2:14.1426 3:37.7136 4:62.4632 5:37.1243 6:41.9332 7:16.3585 8:36.9844 9:69.7013 10:36.9844 11:46.1178 12:24.1125 13:50.2344 14:73.6772 15:44.2063 16:43.9013 17:22.3568 18:44.7136 19:61.4811 20:45.1793 21:41.9199 22:14.5374 23:37.4449 24:61.2335 25:41.8502 26:44.4005 27:18.8928 28:43.058 29:66.3445 30:41.3005 31:48.1481 32:26.4901 33:63.5762 34:67.5497 35:43.7086 36:45.5099 37:30.4878 38:39.6341 39:64.0244 40:48.7805 
1 1:40.7538 2:14.1426 3:38.3029 4:61.8739 5:37.1243 6:41.8621 7:15.6472 8:36.9844 9:68.99 10:36.9844 11:45.9839 12:24.1125 13:50.2344 14:70.998 15:44.2063 16:43.9944 17:23.2883 18:45.6451 19:61.9469 20:45.1793 21:42.096 22:14.978 23:37.4449 24:61.2335 25:41.4097 26:44.4884 27:18.4534 28:42.6186 29:66.3445 30:41.3005 31:48.4127 32:26.4901 33:64.9007 34:67.5497 35:43.7086 36:45.8143 37:33.5366 38:41.1585 39:64.0244 40:48.7805 
1 1:40.6011 2:14.7493 3:38.3481 4:60.767 5:37.1681 6:42.1464 7:16.3585 8:36.9844 9:69.7013 10:38.4068 11:46.0147 12:24.1449 13:50.3018 14:71.7639 15:43.5949 16:43.9479 17:22.3568 18:45.1793 19:61.9469 20:45.6451 21:41.9639 22:14.978 23:36.5639 24:60.793 25:40.9692 26:44.4884 27:18.8928 28:43.4974 29:66.7838 30:41.3005 31:48.6772 32:29.1391 33:64.9007 34:67.5497 35:43.7086 36:45.8143 37:33.5366 38:41.1585 39:64.0244 40:48.7805 
1 1:40.5771 2:14.7319 3:38.3029 4:62.4632 5:37.1243 6:42.0043 7:14.936 8:36.9844 9:69.7013 10:37.6956 11:45.917 12:23.4427 13:50.2344 14:71.6678 15:44.2063 16:43.9944 17:22.3568 18:45.6451 19:61.9469 20:45.6451 21:42.0705 22:14.9912 23:37.037 24:61.2875 25:41.0053 26:44.4444 27:18.8928 28:43.058 29:66.3445 30:41.3005 31:48.4127 32:27.8146 33:64.9007 34:67.5497 35:42.3841 36:45.8143 37:33.5366 38:41.1585 39:64.0244 40:48.7805 
1 1:40.5771 2:14.7319 3:38.3029 4:61.8739 5:37.1243 6:42.0753 7:15.6472 8:36.9844 9:69.7013 10:39.1181 11:45.9839 12:24.1125 13:50.2344 14:71.6678 15:44.2063 16:43.9479 17:22.3568 18:45.1793 19:61.9469 20:45.6451 21:41.9199 22:14.978 23:36.5639 24:60.793 25:40.9692 26:44.4444 27:18.8928 28:43.058 29:66.3445 30:41.3005 31:48.545 32:27.8146 33:64.9007 34:67.5497 35:43.7086 36:45.8143 37:33.5366 38:41.1585 39:64.0244 40:48.7805 
1 1:40.5771 2:14.7319 3:38.3029 4:61.8739 5:36.5351 6:42.0753 7:16.3585 8:38.4068 9:70.4125 10:36.9844 11:45.9839 12:24.1125 13:50.2344 14:71.6678 15:44.2063 16:44.041 17:22.8225 18:45.6451 19:61.9469 20:45.6451 21:42.0079 22:14.978 23:37.4449 24:61.2335 25:40.0881 26:44.5323 27:18.4534 28:43.058 29:66.3445 30:41.3005 31:48.6772 32:29.1391 33:64.9007 34:67.5497 35:45.0331 36:45.8143 37:33.5366 38:41.1585 39:64.0244 40:48.7805 
1 1:40.5771 2:14.7319 3:38.3029 4:61.2846 5:37.1243 6:41.9332 7:15.6472 8:36.2731 9:69.7013 10:37.6956 11:45.9839 12:24.7823 13:50.2344 14:71.6678 15:43.5365 16:44.041 17:22.8225 18:45.6451 19:61.0154 20:45.6451 21:41.9199 22:14.5374 23:37.0044 24:60.793 25:41.4097 26:44.4444 27:18.8928 28:43.058 29:65.4657 30:41.3005 31:48.4127 32:26.4901 33:64.9007 34:67.5497 35:43.7086 36:45.8143 37:33.5366 38:41.1585 39:64.0244 40:48.7805 
1 1:40.636 2:14.7319 3:38.3029 4:61.2846 5:37.1243 6:42.0753 7:16.3585 8:36.9844 9:69.7013 10:37.6956 11:45.917 12:24.1125 13:50.2344 14:71.6678 15:43.5365 16:44.1341 17:22.8225 18:45.6451 19:62.8784 20:45.6451 21:42.052 22:14.978 23:37.4449 24:61.2335 25:41.4097 26:44.5762 27:18.8928 28:43.058 29:66.3445 30:41.7399 31:48.4127 32:26.4901 33:64.9007 34:67.5497 35:43.7086 36:45.8143 37:33.5366 38:41.1585 39:64.0244 40:48.7805 
1 1:40.8127 2:14.7319 3:37.7136 4:61.2846 5:37.1243 6:41.9332 7:17.0697 8:36.2731 9:69.7013 10:38.4068 11:45.917 12:23.4427 13:49.5646 14:72.3376 15:42.8667 16:44.1806 17:22.3568 18:44.7136 19:61.4811 20:46.1109 21:42.096 22:15.4185 23:37.0044 24:61.2335 25:40.0881 26:44.4884 27:18.4534 28:43.4974 29:67.6626 30:41.3005 31:48.0159 32:26.4901 33:66.2252 34:62.2517 35:43.7086 36:45.8143 37:32.0122 38:42.6829 39:64.0244 40:50.3049 
1 1:40.8127 2:15.3212 3:37.1243 4:61.2846 5:37.7136 6:42.0753 7:17.0697 8:36.9844 9:69.7013 10:38.4068 11:45.9839 12:24.1125 13:50.2344 14:71.6678 15:43.5365 16:44.041 17:22.3568 18:44.7136 19:60.5496 20:45.6451 21:42.2721 22:16.2996 23:37.8855 24:60.3524 25:41.4097 26:44.4884 27:18.4534 28:43.058 29:67.6626 30:41.3005 31:48.0159 32:26.4901 33:66.2252 34:62.2517 35:43.7086 36:46.0366 37:32.1101 38:42.8135 39:64.2202 40:51.9878 
1 1:40.9305 2:15.3212 3:37.7136 4:61.8739 5:37.7136 6:42.0753 7:17.0697 8:36.9844 9:69.7013 10:38.4068 11:45.9839 12:23.4427 13:50.2344 14:70.998 15:43.5365 16:44.041 17:22.3568 18:44.7136 19:60.5496 20:45.6451 21:42.096 22:15.859 23:37.8855 24:60.3524 25:40.5286 26:44.4444 27:18.4534 28:43.058 29:67.6626 30:41.3005 31:48.0159 32:26.4901 33:66.2252 34:62.2517 35:43.7086 36:45.9665 37:32.0122 38:42.6829 39:64.0244 40:51.8293 
0.061170322195890317 1:40.9305 2:15.3212 3:37.7136 4:61.2846 5:37.7136 6:42.0753 7:17.0697 8:36.9844 9:69.7013 10:38.4068 11:45.9839 12:23.4427 13:50.2344 14:71.6678 15:43.5365 16:44.0875 17:22.3568 18:44.7136 19:61.0154 20:45.6451 21:42.1703 22:16.3572 23:37.5774 24:60.5659 25:40.2299 26:44.4444 27:18.4534 28:43.058 29:67.6626 30:41.3005 31:48.0159 32:26.4901 33:66.2252 34:62.2517 35:43.7086 36:45.9665 37:32.0122 38:42.6829 39:64.0244 40:51.8293 
1 1:40.9305 2:15.3212 3:37.7136 4:61.8739 5:37.7136 6:41.5068 7:16.3585 8:35.5619 9:71.1238 10:39.8293 11:45.917 12:23.4427 13:50.2344 14:70.998 15:43.5365 16:44.041 17:22.3568 18:44.7136 19:60.5496 20:45.6451 21:42.14 22:16.2996 23:37.8855 24:59.9119 25:40.5286 26:44.4444 27:18.4534 28:43.058 29:67.2232 30:41.3005 31:48.0159 32:26.4901 33:66.2252 34:62.2517 35:43.7086 36:45.9665 37:32.0122 38:42.6829 39:64.0244 40:51.8293 
1 1:40.636 2:15.3212 3:37.1243 4:61.2846 5:37.1243 6:42.1464 7:17.7809 8:36.9844 9:71.1238 10:37.6956 11:45.9839 12:24.1125 13:50.2344 14:72.3376 15:43.5365 16:44.0875 17:21.891 18:44.2478 19:61.0154 20:45.6451 21:41.8318 22:14.978 23:37.4449 24:61.2335 25:41.4097 26:44.4884 27:18.8928 28:43.058 29:67.2232 30:41.7399 31:48.1481 32:26.4901 33:62.2517 34:66.2252 35:43.7086 36:45.8143 37:30.4878 38:41.1585 39:64.0244 40:51.8293 
