svm_type c_svc
kernel_type linear
nr_class 2
total_sv 408
rho -114.25119478499482
label 1 -1
nr_sv 340 68
SV
8 1:41.4159 2:16.5192 3:34.2183 4:66.0767 5:36.5782 6:44.2237 7:23.5467 8:41.9426 9:80.206 10:43.4143 11:46.6533 12:25.4351 13:44.1767 14:71.6198 15:40.1606 16:42.8305 17:20.0186 18:44.2272 19:60.5214 20:39.5717 21:42.4483 22:16.2924 23:38.3091 24:55.9225 25:46.6755 26:44.0931 27:22.3979 28:40.404 29:66.3153 30:38.6473 31:48.8095 32:27.7778 33:64.8148 34:75.3968 35:46.2963 36:47.8261 37:28.9855 38:50.7246 39:68.1159 40:47.8261 
8 1:41.2979 2:16.5192 3:34.8083 4:66.6667 5:35.9882 6:43.9294 7:22.8109 8:41.2068 9:77.9985 10:43.4143 11:46.6533 12:25.4351 13:44.1767 14:71.6198 15:40.1606 16:42.9236 17:20.0186 18:44.2272 19:60.987 20:39.5717 21:42.4483 22:16.2924 23:38.3091 24:55.9225 25:46.6755 26:44.137 27:22.3979 28:40.404 29:66.3153 30:38.6473 31:48.8095 32:27.7778 33:64.8148 34:75.3968 35:46.2963 36:47.6812 37:28.9855 38:50.7246 39:68.1159 40:47.8261 
8 1:42.1708 2:14.828 3:35.5872 4:67.0225 5:39.1459 6:43.7811 7:16.3468 8:44.7761 9:68.2303 10:39.801 11:46.7202 12:26.1044 13:46.8541 14:79.6519 15:36.8139 16:42.5047 17:20.9497 18:43.2961 19:56.797 20:39.1061 21:42.9326 22:19.8151 23:39.6301 24:55.0418 25:40.9511 26:43.1708 27:21.5195 28:38.2082 29:66.3153 30:33.8164 31:48.9418 32:23.8095 33:66.1376 34:74.0741 35:50.2646 36:45.5696 37:28.169 38:45.0704 39:64.7887 40:50.7042 
8 1:42.3488 2:14.828 3:34.9941 4:68.2088 5:39.1459 6:43.6389 7:17.0576 8:44.7761 9:68.941 10:39.801 11:46.8541 12:26.1044 13:46.8541 14:78.9826 15:36.8139 16:42.5047 17:20.9497 18:43.2961 19:56.3315 20:38.6406 21:42.8005 22:19.3747 23:39.6301 24:54.1612 25:40.9511 26:43.1708 27:21.5195 28:38.2082 29:66.3153 30:33.8164 31:48.9418 32:23.8095 33:66.1376 34:74.0741 35:50.2646 36:45.5696 37:28.169 38:45.0704 39:64.7887 40:50.7042 
8 1:42.1708 2:14.2349 3:35.5872 4:67.0225 5:37.9597 6:43.6389 7:18.479 8:46.9083 9:67.5195 10:39.801 11:46.7871 12:26.1044 13:46.8541 14:78.3133 15:38.1526 16:42.5978 17:20.4842 18:43.7616 19:57.7281 20:39.5717 21:42.8886 22:20.2554 23:39.1898 24:55.9225 25:40.5108 26:43.1269 27:21.5195 28:38.6473 29:65.8762 30:34.2556 31:49.2063 32:23.8095 33:66.1376 34:78.0423 35:50.2646 36:45.7103 37:28.169 38:45.0704 39:64.7887 40:50.7042 
8 1:42.1708 2:14.2349 3:35.5872 4:67.0225 5:37.9597 6:43.6389 7:18.479 8:46.9083 9:67.5195 10:39.801 11:46.7871 12:26.1044 13:46.8541 14:78.3133 15:38.1526 16:42.5978 17:20.4842 18:43.7616 19:57.7281 20:39.5717 21:42.8886 22:20.2554 23:39.1898 24:55.9225 25:40.5108 26:43.1269 27:21.5195 28:38.6473 29:65.8762 30:34.2556 31:49.2063 32:23.8095 33:66.1376 34:78.0423 35:50.2646 36:45.7103 37:28.169 38:45.0704 39:64.7887 40:50.7042 
8 1:42.1115 2:13.6418 3:37.9597 4:67.6157 5:38.5528 6:43.5679 7:19.1898 8:44.0654 9:66.8088 10:38.3795 11:46.921 12:26.7738 13:46.1847 14:78.9826 15:39.4913 16:42.5047 17:20.9497 18:44.2272 19:55.8659 20:41.4339 21:43.0207 22:19.3747 23:40.5108 24:58.1242 25:38.7494 26:42.9513 27:18.4453 28:36.8906 29:67.1937 30:37.3298 31:49.3386 32:23.8095 33:70.1058 34:78.0423 35:48.9418 36:45.1477 37:28.169 38:45.0704 39:60.5634 40:47.8873 
0.32614561671923509 1:42.1708 2:13.0486 3:37.9597 4:68.2088 5:39.739 6:43.4257 7:19.1898 8:43.3547 9:66.8088 10:38.3795 11:46.5194 12:25.4351 13:46.1847 14:76.3052 15:39.4913 16:42.5978 17:20.9497 18:43.7616 19:57.2626 20:41.4339 21:42.9326 22:19.3747 23:40.5108 24:57.2435 25:38.7494 26:42.9073 27:18.4453 28:36.8906 29:66.7545 30:37.3298 31:49.6032 32:22.4868 33:70.1058 34:78.0423 35:50.2646 36:45.2883 37:29.5775 38:45.0704 39:60.5634 40:49.2958 
8 1:42.4674 2:12.4555 3:37.9597 4:69.395 5:39.739 6:43.4968 7:17.7683 8:44.7761 9:67.5195 10:38.3795 11:46.6533 12:26.7738 13:45.5154 14:75.6359 15:39.4913 16:42.5047 17:20.4842 18:43.7616 19:56.797 20:41.8994 21:42.9767 22:19.3747 23:39.6301 24:57.2435 25:40.0705 26:43.083 27:18.4453 28:37.3298 29:67.6329 30:35.5731 31:49.4709 32:22.4868 33:70.1058 34:78.0423 35:50.2646 36:45.1477 37:29.5775 38:45.0704 39:63.3803 40:49.2958 
2.2068807662490855 1:41.8743 2:12.4555 3:38.5528 4:67.0225 5:40.9253 6:43.4257 7:21.322 8:44.7761 9:66.8088 10:38.3795 11:46.6533 12:26.1044 13:47.5234 14:77.6439 15:36.8139 16:42.8305 17:20.4842 18:44.2272 19:59.5903 20:41.8994 21:43.0207 22:17.6134 23:40.9511 24:58.5645 25:39.6301 26:43.0391 27:19.3237 28:36.4515 29:68.072 30:36.8906 31:49.3386 32:22.4868 33:70.1058 34:76.7196 35:50.2646 36:45.5696 37:29.5775 38:45.0704 39:63.3803 40:49.2958 
8 1:42.5267 2:13.0486 3:39.1459 4:68.2088 5:40.3321 6:43.4257 7:17.7683 8:45.4869 9:66.0981 10:38.3795 11:46.7871 12:26.1044 13:46.8541 14:75.6359 15:38.822 16:42.6443 17:20.4842 18:43.2961 19:57.7281 20:42.8305 21:43.1088 22:18.9344 23:40.0705 24:57.6838 25:40.0705 26:42.8634 27:18.4453 28:36.8906 29:67.6329 30:36.0123 31:48.9418 32:22.4868 33:70.1058 34:76.7196 35:50.2646 36:45.1477 37:29.5775 38:43.662 39:61.9718 40:49.2958 
8 1:42.7046 2:13.0486 3:39.739 4:67.6157 5:40.9253 6:43.4257 7:18.479 8:44.7761 9:66.0981 10:38.3795 11:46.921 12:26.1044 13:46.8541 14:75.6359 15:41.4993 16:42.9236 17:20.4842 18:44.2272 19:57.7281 20:44.6927 21:43.0647 22:20.6957 23:40.0705 24:59.0048 25:39.1898 26:42.8195 27:19.3237 28:36.0123 29:66.7545 30:36.4515 31:49.4709 32:22.4868 33:68.7831 34:78.0423 35:50.2646 36:45.6522 37:30.4348 38:44.9275 39:62.3188 40:53.6232 
8 1:42.2301 2:14.2349 3:34.9941 4:67.6157 5:39.739 6:43.71 7:18.479 8:45.4869 9:68.2303 10:40.5117 11:46.921 12:26.7738 13:46.8541 14:78.3133 15:38.822 16:42.8305 17:21.4153 18:44.2272 19:57.7281 20:39.5717 21:43.1968 22:20.2554 23:40.5108 24:55.9225 25:40.9511 26:43.3904 27:22.8371 28:39.0865 29:68.072 30:33.8164 31:49.7354 32:22.4868 33:67.4603 34:83.3333 35:50.2646 36:46.2729 37:29.5775 38:46.4789 39:66.1972 40:52.1127 
8 1:42.9918 2:22.3793 3:47.7032 4:65.371 5:39.4582 6:43.1414 7:15.6361 8:45.4869 9:63.2552 10:43.3547 11:46.2517 12:28.7818 13:46.1847 14:77.6439 15:38.822 16:42.1788 17:18.1564 18:42.8305 19:56.797 20:40.5028 21:42.3162 22:15.852 23:37.4284 24:59.0048 25:44.4738 26:43.3026 27:19.7628 28:37.3298 29:67.6329 30:36.4515 31:48.8095 32:22.4868 33:68.7831 34:80.6878 35:47.619 36:44.7826 37:24.6377 38:40.5797 39:63.7681 40:47.8261 
8 1:42.8151 2:21.2014 3:46.5253 4:64.7821 5:37.6914 6:42.7861 7:14.2146 8:44.7761 9:61.123 10:44.0654 11:46.1847 12:28.1124 13:46.8541 14:78.3133 15:38.822 16:42.4581 17:19.5531 18:42.8305 19:56.797 20:41.4339 21:42.14 22:14.9714 23:38.3091 24:59.0048 25:44.4738 26:43.0391 27:19.3237 28:36.4515 29:67.1937 30:37.3298 31:48.545 32:22.4868 33:68.7831 34:79.3651 35:47.619 36:44.2029 37:23.1884 38:40.5797 39:62.3188 40:47.8261 
8 1:43.0506 2:21.2014 3:47.7032 4:64.1932 5:40.0471 6:42.715 7:14.2146 8:45.4869 9:61.123 10:44.7761 11:46.3855 12:30.1205 13:46.8541 14:78.9826 15:39.4913 16:42.4581 17:19.0875 18:43.2961 19:58.1937 20:41.4339 21:42.1841 22:14.531 23:38.3091 24:59.0048 25:44.9141 26:42.6877 27:20.202 28:36.8906 29:65.437 30:34.2556 31:48.4127 32:21.164 33:67.4603 34:80.6878 35:47.619 36:44.6377 37:23.1884 38:40.5797 39:62.3188 40:47.8261 
6.5121586471513764 1:42.8151 2:22.3793 3:46.5253 4:63.0153 5:39.4582 6:43.2836 7:15.6361 8:44.7761 9:65.3873 10:46.1976 11:46.3855 12:29.4511 13:46.8541 14:78.9826 15:38.822 16:42.2719 17:18.622 18:42.365 19:57.2626 20:41.4339 21:42.4042 22:15.852 23:37.8688 24:59.4452 25:44.4738 26:42.5999 27:20.202 28:36.4515 29:66.3153 30:35.5731 31:48.545 32:22.4868 33:67.4603 34:80.6878 35:47.619 36:44.4928 37:23.1884 38:40.5797 39:62.3188 40:46.3768 
8 1:42.4617 2:19.4346 3:47.7032 4:64.1932 5:37.1025 6:43.5679 7:17.7683 8:44.7761 9:66.8088 10:46.1976 11:45.7831 12:28.1124 13:46.1847 14:76.3052 15:36.1446 16:42.365 17:20.0186 18:41.8994 19:57.2626 20:41.8994 21:42.4483 22:18.4941 23:37.8688 24:61.6469 25:44.9141 26:42.556 27:18.4453 28:36.4515 29:62.8019 30:36.4515 31:48.1481 32:21.164 33:66.1376 34:83.3333 35:47.619 36:44.7826 37:23.1884 38:42.029 39:65.2174 40:49.2754 
8 1:42.5206 2:21.2014 3:46.5253 4:63.6042 5:38.8693 6:43.5679 7:17.0576 8:44.0654 9:66.0981 10:44.7761 11:46.1847 12:28.1124 13:44.8461 14:78.9826 15:38.822 16:42.2719 17:19.0875 18:40.5028 19:57.2626 20:41.4339 21:42.4042 22:16.2924 23:38.3091 24:62.5275 25:43.5931 26:42.6877 27:21.0804 28:36.4515 29:64.5586 30:36.8906 31:48.0159 32:22.4868 33:64.8148 34:79.3651 35:47.619 36:44.2029 37:23.1884 38:39.1304 39:62.3188 40:46.3768 
8 1:42.285 2:20.6125 3:45.9364 4:62.4264 5:38.8693 6:43.6389 7:17.7683 8:43.3547 9:66.0981 10:45.4869 11:46.0509 12:27.4431 13:43.5074 14:78.9826 15:38.822 16:42.1322 17:19.0875 18:40.9683 19:56.797 20:41.4339 21:42.4042 22:16.2924 23:38.7494 24:62.9679 25:42.7125 26:42.6438 27:21.5195 28:36.4515 29:65.437 30:36.0123 31:48.0159 32:22.4868 33:66.1376 34:79.3651 35:48.9418 36:44.2029 37:21.7391 38:40.5797 39:63.7681 40:44.9275 
8 1:42.5206 2:21.2014 3:46.5253 4:63.0153 5:38.8693 6:43.5679 7:17.0576 8:44.0654 9:66.8088 10:44.7761 11:46.0509 12:28.1124 13:44.8461 14:78.9826 15:38.822 16:42.2253 17:19.0875 18:40.5028 19:57.7281 20:41.4339 21:42.3162 22:16.2924 23:37.8688 24:62.9679 25:43.1528 26:42.6877 27:21.5195 28:36.4515 29:64.5586 30:36.8906 31:48.1481 32:23.8095 33:66.1376 34:79.3651 35:47.619 36:43.7681 37:21.7391 38:37.6812 39:60.8696 40:42.029 
8 1:42.4028 2:21.2014 3:45.3475 4:62.4264 5:38.8693 6:43.5185 7:15.6695 8:43.4473 9:67.6638 10:44.8718 11:46.1178 12:28.1124 13:44.8461 14:80.3213 15:37.4833 16:42.3184 17:19.5531 18:41.8994 19:56.797 20:40.9683 21:42.4483 22:16.2924 23:38.3091 24:63.4082 25:43.1528 26:42.3364 27:19.7628 28:35.5731 29:62.3628 30:36.0123 31:48.1481 32:22.4868 33:66.1376 34:80.6878 35:47.619 36:43.913 37:23.1884 38:39.1304 39:60.8696 40:44.9275 
8 1:42.3439 2:21.7903 3:44.7585 4:62.4264 5:38.2803 6:43.5679 7:17.7683 8:43.3547 9:66.0981 10:44.0654 11:45.9839 12:28.1124 13:44.1767 14:78.3133 15:38.1526 16:42.1788 17:20.0186 18:40.9683 19:55.4004 20:41.4339 21:42.3162 22:15.852 23:37.4284 24:62.5275 25:44.0335 26:42.2486 27:20.202 28:36.0123 29:61.0452 30:36.0123 31:47.4868 32:21.164 33:64.8148 34:76.7196 35:46.2963 36:44.058 37:23.1884 38:39.1304 39:60.8696 40:44.9275 
4.4766667045953517 1:42.3439 2:21.7903 3:44.7585 4:62.4264 5:38.2803 6:43.5679 7:17.7683 8:43.3547 9:66.0981 10:44.0654 11:45.9839 12:28.1124 13:44.1767 14:78.3133 15:38.1526 16:42.1788 17:20.0186 18:40.9683 19:55.4004 20:41.4339 21:42.4042 22:15.852 23:37.4284 24:62.5275 25:44.4738 26:42.2925 27:20.202 28:36.4515 29:61.0452 30:36.4515 31:47.4868 32:21.164 33:64.8148 34:76.7196 35:46.2963 36:43.913 37:23.1884 38:39.1304 39:60.8696 40:44.9275 
8 1:42.2261 2:21.2014 3:44.1696 4:63.0153 5:38.2803 6:43.3547 7:17.0576 8:43.3547 9:64.6766 10:44.0654 11:46.1178 12:28.1124 13:44.8461 14:80.3213 15:38.1526 16:42.2253 17:20.0186 18:40.9683 19:55.8659 20:41.4339 21:42.4483 22:15.852 23:37.8688 24:62.9679 25:44.4738 26:42.3803 27:20.6412 28:36.0123 29:61.9236 30:36.0123 31:47.3545 32:21.164 33:63.4921 34:76.7196 35:46.2963 36:44.058 37:23.1884 38:39.1304 39:60.8696 40:44.9275 
8 1:42.5795 2:21.2014 3:45.9364 4:63.6042 5:40.0471 6:43.4968 7:17.0576 8:44.0654 9:66.8088 10:44.7761 11:46.1847 12:28.1124 13:44.8461 14:79.6519 15:38.822 16:42.3184 17:19.5531 18:41.4339 19:56.3315 20:40.9683 21:42.096 22:15.852 23:37.4284 24:62.0872 25:43.5931 26:42.5999 27:20.202 28:36.0123 29:64.1195 30:36.0123 31:48.1481 32:22.4868 33:66.1376 34:78.0423 35:48.9418 36:43.913 37:21.7391 38:36.2319 39:60.8696 40:46.3768 
8 1:42.3439 2:20.6125 3:45.3475 4:63.6042 5:38.2803 6:43.1414 7:15.6361 8:46.1976 9:63.9659 10:45.4869 11:46.1178 12:29.4511 13:44.1767 14:79.6519 15:38.1526 16:42.365 17:19.5531 18:40.9683 19:56.3315 20:41.8994 21:42.3602 22:16.7327 23:36.9881 24:61.6469 25:44.0335 26:42.6438 27:20.6412 28:36.8906 29:64.1195 30:35.5731 31:48.1481 32:22.4868 33:66.1376 34:80.6878 35:47.619 36:44.6377 37:23.1884 38:42.029 39:63.7681 40:49.2754 
8 1:42.7562 2:21.7903 3:46.5253 4:63.6042 5:40.0471 6:43.5679 7:16.3468 8:44.7761 9:66.8088 10:43.3547 11:46.4525 12:28.7818 13:46.1847 14:80.9906 15:39.4913 16:42.0391 17:19.5531 18:40.9683 19:55.8659 20:41.4339 21:42.2281 22:16.2924 23:37.4284 24:59.8855 25:44.0335 26:42.556 27:19.7628 28:36.4515 29:63.6803 30:37.3298 31:48.2804 32:22.4868 33:66.1376 34:80.6878 35:47.619 36:44.6377 37:23.1884 38:40.5797 39:63.7681 40:46.3768 
8 1:42.9329 2:21.7903 3:46.5253 4:63.6042 5:40.636 6:43.1414 7:14.9254 8:45.4869 9:65.3873 10:43.3547 11:46.1847 12:28.1124 13:44.8461 14:80.3213 15:39.4913 16:42.2253 17:18.622 18:40.9683 19:56.797 20:42.365 21:42.2281 22:16.7327 23:36.9881 24:59.4452 25:44.9141 26:42.7317 27:21.0804 28:36.4515 29:64.9978 30:36.4515 31:48.4127 32:23.8095 33:67.4603 34:79.3651 35:47.619 36:44.4928 37:21.7391 38:39.1304 39:62.3188 40:47.8261 
8 1:42.3439 2:18.2568 3:44.7585 4:64.1932 5:42.9918 6:42.9282 7:14.9254 8:44.0654 9:61.8337 10:43.3547 11:46.1847 12:26.7738 13:45.5154 14:82.3293 15:38.822 16:42.0391 17:18.1564 18:40.5028 19:56.797 20:43.2961 21:42.3602 22:15.852 23:36.9881 24:60.7662 25:46.6755 26:42.6877 27:22.3979 28:36.8906 29:62.8019 30:36.4515 31:47.8836 32:23.8095 33:67.4603 34:76.7196 35:44.9735 36:43.4783 37:23.1884 38:39.1304 39:56.5217 40:44.9275 
8 1:42.0495 2:17.6678 3:44.7585 4:63.6042 5:41.225 6:43.0199 7:14.9573 8:44.8718 9:61.9658 10:43.4473 11:46.1847 12:26.7738 13:45.5154 14:82.9987 15:38.822 16:41.9926 17:17.6909 18:40.5028 19:56.797 20:43.2961 21:42.3602 22:15.852 23:36.9881 24:60.3258 25:47.1158 26:42.6438 27:21.9587 28:36.8906 29:62.3628 30:36.8906 31:48.0159 32:23.8095 33:67.4603 34:79.3651 35:44.9735 36:43.3333 37:23.1884 38:39.1304 39:56.5217 40:44.9275 
8 1:42.1084 2:17.6678 3:44.7585 4:62.4264 5:41.8139 6:42.8571 7:14.2146 8:44.0654 9:62.5444 10:42.6439 11:46.1178 12:27.4431 13:46.1847 14:80.3213 15:38.822 16:41.9926 17:18.622 18:39.5717 19:56.797 20:42.8305 21:42.4483 22:14.9714 23:36.9881 24:62.5275 25:45.7948 26:42.6877 27:22.3979 28:36.8906 29:62.3628 30:37.3298 31:48.0159 32:23.8095 33:66.1376 34:79.3651 35:44.9735 36:43.4783 37:23.1884 38:37.6812 39:57.971 40:44.9275 
8 1:42.0495 2:17.6678 3:44.7585 4:63.0153 5:41.8139 6:42.7861 7:15.6361 8:43.3547 9:61.123 10:43.3547 11:46.0509 12:26.7738 13:45.5154 14:80.9906 15:38.822 16:42.1788 17:18.1564 18:40.0372 19:57.7281 20:42.8305 21:42.3602 22:15.852 23:36.9881 24:61.2065 25:45.7948 26:42.5999 27:21.5195 28:36.8906 29:63.2411 30:34.6948 31:47.7513 32:22.4868 33:66.1376 34:75.3968 35:44.9735 36:43.6232 37:21.7391 38:39.1304 39:60.8696 40:44.9275 
8 1:41.9906 2:17.6678 3:44.7585 4:63.0153 5:41.225 6:42.8063 7:15.6695 8:43.4473 9:61.2536 10:43.4473 11:46.0509 12:26.7738 13:45.5154 14:80.9906 15:38.822 16:42.0391 17:17.6909 18:40.0372 19:56.797 20:43.2961 21:42.4042 22:15.852 23:36.9881 24:61.2065 25:45.7948 26:42.5999 27:21.9587 28:36.8906 29:62.8019 30:34.6948 31:47.8836 32:22.4868 33:66.1376 34:78.0423 35:44.9735 36:43.7681 37:23.1884 38:39.1304 39:60.8696 40:44.9275 
8 1:42.0495 2:17.6678 3:44.7585 4:63.6042 5:41.225 6:42.715 7:15.6361 8:43.3547 9:61.123 10:43.3547 11:45.9839 12:26.1044 13:44.8461 14:80.9906 15:38.822 16:42.0857 17:18.1564 18:40.5028 19:56.797 20:42.8305 21:42.3162 22:15.852 23:36.9881 24:59.8855 25:45.7948 26:42.7317 27:22.8371 28:37.3298 29:63.2411 30:34.6948 31:47.8836 32:22.4868 33:66.1376 34:78.0423 35:44.9735 36:43.7681 37:23.1884 38:39.1304 39:60.8696 40:44.9275 
8 1:41.9317 2:17.6678 3:44.1696 4:63.6042 5:40.0471 6:42.6439 7:16.3468 8:43.3547 9:60.4122 10:43.3547 11:46.0509 12:26.1044 13:45.5154 14:80.9906 15:38.822 16:42.1788 17:17.6909 18:40.0372 19:57.2626 20:44.2272 21:42.2281 22:15.852 23:35.6671 24:59.8855 25:45.7948 26:42.6438 27:21.9587 28:36.4515 29:63.6803 30:35.5731 31:47.619 32:22.4868 33:63.4921 34:76.7196 35:43.6508 36:43.7681 37:23.1884 38:40.5797 39:62.3188 40:43.4783 
8 1:42.1673 2:17.6678 3:45.3475 4:63.0153 5:41.225 6:42.9993 7:15.6361 8:43.3547 9:62.5444 10:42.6439 11:45.917 12:25.4351 13:44.8461 14:80.9906 15:38.822 16:42.1322 17:18.1564 18:40.0372 19:56.797 20:44.2272 21:42.3602 22:16.2924 23:36.9881 24:61.6469 25:46.2351 26:42.7756 27:22.8371 28:36.8906 29:63.6803 30:36.4515 31:47.7513 32:22.4868 33:66.1376 34:75.3968 35:44.9735 36:43.913 37:23.1884 38:40.5797 39:60.8696 40:44.9275 
1.8602542540285172 1:42.1084 2:17.6678 3:45.3475 4:63.0153 5:40.636 6:42.9993 7:15.6361 8:43.3547 9:62.5444 10:42.6439 11:45.917 12:25.4351 13:44.8461 14:80.3213 15:38.822 16:41.9926 17:18.1564 18:40.0372 19:56.3315 20:42.8305 21:42.4042 22:16.2924 23:36.9881 24:61.2065 25:46.2351 26:42.7756 27:22.8371 28:36.8906 29:63.2411 30:36.4515 31:48.0159 32:22.4868 33:67.4603 34:78.0423 35:44.9735 36:43.7681 37:23.1884 38:39.1304 39:60.8696 40:44.9275 
8 1:42.1673 2:17.6678 3:44.7585 4:63.0153 5:40.636 6:42.9282 7:14.9254 8:43.3547 9:61.8337 10:43.3547 11:45.8501 12:27.4431 13:45.5154 14:80.9906 15:36.8139 16:42.5978 17:19.0875 18:40.5028 19:59.1248 20:41.8994 21:42.5363 22:16.2924 23:37.8688 24:61.6469 25:45.3545 26:42.9952 27:22.8371 28:37.769 29:63.6803 30:38.2082 31:48.4127 32:21.164 33:67.4603 34:79.3651 35:44.9735 36:43.7681 37:23.1884 38:39.1304 39:60.8696 40:44.9275 
8 1:41.8728 2:17.0789 3:44.7585 4:62.4264 5:39.4582 6:42.8571 7:14.9254 8:43.3547 9:61.8337 10:42.6439 11:45.7831 12:27.4431 13:45.5154 14:81.66 15:34.8059 16:42.5978 17:19.0875 18:40.5028 19:58.6592 20:42.365 21:42.5363 22:16.2924 23:37.8688 24:62.0872 25:45.3545 26:42.8634 27:22.8371 28:37.769 29:63.6803 30:37.3298 31:48.4127 32:21.164 33:67.4603 34:79.3651 35:44.9735 36:43.6232 37:21.7391 38:37.6812 39:60.8696 40:44.9275 
8 1:42.2261 2:18.8457 3:44.7585 4:63.6042 5:39.4582 6:43.1414 7:17.0576 8:44.7761 9:66.8088 10:44.0654 11:45.917 12:29.4511 13:46.1847 14:76.9746 15:37.4833 16:42.2719 17:20.4842 18:41.4339 19:55.8659 20:40.9683 21:42.2721 22:18.4941 23:37.8688 24:60.7662 25:45.3545 26:42.5121 27:17.1278 28:36.8906 29:62.8019 30:37.3298 31:48.2804 32:21.164 33:66.1376 34:84.6561 35:48.9418 36:44.6377 37:23.1884 38:42.029 39:65.2174 40:47.8261 
5.4336854469013147 1:42.3439 2:20.0236 3:45.3475 4:63.6042 5:40.0471 6:43.1414 7:17.0576 8:45.4869 9:66.8088 10:44.0654 11:45.8501 12:28.7818 13:45.5154 14:77.6439 15:36.8139 16:42.4115 17:21.4153 18:41.8994 19:56.3315 20:41.4339 21:42.3602 22:18.0537 23:38.3091 24:61.2065 25:44.9141 26:42.3364 27:17.567 28:36.4515 29:62.8019 30:36.8906 31:48.2804 32:21.164 33:66.1376 34:84.6561 35:48.9418 36:44.7826 37:23.1884 38:42.029 39:66.6667 40:49.2754 
8 1:42.4028 2:20.0236 3:44.7585 4:63.6042 5:40.0471 6:43.1414 7:17.0576 8:45.4869 9:66.8088 10:44.0654 11:45.8501 12:28.7818 13:45.5154 14:76.9746 15:36.8139 16:42.4115 17:21.4153 18:41.8994 19:56.3315 20:41.8994 21:42.2721 22:18.4941 23:38.3091 24:61.6469 25:44.0335 26:42.4242 27:17.1278 28:36.4515 29:61.9236 30:37.3298 31:48.2804 32:21.164 33:66.1376 34:84.6561 35:48.9418 36:44.9275 37:23.1884 38:42.029 39:68.1159 40:49.2754 
8 1:42.1084 2:17.0789 3:44.7585 4:63.6042 5:41.8139 6:42.9993 7:15.6361 8:42.6439 9:61.123 10:43.3547 11:46.0509 12:26.7738 13:45.5154 14:80.9906 15:38.822 16:41.8994 17:18.1564 18:39.5717 19:55.8659 20:42.8305 21:42.4042 22:16.2924 23:37.4284 24:60.3258 25:46.6755 26:42.5999 27:21.5195 28:36.4515 29:62.8019 30:36.0123 31:48.2804 32:23.8095 33:67.4603 34:79.3651 35:44.9735 36:43.7681 37:23.1884 38:39.1304 39:57.971 40:44.9275 
8 1:41.8728 2:17.6678 3:44.7585 4:62.4264 5:40.636 6:43.3036 7:14.881 8:43.1548 9:63.9881 10:42.4107 11:45.917 12:26.7738 13:45.5154 14:82.3293 15:37.4833 16:42.9412 17:18.6275 18:40.1961 19:60.7843 20:43.1373 21:42.3602 22:15.852 23:36.9881 24:62.5275 25:44.9141 26:42.9513 27:22.3979 28:37.769 29:63.2411 30:38.6473 31:48.4127 32:22.4868 33:67.4603 34:80.6878 35:44.9735 36:43.7681 37:23.1884 38:39.1304 39:60.8696 40:43.4783 
1.2202640483622043 1:42.0495 2:16.49 3:45.3475 4:61.2485 5:40.0471 6:43.0704 7:17.0576 8:40.5117 9:62.5444 10:42.6439 11:45.6493 12:27.4431 13:43.5074 14:80.9906 15:38.1526 16:42.6909 17:21.4153 18:40.5028 19:57.2626 20:41.8994 21:42.3602 22:13.6504 23:36.5478 24:62.5275 25:44.9141 26:42.2486 27:20.6412 28:36.0123 29:62.8019 30:36.4515 31:48.0159 32:21.164 33:67.4603 34:76.7196 35:43.6508 36:43.913 37:23.1884 38:39.1304 39:62.3188 40:43.4783 
8 1:42.0495 2:16.49 3:45.3475 4:61.2485 5:38.8693 6:42.9993 7:17.7683 8:40.5117 9:62.5444 10:42.6439 11:45.5823 12:27.4431 13:43.5074 14:79.6519 15:37.4833 16:42.5978 17:18.622 18:40.0372 19:58.1937 20:43.2961 21:42.4483 22:14.9714 23:36.1074 24:62.9679 25:45.3545 26:42.2047 27:20.202 28:36.0123 29:63.6803 30:35.5731 31:48.0159 32:21.164 33:67.4603 34:76.7196 35:43.6508 36:44.2029 37:23.1884 38:39.1304 39:63.7681 40:43.4783 
8 1:42.0495 2:17.0789 3:44.1696 4:61.2485 5:40.636 6:43.1414 7:17.0576 8:41.2225 9:63.2552 10:43.3547 11:45.8501 12:28.7818 13:44.1767 14:79.6519 15:40.1606 16:42.4581 17:18.622 18:40.0372 19:57.2626 20:43.2961 21:42.2721 22:14.9714 23:36.9881 24:62.0872 25:45.3545 26:42.029 27:20.202 28:35.1339 29:62.8019 30:36.4515 31:47.8836 32:21.164 33:66.1376 34:75.3968 35:43.6508 36:43.6232 37:23.1884 38:39.1304 39:62.3188 40:40.5797 
8 1:42.1673 2:16.49 3:44.7585 4:61.2485 5:41.225 6:43.2125 7:17.0576 8:41.2225 9:64.6766 10:43.3547 11:45.7831 12:28.1124 13:43.5074 14:78.3133 15:40.1606 16:42.3184 17:18.622 18:40.0372 19:56.3315 20:43.7616 21:42.2281 22:14.531 23:36.5478 24:62.5275 25:44.9141 26:42.2047 27:20.6412 28:35.5731 29:62.8019 30:36.4515 31:47.619 32:21.164 33:66.1376 34:74.0741 35:43.6508 36:43.4783 37:23.1884 38:37.6812 39:60.8696 40:40.5797 
8 1:41.8728 2:15.3121 3:44.7585 4:61.2485 5:40.0471 6:43.2125 7:16.3468 8:41.9332 9:63.2552 10:43.3547 11:45.917 12:28.1124 13:44.1767 14:78.9826 15:40.1606 16:42.5047 17:18.622 18:40.0372 19:57.2626 20:43.2961 21:42.4042 22:14.9714 23:36.9881 24:62.9679 25:45.3545 26:42.3364 27:21.0804 28:35.5731 29:63.2411 30:37.3298 31:47.7513 32:21.164 33:66.1376 34:75.3968 35:43.6508 36:43.4783 37:23.1884 38:37.6812 39:62.3188 40:40.5797 
8 1:41.6961 2:15.3121 3:42.9918 4:60.6596 5:40.636 6:43.4968 7:17.0576 8:41.2225 9:63.2552 10:44.7761 11:45.7831 12:28.1124 13:43.5074 14:79.6519 15:38.822 16:42.365 17:18.1564 18:40.0372 19:57.7281 20:42.8305 21:42.2281 22:14.9714 23:37.4284 24:61.6469 25:44.9141 26:42.3803 27:21.0804 28:35.5731 29:65.437 30:36.4515 31:47.619 32:21.164 33:66.1376 34:75.3968 35:41.0053 36:43.6232 37:24.6377 38:39.1304 39:62.3188 40:40.5797 
8 1:42.0495 2:15.3121 3:45.3475 4:61.8375 5:39.4582 6:43.2836 7:16.3468 8:41.2225 9:63.2552 10:43.3547 11:45.917 12:28.1124 13:43.5074 14:78.9826 15:39.4913 16:42.4581 17:18.622 18:40.0372 19:56.797 20:43.2961 21:42.3162 22:14.531 23:37.4284 24:62.0872 25:44.9141 26:42.3364 27:21.5195 28:36.0123 29:63.6803 30:36.4515 31:47.7513 32:22.4868 33:66.1376 34:75.3968 35:41.0053 36:43.6232 37:23.1884 38:39.1304 39:62.3188 40:40.5797 
8 1:42.285 2:16.49 3:45.3475 4:61.2485 5:41.225 6:43.4257 7:17.0576 8:41.9332 9:63.9659 10:43.3547 11:45.5154 12:27.4431 13:43.5074 14:79.6519 15:38.822 16:42.365 17:18.622 18:40.0372 19:57.2626 20:43.7616 21:42.2721 22:14.531 23:36.1074 24:62.9679 25:45.3545 26:42.1607 27:20.202 28:35.5731 29:61.9236 30:36.0123 31:47.7513 32:21.164 33:67.4603 34:74.0741 35:43.6508 36:43.913 37:23.1884 38:39.1304 39:63.7681 40:43.4783 
8 1:42.0495 2:16.49 3:44.7585 4:62.4264 5:40.0471 6:43.2125 7:16.3468 8:41.2225 9:61.8337 10:44.0654 11:45.3815 12:26.7738 13:43.5074 14:79.6519 15:38.822 16:42.5978 17:18.622 18:40.5028 19:57.2626 20:43.2961 21:42.2721 22:14.531 23:35.6671 24:62.9679 25:45.7948 26:42.2486 27:20.6412 28:35.5731 29:62.8019 30:37.3298 31:48.0159 32:21.164 33:67.4603 34:76.7196 35:43.6508 36:43.6232 37:21.7391 38:37.6812 39:62.3188 40:42.029 
8 1:42.1673 2:16.49 3:45.3475 4:61.2485 5:40.636 6:43.1414 7:16.3468 8:41.2225 9:62.5444 10:43.3547 11:45.5823 12:28.1124 13:42.838 14:79.6519 15:38.822 16:42.5978 17:19.0875 18:40.5028 19:57.7281 20:43.7616 21:42.4483 22:14.531 23:36.5478 24:63.8485 25:45.3545 26:42.1607 27:20.6412 28:35.1339 29:61.9236 30:36.4515 31:48.0159 32:21.164 33:67.4603 34:76.7196 35:43.6508 36:43.913 37:23.1884 38:39.1304 39:62.3188 40:43.4783 
8 1:42.1084 2:16.49 3:45.3475 4:61.2485 5:40.636 6:43.1965 7:15.8387 8:41.0367 9:63.3549 10:42.4766 11:45.929 12:27.8358 13:43.8413 14:81.4196 15:40.3619 16:42.7374 17:20.0186 18:40.5028 19:58.1937 20:43.7616 21:42.3519 22:14.5889 23:36.6932 24:62.3342 25:45.5349 26:42.1425 27:20.8057 28:35.4139 29:62.417 30:35.8566 31:47.9839 32:21.5054 33:67.2043 34:76.6129 35:43.0108 36:43.913 37:23.1884 38:39.1304 39:62.3188 40:43.4783 
8 1:42.0495 2:16.49 3:45.3475 4:61.2485 5:38.8693 6:42.8571 7:14.9254 8:39.0903 9:61.8337 10:42.6439 11:45.6493 12:28.7818 13:42.838 14:80.3213 15:38.822 16:42.365 17:18.622 18:40.5028 19:57.2626 20:42.8305 21:42.3162 22:14.9714 23:36.1074 24:62.9679 25:45.7948 26:42.029 27:20.202 28:35.5731 29:61.4844 30:36.0123 31:47.8836 32:21.164 33:67.4603 34:75.3968 35:43.6508 36:43.7681 37:23.1884 38:39.1304 39:60.8696 40:43.4783 
8 1:42.0495 2:16.49 3:43.5807 4:60.0707 5:40.0471 6:43.2125 7:17.7683 8:40.5117 9:63.9659 10:41.2225 11:45.8501 12:26.7738 13:43.5074 14:80.9906 15:38.822 16:42.365 17:19.5531 18:40.0372 19:55.8659 20:41.8994 21:42.4923 22:14.9714 23:36.5478 24:63.8485 25:44.9141 26:42.2925 27:21.9587 28:36.8906 29:61.0452 30:36.4515 31:47.8836 32:21.164 33:67.4603 34:76.7196 35:43.6508 36:43.913 37:23.1884 38:40.5797 39:62.3188 40:42.029 
8 1:42.2261 2:17.0789 3:45.3475 4:61.8375 5:40.0471 6:42.9993 7:16.3468 8:40.5117 9:61.8337 10:43.3547 11:45.8501 12:28.7818 13:44.8461 14:79.6519 15:39.4913 16:42.5512 17:19.5531 18:39.5717 19:55.8659 20:43.7616 21:42.5363 22:15.4117 23:36.9881 24:61.6469 25:45.7948 26:42.1168 27:20.6412 28:35.1339 29:61.4844 30:36.0123 31:48.0159 32:21.164 33:67.4603 34:76.7196 35:43.6508 36:43.7681 37:23.1884 38:39.1304 39:62.3188 40:43.4783 
8 1:42.1673 2:17.0789 3:45.3475 4:61.8375 5:40.0471 6:42.9282 7:16.3468 8:40.5117 9:61.8337 10:43.3547 11:45.7162 12:28.1124 13:44.8461 14:79.6519 15:38.1526 16:42.5512 17:19.5531 18:39.5717 19:55.8659 20:43.7616 21:42.4923 22:15.4117 23:36.9881 24:61.6469 25:45.7948 26:42.1168 27:20.6412 28:35.1339 29:61.4844 30:36.0123 31:47.8836 32:21.164 33:66.1376 34:76.7196 35:43.6508 36:43.7681 37:23.1884 38:39.1304 39:62.3188 40:43.4783 
8 1:42.1673 2:17.0789 3:45.3475 4:61.8375 5:39.4582 6:42.9993 7:16.3468 8:40.5117 9:61.8337 10:43.3547 11:45.6493 12:27.4431 13:43.5074 14:79.6519 15:38.1526 16:42.5512 17:19.0875 18:39.5717 19:56.797 20:43.7616 21:42.4483 22:14.9714 23:36.9881 24:62.0872 25:45.7948 26:42.1168 27:20.6412 28:35.5731 29:61.4844 30:36.0123 31:48.0159 32:21.164 33:67.4603 34:76.7196 35:43.6508 36:43.7681 37:23.1884 38:39.1304 39:62.3188 40:43.4783 
0.054694218914811493 1:42.1673 2:17.0789 3:45.3475 4:61.8375 5:39.4582 6:42.9993 7:16.3468 8:40.5117 9:61.8337 10:43.3547 11:45.6493 12:27.4431 13:44.1767 14:78.9826 15:38.1526 16:42.6443 17:19.5531 18:39.5717 19:57.2626 20:43.7616 21:42.4042 22:14.9714 23:36.9881 24:62.0872 25:45.7948 26:42.1168 27:20.6412 28:35.5731 29:61.4844 30:36.0123 31:47.8836 32:21.164 33:67.4603 34:76.7196 35:42.328 36:43.7681 37:23.1884 38:39.1304 39:62.3188 40:43.4783 
8 1:42.1673 2:17.0789 3:45.3475 4:61.8375 5:39.4582 6:43.2125 7:17.0576 8:41.2225 9:61.8337 10:43.3547 11:45.7162 12:28.1124 13:44.8461 14:79.6519 15:38.1526 16:42.5512 17:19.5531 18:39.5717 19:55.8659 20:43.7616 21:42.4923 22:15.4117 23:36.9881 24:61.6469 25:45.7948 26:42.2486 27:20.6412 28:35.5731 29:62.3628 30:36.0123 31:48.0159 32:21.164 33:67.4603 34:76.7196 35:43.6508 36:43.7681 37:23.1884 38:39.1304 39:62.3188 40:43.4783 
7.1155330219096475 1:42.1084 2:17.0789 3:45.3475 4:61.8375 5:39.4582 6:42.9282 7:16.3468 8:39.801 9:61.8337 10:43.3547 11:45.7162 12:27.4431 13:44.1767 14:79.6519 15:38.1526 16:42.5512 17:19.0875 18:39.5717 19:56.797 20:43.7616 21:42.4483 22:14.9714 23:36.9881 24:62.0872 25:45.7948 26:42.1168 27:20.6412 28:35.5731 29:61.4844 30:36.0123 31:48.0159 32:21.164 33:67.4603 34:76.7196 35:43.6508 36:43.7681 37:23.1884 38:39.1304 39:62.3188 40:43.4783 
8 1:42.2261 2:17.6678 3:44.7585 4:61.8375 5:40.0471 6:42.7861 7:16.3468 8:40.5117 9:61.8337 10:42.6439 11:45.7162 12:27.4431 13:44.1767 14:79.6519 15:38.1526 16:42.5512 17:20.0186 18:40.0372 19:56.797 20:42.8305 21:42.4923 22:15.4117 23:36.5478 24:62.0872 25:45.3545 26:42.0729 27:21.0804 28:35.1339 29:61.9236 30:35.5731 31:48.0159 32:21.164 33:67.4603 34:76.7196 35:43.6508 36:43.6232 37:23.1884 38:39.1304 39:62.3188 40:42.029 
8 1:42.2261 2:17.6678 3:44.7585 4:61.8375 5:40.0471 6:42.7861 7:16.3468 8:40.5117 9:61.8337 10:42.6439 11:45.7162 12:27.4431 13:44.1767 14:79.6519 15:38.1526 16:42.5512 17:20.0186 18:40.0372 19:56.797 20:42.8305 21:42.4923 22:15.4117 23:36.5478 24:62.0872 25:45.3545 26:42.0729 27:21.0804 28:35.1339 29:61.9236 30:35.5731 31:48.0159 32:21.164 33:67.4603 34:76.7196 35:43.6508 36:43.6232 37:23.1884 38:39.1304 39:62.3188 40:42.029 
8 1:42.1084 2:17.0789 3:44.7585 4:61.8375 5:39.4582 6:42.7861 7:16.3468 8:40.5117 9:61.8337 10:42.6439 11:45.6493 12:27.4431 13:44.1767 14:78.9826 15:38.1526 16:42.5047 17:20.0186 18:40.0372 19:56.3315 20:42.8305 21:42.4923 22:15.4117 23:36.5478 24:62.0872 25:45.3545 26:42.0729 27:21.0804 28:35.1339 29:61.9236 30:35.5731 31:48.0159 32:21.164 33:67.4603 34:76.7196 35:43.6508 36:43.7681 37:23.1884 38:39.1304 39:63.7681 40:42.029 
8 1:42.1084 2:17.0789 3:44.7585 4:61.8375 5:39.4582 6:42.7861 7:16.3468 8:40.5117 9:61.8337 10:42.6439 11:45.7162 12:27.4431 13:44.1767 14:79.6519 15:38.1526 16:42.5978 17:20.4842 18:40.5028 19:56.797 20:42.8305 21:42.4923 22:15.4117 23:36.5478 24:62.0872 25:45.3545 26:42.1168 27:21.0804 28:35.1339 29:61.9236 30:35.5731 31:48.0159 32:21.164 33:67.4603 34:76.7196 35:43.6508 36:43.6232 37:23.1884 38:39.1304 39:62.3188 40:42.029 
8 1:41.6961 2:17.6678 3:43.5807 4:60.6596 5:40.0471 6:43.2836 7:17.0576 8:41.2225 9:62.5444 10:44.0654 11:45.7831 12:29.4511 13:44.8461 14:82.3293 15:36.1446 16:43.7151 17:22.8119 18:44.2272 19:60.987 20:44.6927 21:42.4802 22:14.9516 23:36.9393 24:65.0836 25:44.4151 26:43.4343 27:20.6412 28:38.6473 29:67.1937 30:38.2082 31:48.6772 32:22.4868 33:67.4603 34:80.6878 35:46.2963 36:43.913 37:23.1884 38:40.5797 39:63.7681 40:44.9275 
8 1:41.9906 2:18.2568 3:44.7585 4:61.2485 5:40.0471 6:42.9993 7:16.3468 8:39.801 9:62.5444 10:44.0654 11:45.7162 12:27.4431 13:43.5074 14:78.3133 15:38.822 16:42.8305 17:21.4153 18:40.5028 19:59.1248 20:42.8305 21:42.1841 22:15.852 23:36.5478 24:60.3258 25:46.6755 26:42.5999 27:21.0804 28:36.8906 29:63.2411 30:35.5731 31:48.4127 32:22.4868 33:67.4603 34:76.7196 35:46.2963 36:43.913 37:23.1884 38:39.1304 39:62.3188 40:46.3768 
8 1:41.8139 2:18.2568 3:44.1696 4:61.2485 5:40.636 6:43.2125 7:16.3468 8:39.801 9:62.5444 10:45.4869 11:45.5823 12:25.4351 13:43.5074 14:77.6439 15:38.1526 16:42.6443 17:20.4842 18:40.9683 19:58.6592 20:42.8305 21:41.9639 22:14.9714 23:36.5478 24:61.6469 25:44.9141 26:42.5999 27:21.9587 28:36.4515 29:64.1195 30:35.5731 31:48.4127 32:23.8095 33:67.4603 34:76.7196 35:46.2963 36:44.2029 37:23.1884 38:42.029 39:65.2174 40:46.3768 
3.7501448807093984 1:41.755 2:18.2568 3:43.5807 4:63.6042 5:38.8693 6:42.9282 7:17.0576 8:39.801 9:61.8337 10:41.9332 11:45.5823 12:28.1124 13:46.1847 14:78.9826 15:36.8139 16:42.4115 17:18.622 18:39.5717 19:57.2626 20:43.2961 21:26.2439 22:11.0084 23:23.3377 24:35.6671 25:28.6218 26:26.1748 27:14.0536 28:20.202 29:36.8906 30:25.0329 31:48.6772 32:22.4868 33:67.4603 34:75.3968 35:46.2963 36:43.6232 37:23.1884 38:40.5797 39:66.6667 40:43.4783 
0.38432331668498476 1:41.6372 2:15.3121 3:42.9918 4:64.1932 5:42.4028 6:43.7811 7:19.9005 8:40.5117 9:63.9659 10:41.9332 11:45.7162 12:27.4431 13:42.838 14:80.3213 15:39.4913 16:42.5047 17:18.622 18:40.0372 19:57.2626 20:42.365 21:42.5363 22:17.1731 23:38.7494 24:62.5275 25:44.9141 26:43.083 27:21.5195 28:37.769 29:65.437 30:37.3298 31:47.4868 32:21.164 33:68.7831 34:70.1058 35:44.9735 36:43.4783 37:20.2899 38:40.5797 39:63.7681 40:39.1304 
8 1:42.2261 2:17.6678 3:43.5807 4:66.5489 5:40.636 6:43.2836 7:16.3468 8:41.9332 9:62.5444 10:43.3547 11:46.2517 12:24.7657 13:46.8541 14:72.2892 15:35.4752 16:43.6685 17:17.6909 18:45.6238 19:62.3836 20:47.0205 21:42.6684 22:17.1731 23:39.6301 24:58.5645 25:47.9965 26:43.5222 27:21.5195 28:38.6473 29:67.6329 30:36.4515 31:47.4868 32:26.455 33:62.1693 34:70.1058 35:44.9735 36:43.913 37:26.087 38:42.029 39:60.8696 40:49.2754 
6.2790695251495077 1:41.6372 2:16.49 3:42.9918 4:62.4264 5:40.0471 6:42.9993 7:17.7683 8:41.2225 9:63.2552 10:41.2225 11:45.2477 12:26.1044 13:43.5074 14:76.3052 15:38.1526 16:14.9441 17:5.121 18:14.8976 19:21.8808 20:13.0354 21:21.3562 22:8.3664 23:17.6134 24:32.1444 25:25.5394 26:12.3847 27:8.7835 28:9.6618 29:21.0804 30:10.101 31:48.2804 32:22.4868 33:67.4603 34:78.0423 35:46.2963 36:43.6232 37:24.6377 38:39.1304 39:63.7681 40:43.4783 
8 1:38.5159 2:15.3121 3:40.636 4:58.3039 5:35.9246 6:42.715 7:16.3468 8:41.2225 9:63.9659 10:42.6439 11:45.1807 12:26.1044 13:42.838 14:74.2972 15:40.83 16:40.4097 17:16.2942 18:38.175 19:54.9348 20:39.5717 21:28.7539 22:11.889 23:22.4571 24:42.7125 25:36.1074 26:33.8603 27:15.3711 28:27.668 29:49.6267 30:32.9381 31:48.4127 32:22.4868 33:68.7831 34:80.6878 35:44.9735 36:44.2029 37:24.6377 38:39.1304 39:62.3188 40:46.3768 
8 1:40.6949 2:14.7232 3:38.8693 4:61.2485 5:37.1025 6:42.1464 7:18.479 8:36.9581 9:70.3625 10:36.9581 11:46.1847 12:23.427 13:50.8701 14:73.6278 15:44.1767 16:44.1806 17:22.8119 18:45.6238 19:61.9181 20:45.6238 21:42.0079 22:15.4117 23:37.4284 24:59.8855 25:41.3915 26:44.7079 27:19.3237 28:43.4783 29:67.1937 30:41.7216 31:48.545 32:26.455 33:64.8148 34:67.4603 35:43.6508 36:45.8143 37:33.4855 38:41.0959 39:63.9269 40:50.2283 
8 1:40.7538 2:15.9011 3:38.8693 4:60.6596 5:37.1025 6:42.1464 7:17.7683 8:36.9581 9:69.6517 10:36.9581 11:46.1178 12:24.0964 13:50.8701 14:70.9505 15:44.8461 16:44.2272 17:22.8119 18:45.6238 19:61.9181 20:45.6238 21:42.052 22:15.4117 23:37.4284 24:60.3258 25:41.3915 26:44.664 27:19.3237 28:43.4783 29:67.1937 30:41.7216 31:48.545 32:26.455 33:64.8148 34:67.4603 35:43.6508 36:45.9665 37:33.4855 38:42.618 39:63.9269 40:50.2283 
8 1:40.7538 2:15.9011 3:38.8693 4:60.6596 5:37.1025 6:42.1464 7:17.7683 8:36.9581 9:69.6517 10:36.9581 11:46.1178 12:24.0964 13:50.8701 14:70.9505 15:44.8461 16:44.2272 17:22.8119 18:45.6238 19:61.9181 20:45.6238 21:42.052 22:15.4117 23:37.4284 24:60.3258 25:41.3915 26:44.664 27:19.3237 28:43.4783 29:67.1937 30:41.7216 31:48.545 32:26.455 33:64.8148 34:67.4603 35:43.6508 36:45.9665 37:33.4855 38:42.618 39:63.9269 40:50.2283 
8 1:40.9305 2:14.7232 3:38.8693 4:61.2485 5:37.6914 6:42.2175 7:16.3468 8:36.9581 9:69.6517 10:37.6688 11:46.1178 12:24.0964 13:50.8701 14:70.9505 15:44.1767 16:44.041 17:21.8808 18:46.0894 19:62.3836 20:45.6238 21:42.096 22:15.852 23:37.8688 24:60.3258 25:41.8318 26:44.4444 27:18.8845 28:43.0391 29:66.3153 30:41.7216 31:48.545 32:26.455 33:64.8148 34:67.4603 35:44.9735 36:45.6621 37:31.9635 38:41.0959 39:65.449 40:50.2283 
8 1:40.8127 2:14.1343 3:38.8693 4:61.2485 5:37.1025 6:42.0753 7:16.3468 8:36.9581 9:69.6517 10:37.6688 11:46.1178 12:24.0964 13:50.8701 14:70.9505 15:44.8461 16:44.041 17:21.4153 18:46.0894 19:61.4525 20:45.6238 21:41.8318 22:15.4117 23:37.8688 24:59.8855 25:40.5108 26:44.4884 27:18.8845 28:43.0391 29:66.7545 30:41.7216 31:48.1481 32:26.455 33:64.8148 34:67.4603 35:41.0053 36:45.8143 37:33.4855 38:39.5738 39:63.9269 40:48.7062 
8 1:40.5771 2:14.7232 3:39.4582 4:59.4817 5:36.5135 6:42.4307 7:16.3468 8:36.9581 9:70.3625 10:39.0903 11:46.2517 12:24.7657 13:51.5395 14:70.9505 15:45.5154 16:44.2272 17:22.3464 18:45.6238 19:62.3836 20:46.5549 21:42.096 22:15.4117 23:37.8688 24:60.3258 25:42.2721 26:44.4884 27:18.8845 28:43.0391 29:66.7545 30:41.7216 31:48.4127 32:26.455 33:64.8148 34:67.4603 35:43.6508 36:45.9665 37:33.4855 38:41.0959 39:65.449 40:47.1842 
8 1:40.5183 2:13.5453 3:38.8693 4:61.2485 5:36.5135 6:41.9332 7:16.3468 8:37.6688 9:68.941 10:36.9581 11:45.8501 12:24.0964 13:50.2008 14:70.9505 15:44.1767 16:43.9479 17:23.2775 18:44.6927 19:61.9181 20:45.6238 21:42.0079 22:15.4117 23:37.4284 24:60.7662 25:40.5108 26:44.5762 27:18.4453 28:43.0391 29:67.1937 30:41.2824 31:48.6772 32:29.1005 33:64.8148 34:67.4603 35:44.9735 36:45.5099 37:31.9635 38:41.0959 39:63.9269 40:45.6621 
8 1:40.5771 2:15.3121 3:37.6914 4:61.8375 5:37.1025 6:42.1464 7:16.3468 8:39.0903 9:68.941 10:37.6688 11:46.1847 12:24.7657 13:50.2008 14:72.2892 15:44.8461 16:44.0875 17:23.2775 18:46.0894 19:61.9181 20:46.0894 21:42.0079 22:14.531 23:37.4284 24:61.2065 25:42.2721 26:44.4884 27:18.8845 28:43.4783 29:66.3153 30:40.8432 31:48.2804 32:25.1323 33:64.8148 34:67.4603 35:42.328 36:45.3577 37:33.4855 38:38.0518 39:62.4049 40:47.1842 
8 1:40.8716 2:14.7232 3:38.8693 4:61.8375 5:38.8693 6:41.9332 7:16.3468 8:36.2473 9:68.2303 10:39.0903 11:45.917 12:23.427 13:50.2008 14:71.6198 15:43.5074 16:43.8082 17:22.8119 18:45.1583 19:61.9181 20:45.1583 21:41.9639 22:14.9714 23:37.4284 24:59.4452 25:41.3915 26:44.4005 27:18.0061 28:42.5999 29:66.3153 30:40.8432 31:47.8836 32:25.1323 33:63.4921 34:66.1376 35:43.6508 36:45.8143 37:33.4855 38:42.618 39:65.449 40:48.7062 
7.9613818465227153 1:40.636 2:15.3121 3:37.6914 4:62.4264 5:37.6914 6:41.8621 7:15.6361 8:35.5366 9:67.5195 10:39.801 11:45.8501 12:22.7577 13:49.5315 14:71.6198 15:43.5074 16:43.9944 17:23.2775 18:45.1583 19:61.9181 20:45.6238 21:42.052 22:14.9714 23:37.4284 24:59.8855 25:41.3915 26:44.4444 27:18.0061 28:43.9174 29:66.7545 30:41.2824 31:47.8836 32:25.1323 33:63.4921 34:66.1376 35:44.9735 36:45.3577 37:31.9635 38:41.0959 39:63.9269 40:48.7062 
8 1:40.6949 2:14.7232 3:38.2803 4:62.4264 5:37.6914 6:41.9332 7:16.3468 8:36.2473 9:68.2303 10:39.0903 11:45.917 12:23.427 13:50.2008 14:71.6198 15:43.5074 16:43.8082 17:22.8119 18:45.1583 19:61.9181 20:45.6238 21:42.096 22:15.4117 23:37.4284 24:60.3258 25:41.3915 26:44.4884 27:18.0061 28:43.9174 29:66.7545 30:41.2824 31:47.8836 32:25.1323 33:63.4921 34:66.1376 35:43.6508 36:45.6621 37:33.4855 38:41.0959 39:63.9269 40:48.7062 
3.3521355182279815 1:40.5771 2:14.7232 3:37.6914 4:63.0153 5:37.6914 6:42.1464 7:17.0576 8:36.2473 9:68.2303 10:39.801 11:45.9839 12:23.427 13:50.2008 14:72.2892 15:43.5074 16:43.8547 17:22.8119 18:44.6927 19:61.9181 20:45.6238 21:42.096 22:14.9714 23:37.4284 24:59.8855 25:41.8318 26:44.4005 27:17.567 28:43.0391 29:66.3153 30:41.2824 31:47.7513 32:25.1323 33:62.1693 34:66.1376 35:43.6508 36:45.5099 37:33.4855 38:41.0959 39:63.9269 40:47.1842 
8 1:40.7538 2:14.1343 3:38.8693 4:62.4264 5:38.8693 6:41.72 7:15.6361 8:36.2473 9:67.5195 10:39.0903 11:45.8501 12:22.7577 13:50.2008 14:70.9505 15:43.5074 16:43.8082 17:22.8119 18:44.6927 19:61.9181 20:44.6927 21:42.052 22:14.9714 23:37.4284 24:59.8855 25:41.8318 26:44.4444 27:18.0061 28:43.4783 29:66.7545 30:41.2824 31:47.8836 32:25.1323 33:63.4921 34:66.1376 35:43.6508 36:45.6621 37:33.4855 38:41.0959 39:63.9269 40:48.7062 
8 1:40.636 2:14.1343 3:38.2803 4:62.4264 5:38.8693 6:41.72 7:15.6361 8:36.2473 9:67.5195 10:39.0903 11:45.8501 12:22.7577 13:50.2008 14:70.9505 15:43.5074 16:43.8082 17:22.8119 18:44.6927 19:61.9181 20:44.6927 21:42.0079 22:14.9714 23:37.4284 24:59.8855 25:41.3915 26:44.4444 27:18.0061 28:43.4783 29:66.7545 30:41.2824 31:47.8836 32:25.1323 33:63.4921 34:66.1376 35:43.6508 36:45.5099 37:33.4855 38:41.0959 39:63.9269 40:48.7062 
8 1:40.8127 2:14.1343 3:38.8693 4:62.4264 5:38.8693 6:41.72 7:15.6361 8:36.2473 9:67.5195 10:39.0903 11:45.917 12:23.427 13:50.2008 14:71.6198 15:43.5074 16:43.8082 17:22.8119 18:44.6927 19:61.9181 20:44.6927 21:42.0079 22:14.9714 23:37.4284 24:59.8855 25:41.3915 26:44.4444 27:18.0061 28:43.4783 29:66.7545 30:41.2824 31:47.8836 32:25.1323 33:63.4921 34:66.1376 35:43.6508 36:45.6621 37:33.4855 38:41.0959 39:63.9269 40:48.7062 
8 1:40.6949 2:14.1343 3:37.6914 4:62.4264 5:37.1025 6:41.9332 7:16.3468 8:36.9581 9:69.6517 10:36.9581 11:46.1178 12:24.0964 13:50.2008 14:73.6278 15:44.1767 16:43.9013 17:22.3464 18:44.6927 19:61.4525 20:45.1583 21:41.9199 22:14.531 23:37.4284 24:61.2065 25:41.8318 26:44.4005 27:18.8845 28:43.0391 29:66.3153 30:41.2824 31:48.1481 32:26.455 33:63.4921 34:67.4603 35:43.6508 36:45.6621 37:31.9635 38:39.5738 39:63.9269 40:48.7062 
8 1:40.5771 2:14.7232 3:38.2803 4:62.4264 5:37.1025 6:42.0043 7:14.9254 8:36.9581 9:69.6517 10:37.6688 11:45.917 12:23.427 13:50.2008 14:71.6198 15:44.1767 16:43.9944 17:22.3464 18:45.6238 19:61.9181 20:45.6238 21:42.052 22:14.9714 23:36.9881 24:61.2065 25:40.9511 26:44.4444 27:18.8845 28:43.0391 29:66.3153 30:41.2824 31:48.4127 32:27.7778 33:64.8148 34:67.4603 35:42.328 36:45.8143 37:33.4855 38:41.0959 39:63.9269 40:48.7062 
8 1:40.5771 2:14.7232 3:38.2803 4:61.8375 5:37.1025 6:42.0753 7:15.6361 8:36.9581 9:69.6517 10:39.0903 11:45.9839 12:24.0964 13:50.2008 14:71.6198 15:44.1767 16:43.9479 17:22.3464 18:45.1583 19:61.9181 20:45.6238 21:41.9199 22:14.9714 23:36.5478 24:60.7662 25:40.9511 26:44.4444 27:18.8845 28:43.0391 29:66.3153 30:41.2824 31:48.545 32:27.7778 33:64.8148 34:67.4603 35:43.6508 36:45.8143 37:33.4855 38:41.0959 39:63.9269 40:48.7062 
8 1:40.4594 2:14.7232 3:38.2803 4:61.8375 5:36.5135 6:42.0043 7:15.6361 8:36.9581 9:69.6517 10:37.6688 11:45.917 12:24.0964 13:50.2008 14:70.9505 15:44.1767 16:43.9479 17:22.8119 18:45.6238 19:61.9181 20:45.1583 21:41.9639 22:14.0907 23:36.5478 24:60.7662 25:41.3915 26:44.4005 27:18.4453 28:43.0391 29:65.437 30:41.2824 31:48.4127 32:26.455 33:64.8148 34:67.4603 35:43.6508 36:45.6621 37:33.4855 38:41.0959 39:63.9269 40:48.7062 
8 1:40.2238 2:13.5453 3:39.4582 4:62.4264 5:35.3357 6:42.2886 7:15.6361 8:37.6688 9:70.3625 10:38.3795 11:45.6493 12:24.7657 13:48.8621 14:71.6198 15:41.4993 16:43.622 17:22.8119 18:45.1583 19:60.0559 20:44.2272 21:41.8758 22:14.531 23:36.5478 24:61.6469 25:40.5108 26:44.1809 27:18.0061 28:42.5999 29:65.8762 30:39.9649 31:47.8836 32:22.4868 33:62.1693 34:67.4603 35:43.6508 36:45.8143 37:33.4855 38:42.618 39:65.449 40:45.6621 
8 1:40.8127 2:15.3121 3:37.1025 4:61.2485 5:37.6914 6:42.0753 7:17.0576 8:36.9581 9:69.6517 10:38.3795 11:45.9839 12:24.0964 13:50.2008 14:71.6198 15:43.5074 16:44.041 17:22.3464 18:44.6927 19:60.5214 20:45.6238 21:42.2721 22:16.2924 23:37.8688 24:60.3258 25:41.3915 26:44.4884 27:18.4453 28:43.0391 29:67.6329 30:41.2824 31:48.0159 32:26.455 33:66.1376 34:62.1693 35:43.6508 36:45.9665 37:31.9635 38:42.618 39:63.9269 40:51.7504 
5.2712239296875909 1:40.8127 2:15.3121 3:39.4582 4:61.2485 5:37.1025 6:42.2886 7:17.7683 8:36.9581 9:69.6517 10:37.6688 11:46.3855 12:24.7657 13:50.8701 14:72.9585 15:44.8461 16:44.3203 17:23.743 18:45.1583 19:62.8492 20:45.6238 21:42.096 22:15.4117 23:37.4284 24:60.3258 25:41.8318 26:44.7519 27:19.3237 28:43.4783 29:67.6329 30:42.1607 31:48.2804 32:25.1323 33:63.4921 34:70.1058 35:42.328 36:45.6621 37:33.4855 38:41.0959 39:62.4049 40:48.7062 
0.013804263486341412 1:40.8716 2:14.7232 3:40.0471 4:61.2485 5:37.1025 6:42.0753 7:17.0576 8:36.9581 9:68.941 10:36.9581 11:46.2517 12:24.0964 13:50.2008 14:70.9505 15:44.8461 16:44.1341 17:23.2775 18:45.1583 19:61.9181 20:45.6238 21:42.0079 22:15.852 23:37.4284 24:59.8855 25:41.8318 26:44.7958 27:18.8845 28:42.5999 29:67.6329 30:42.5999 31:48.545 32:27.7778 33:64.8148 34:68.7831 35:42.328 36:45.5099 37:31.9635 38:41.0959 39:60.8828 40:50.2283 
8 1:40.7538 2:15.3121 3:38.8693 4:61.2485 5:36.5135 6:42.6439 7:17.7683 8:37.6688 9:70.3625 10:39.801 11:46.0509 12:24.0964 13:50.8701 14:72.2892 15:44.8461 16:44.2272 17:23.2775 18:46.0894 19:61.9181 20:46.0894 21:41.8758 22:15.4117 23:37.4284 24:60.3258 25:41.3915 26:44.5762 27:19.7628 28:43.0391 29:66.7545 30:41.2824 31:48.4127 32:26.455 33:64.8148 34:66.1376 35:43.6508 36:46.2709 37:33.4855 38:42.618 39:66.9711 40:50.2283 
8 1:40.7538 2:15.9011 3:39.4582 4:59.4817 5:37.6914 6:42.4307 7:17.7683 8:36.9581 9:69.6517 10:39.0903 11:46.1178 12:24.0964 13:51.5395 14:70.9505 15:44.8461 16:44.1806 17:22.8119 18:45.1583 19:61.9181 20:45.6238 21:42.052 22:15.4117 23:37.4284 24:60.3258 25:41.3915 26:44.7519 27:19.7628 28:43.0391 29:68.5112 30:41.2824 31:48.4127 32:26.455 33:64.8148 34:66.1376 35:43.6508 36:45.6621 37:33.4855 38:41.0959 39:62.4049 40:50.2283 
8 1:40.8127 2:14.7232 3:38.8693 4:61.8375 5:37.1025 6:41.9332 7:15.6361 8:36.9581 9:68.2303 10:37.6688 11:46.1178 12:24.7657 13:51.5395 14:70.9505 15:44.8461 16:44.1341 17:21.8808 18:46.0894 19:61.9181 20:45.6238 21:41.8769 22:15.0509 23:37.1846 24:59.761 25:42.054 26:44.5323 27:18.8845 28:43.0391 29:66.7545 30:41.7216 31:48.4127 32:26.455 33:64.8148 34:67.4603 35:43.6508 36:45.9665 37:33.4855 38:41.0959 39:63.9269 40:50.2283 
8 1:40.9305 2:14.7232 3:38.8693 4:61.2485 5:36.5135 6:42.1464 7:16.3468 8:36.2473 9:69.6517 10:37.6688 11:45.8501 12:23.427 13:50.8701 14:69.6118 15:44.1767 16:44.1341 17:21.4153 18:46.0894 19:62.3836 20:45.6238 21:41.7878 22:15.4117 23:37.4284 24:59.8855 25:41.8318 26:44.4444 27:18.8845 28:43.0391 29:67.1937 30:40.404 31:42.9894 32:22.4868 33:50.2646 34:55.5556 35:38.3598 36:45.6621 37:31.9635 38:41.0959 39:60.8828 40:50.2283 
8 1:40.7538 2:15.3121 3:37.1025 4:62.4264 5:37.1025 6:42.0043 7:15.6361 8:36.2473 9:70.3625 10:37.6688 11:45.7162 12:22.0884 13:49.5315 14:71.6198 15:42.1687 16:43.8082 17:23.2775 18:45.6238 19:60.5214 20:45.1583 21:41.6997 22:14.9714 23:36.1074 24:59.8855 25:40.9511 26:44.1809 27:18.0061 28:42.5999 29:64.1195 30:41.7216 31:48.545 32:26.455 33:64.8148 34:70.1058 35:42.328 36:45.0533 37:33.4855 38:42.618 39:63.9269 40:42.618 
8 1:40.9894 2:15.9011 3:38.2803 4:61.8375 5:38.8693 6:41.8621 7:14.2146 8:36.2473 9:70.3625 10:37.6688 11:45.7831 12:22.7577 13:48.8621 14:72.2892 15:43.5074 16:43.9479 17:23.2775 18:45.6238 19:60.987 20:45.1583 21:41.6557 22:14.531 23:35.6671 24:60.7662 25:40.9511 26:44.2249 27:18.0061 28:42.5999 29:66.7545 30:41.2824 31:48.6772 32:26.455 33:64.8148 34:70.1058 35:43.6508 36:45.2055 37:33.4855 38:42.618 39:63.9269 40:44.14 
8 1:40.6949 2:13.5453 3:37.6914 4:61.8375 5:37.1025 6:42.2175 7:16.3468 8:38.3795 9:71.0732 10:37.6688 11:45.4485 12:22.0884 13:48.1928 14:68.9424 15:43.5074 16:43.1099 17:20.9497 18:42.8305 19:59.1248 20:44.2272 21:41.7878 22:15.852 23:36.1074 24:59.8855 25:42.2721 26:44.4884 27:19.3237 28:43.9174 29:68.072 30:40.8432 31:48.8095 32:27.7778 33:63.4921 34:70.1058 35:44.9735 36:45.2055 37:30.4414 38:42.618 39:65.449 40:42.618 
8 1:40.6949 2:13.5453 3:37.6914 4:62.4264 5:37.6914 6:42.2175 7:15.6361 8:37.6688 9:71.7839 10:37.6688 11:45.5823 12:22.0884 13:48.8621 14:68.2731 15:43.5074 16:43.4823 17:22.3464 18:42.8305 19:59.5903 20:45.6238 21:41.9199 22:16.7327 23:36.9881 24:60.7662 25:40.9511 26:44.6201 27:18.8845 28:43.9174 29:69.3895 30:41.7216 31:48.8095 32:27.7778 33:63.4921 34:70.1058 35:44.9735 36:45.2055 37:30.4414 38:42.618 39:65.449 40:42.618 
8 1:40.6949 2:13.5453 3:37.6914 4:62.4264 5:37.6914 6:42.2175 7:15.6361 8:37.6688 9:71.7839 10:37.6688 11:45.5823 12:22.0884 13:48.8621 14:68.2731 15:43.5074 16:43.4823 17:22.3464 18:42.8305 19:59.5903 20:45.6238 21:41.9199 22:16.7327 23:36.9881 24:60.7662 25:40.9511 26:44.7079 27:18.8845 28:43.9174 29:69.3895 30:42.1607 31:48.8095 32:27.7778 33:63.4921 34:70.1058 35:44.9735 36:45.2055 37:30.4414 38:42.618 39:65.449 40:42.618 
8 1:40.8716 2:15.3121 3:38.8693 4:60.6596 5:35.9246 6:42.4307 7:16.3468 8:37.6688 9:71.7839 10:38.3795 11:45.8501 12:23.427 13:48.8621 14:69.6118 15:43.5074 16:43.1099 17:20.4842 18:43.2961 19:56.3315 20:44.6927 21:41.9199 22:15.4117 23:35.6671 24:61.2065 25:41.3915 26:44.6201 27:19.7628 28:43.0391 29:68.072 30:42.1607 31:48.6772 32:27.7778 33:63.4921 34:70.1058 35:43.6508 36:44.7489 37:31.9635 38:39.5738 39:62.4049 40:41.0959 
8 1:40.8127 2:15.3121 3:38.2803 4:61.8375 5:37.1025 6:42.0753 7:15.6361 8:36.9581 9:70.3625 10:37.6688 11:45.8501 12:23.427 13:49.5315 14:71.6198 15:43.5074 16:43.9479 17:23.2775 18:45.6238 19:60.987 20:45.1583 21:41.7437 22:14.531 23:35.6671 24:60.3258 25:40.9511 26:44.137 27:18.0061 28:42.5999 29:64.9978 30:40.8432 31:48.545 32:26.455 33:64.8148 34:68.7831 35:43.6508 36:44.9011 37:33.4855 38:41.0959 39:63.9269 40:42.618 
8 1:40.8127 2:15.3121 3:38.2803 4:61.8375 5:37.1025 6:42.0043 7:14.9254 8:36.9581 9:69.6517 10:37.6688 11:45.8501 12:23.427 13:49.5315 14:71.6198 15:43.5074 16:43.9479 17:23.2775 18:45.6238 19:60.987 20:45.1583 21:41.7437 22:14.531 23:35.6671 24:60.3258 25:40.9511 26:44.0931 27:18.0061 28:42.5999 29:64.9978 30:40.8432 31:48.545 32:26.455 33:64.8148 34:68.7831 35:43.6508 36:45.2055 37:33.4855 38:41.0959 39:63.9269 40:45.6621 
8 1:40.7538 2:15.9011 3:36.5135 4:60.0707 5:35.3357 6:42.1464 7:16.3468 8:37.6688 9:70.3625 10:38.3795 11:45.3146 12:22.0884 13:48.8621 14:68.9424 15:42.1687 16:43.1099 17:18.622 18:43.7616 19:56.797 20:44.6927 21:41.6116 22:14.9714 23:36.1074 24:58.5645 25:39.6301 26:44.6201 27:19.3237 28:43.9174 29:66.7545 30:42.5999 31:48.4127 32:27.7778 33:63.4921 34:70.1058 35:42.328 36:44.2922 37:25.8752 38:39.5738 39:63.9269 40:41.0959 
8 1:40.9894 2:14.7232 3:37.1025 4:60.0707 5:36.5135 6:42.4307 7:15.6361 8:37.6688 9:71.7839 10:37.6688 11:44.9799 12:22.0884 13:49.5315 14:66.9344 15:40.83 16:42.9702 17:19.0875 18:42.8305 19:57.2626 20:44.2272 21:41.5236 22:15.4117 23:35.6671 24:57.6838 25:38.7494 26:44.5762 27:19.3237 28:43.0391 29:66.7545 30:42.5999 31:48.0159 32:26.455 33:63.4921 34:70.1058 35:38.3598 36:45.0533 37:30.4414 38:41.0959 39:66.9711 40:42.618 
8 1:40.9305 2:14.7232 3:37.1025 4:60.0707 5:36.5135 6:42.0043 7:17.0576 8:37.6688 9:69.6517 10:36.9581 11:45.3146 12:22.7577 13:48.8621 14:67.6037 15:42.1687 16:42.784 17:18.622 18:42.8305 19:56.797 20:44.6927 21:41.4355 22:14.0907 23:36.1074 24:59.0048 25:40.5108 26:44.7519 27:18.8845 28:43.9174 29:68.072 30:42.1607 31:48.0159 32:26.455 33:63.4921 34:68.7831 35:41.0053 36:45.0725 37:27.5362 38:39.1304 39:72.4638 40:42.029 
8 1:40.9894 2:14.1343 3:36.5135 4:61.8375 5:35.3357 6:41.8621 7:15.6361 8:37.6688 9:70.3625 10:37.6688 11:45.0469 12:20.0803 13:48.1928 14:68.2731 15:41.4993 16:42.784 17:18.1564 18:43.2961 19:57.2626 20:44.6927 21:41.6557 22:16.2924 23:36.1074 24:59.0048 25:40.0705 26:44.4444 27:18.8845 28:43.9174 29:66.7545 30:40.8432 31:47.7513 32:27.7778 33:62.1693 34:68.7831 35:41.0053 36:44.5967 37:27.3973 38:39.5738 39:65.449 40:42.618 
1.868443766907991 1:41.0483 2:15.9011 3:37.1025 4:60.0707 5:35.3357 6:42.1464 7:16.3468 8:38.3795 9:69.6517 10:37.6688 11:45.1807 12:20.0803 13:48.8621 14:68.9424 15:42.1687 16:42.8771 17:18.1564 18:43.2961 19:57.7281 20:44.6927 21:41.5236 22:17.1731 23:36.1074 24:57.6838 25:40.5108 26:44.3127 27:18.4453 28:43.0391 29:65.437 30:40.8432 31:47.3545 32:27.7778 33:60.8466 34:66.1376 35:41.0053 36:45.3577 37:30.4414 38:42.618 39:66.9711 40:44.14 
8 1:40.9894 2:15.3121 3:36.5135 4:61.8375 5:35.3357 6:41.791 7:16.3468 8:37.6688 9:68.941 10:36.9581 11:45.2477 12:20.0803 13:49.5315 14:68.9424 15:42.838 16:42.9236 17:18.622 18:43.2961 19:56.797 20:44.6927 21:41.5676 22:15.852 23:36.9881 24:59.4452 25:40.5108 26:44.4884 27:19.3237 28:43.4783 29:66.7545 30:40.8432 31:47.0899 32:27.7778 33:58.2011 34:64.8148 35:41.0053 36:45.0533 37:30.4414 38:41.0959 39:65.449 40:44.14 
8 1:41.1072 2:14.7232 3:35.9246 4:61.8375 5:35.9246 6:41.791 7:14.2146 8:37.6688 9:70.3625 10:37.6688 11:45.1138 12:20.0803 13:48.1928 14:68.9424 15:41.4993 16:42.784 17:18.1564 18:43.2961 19:56.797 20:44.6927 21:41.6116 22:15.4117 23:36.5478 24:59.4452 25:39.6301 26:44.4444 27:19.7628 28:43.4783 29:66.3153 30:41.2824 31:47.7513 32:27.7778 33:62.1693 34:68.7831 35:41.0053 36:45.0533 37:28.9193 38:42.618 39:66.9711 40:44.14 
8 1:40.8127 2:14.1343 3:35.9246 4:61.2485 5:35.9246 6:42.0753 7:16.3468 8:36.9581 9:69.6517 10:40.5117 11:45.2477 12:20.0803 13:48.8621 14:68.9424 15:42.838 16:43.0633 17:19.5531 18:44.2272 19:57.2626 20:45.6238 21:41.4795 22:16.7327 23:35.6671 24:57.2435 25:40.9511 26:44.1809 27:18.0061 28:42.1607 29:65.8762 30:40.404 31:47.3545 32:27.7778 33:60.8466 34:66.1376 35:41.0053 36:44.9011 37:28.9193 38:42.618 39:70.0152 40:44.14 
8 1:40.8127 2:14.1343 3:35.9246 4:61.2485 5:35.9246 6:42.0753 7:16.3468 8:36.9581 9:69.6517 10:40.5117 11:45.2477 12:20.0803 13:48.8621 14:68.9424 15:42.838 16:43.0633 17:19.5531 18:44.2272 19:57.2626 20:45.6238 21:41.4795 22:16.7327 23:35.6671 24:57.2435 25:40.9511 26:44.1809 27:18.0061 28:42.1607 29:65.8762 30:40.404 31:47.3545 32:27.7778 33:60.8466 34:66.1376 35:41.0053 36:44.9011 37:28.9193 38:42.618 39:70.0152 40:44.14 
5.1251028753388024 1:41.3428 2:15.3121 3:37.6914 4:62.4264 5:35.9246 6:42.2886 7:15.6361 8:39.0903 9:70.3625 10:39.0903 11:44.913 12:20.0803 13:48.1928 14:68.2731 15:40.83 16:42.6443 17:18.1564 18:41.4339 19:56.3315 20:45.6238 21:41.4795 22:14.9714 23:38.3091 24:58.1242 25:39.1898 26:44.5762 27:19.3237 28:43.9174 29:66.3153 30:40.8432 31:47.2222 32:26.455 33:60.8466 34:66.1376 35:39.6825 36:44.7489 37:30.4414 38:39.5738 39:66.9711 40:42.618 
4.0200355137407673 1:41.1661 2:15.9011 3:37.1025 4:61.8375 5:35.9246 6:42.1464 7:15.6361 8:39.801 9:71.0732 10:36.9581 11:44.9799 12:20.0803 13:48.1928 14:68.9424 15:40.83 16:39.5251 17:17.2253 18:39.1061 19:53.0726 20:37.7095 21:30.8675 22:10.568 23:27.3007 24:44.9141 25:32.1444 26:44.4444 27:18.8845 28:43.9174 29:66.3153 30:40.404 31:47.0899 32:26.455 33:60.8466 34:66.1376 35:38.3598 36:44.9011 37:30.4414 38:39.5738 39:66.9711 40:42.618 
8 1:41.2839 2:15.9011 3:36.5135 4:63.0153 5:35.9246 6:42.1464 7:14.9254 8:39.0903 9:70.3625 10:38.3795 11:44.9799 12:20.0803 13:48.1928 14:68.9424 15:40.83 16:42.7374 17:18.1564 18:42.365 19:56.3315 20:45.6238 21:41.5236 22:14.9714 23:38.3091 24:58.1242 25:39.6301 26:44.5323 27:19.3237 28:43.9174 29:65.8762 30:40.8432 31:47.0899 32:25.1323 33:60.8466 34:66.1376 35:39.6825 36:44.7489 37:30.4414 38:39.5738 39:66.9711 40:42.618 
8 1:41.2839 2:15.9011 3:37.1025 4:62.4264 5:35.9246 6:42.2175 7:15.6361 8:39.0903 9:70.3625 10:38.3795 11:44.9799 12:20.0803 13:48.1928 14:68.9424 15:40.83 16:42.784 17:18.1564 18:42.365 19:56.797 20:45.6238 21:41.4795 22:14.9714 23:38.3091 24:57.6838 25:39.6301 26:44.5323 27:19.3237 28:43.4783 29:66.3153 30:40.8432 31:47.0899 32:26.455 33:60.8466 34:64.8148 35:39.6825 36:44.7489 37:30.4414 38:39.5738 39:66.9711 40:42.618 
8 1:41.2839 2:15.9011 3:37.1025 4:61.8375 5:36.5135 6:42.1464 7:15.6361 8:39.0903 9:70.3625 10:38.3795 11:44.913 12:20.0803 13:48.1928 14:68.9424 15:40.83 16:42.6443 17:18.1564 18:42.365 19:56.3315 20:45.6238 21:32.1885 22:11.0084 23:27.7411 24:45.3545 25:33.4654 26:44.3566 27:18.0061 28:43.4783 29:65.8762 30:40.404 31:47.3545 32:27.7778 33:60.8466 34:67.4603 35:39.6825 36:44.7489 37:30.4414 38:39.5738 39:66.9711 40:42.618 
8 1:41.225 2:15.9011 3:37.1025 4:61.8375 5:35.9246 6:42.0753 7:15.6361 8:39.0903 9:71.0732 10:38.3795 11:44.9799 12:20.0803 13:48.1928 14:68.2731 15:40.83 16:42.6909 17:18.1564 18:42.365 19:56.3315 20:45.6238 21:41.5236 22:14.9714 23:37.8688 24:58.5645 25:39.6301 26:44.4444 27:19.3237 28:43.4783 29:65.437 30:41.2824 31:47.2222 32:26.455 33:60.8466 34:66.1376 35:39.6825 36:44.14 37:30.4414 38:36.5297 39:65.449 40:39.5738 
8 1:41.1661 2:15.9011 3:36.5135 4:61.8375 5:35.9246 6:42.0043 7:15.6361 8:39.0903 9:70.3625 10:38.3795 11:44.9799 12:20.0803 13:48.1928 14:68.2731 15:40.83 16:42.6909 17:18.1564 18:42.365 19:56.3315 20:45.6238 21:41.4355 22:14.9714 23:37.8688 24:58.1242 25:39.6301 26:44.4884 27:19.3237 28:43.4783 29:66.3153 30:41.2824 31:47.2222 32:26.455 33:60.8466 34:66.1376 35:39.6825 36:44.2922 37:30.4414 38:38.0518 39:65.449 40:39.5738 
7.2846323964177744 1:41.1661 2:15.3121 3:37.6914 4:61.2485 5:36.5135 6:41.791 7:16.3468 8:37.6688 9:69.6517 10:36.9581 11:45.1138 12:22.7577 13:47.5234 14:68.2731 15:40.83 16:42.9236 17:18.1564 18:44.6927 19:57.2626 20:44.6927 21:41.4355 22:14.9714 23:36.5478 24:58.1242 25:39.1898 26:44.664 27:18.8845 28:43.4783 29:67.1937 30:42.1607 31:48.0159 32:26.455 33:63.4921 34:68.7831 35:41.0053 36:45.0725 37:27.5362 38:40.5797 39:69.5652 40:42.029 
8 1:42.3439 2:18.8457 3:44.1696 4:60.0707 5:45.3475 6:42.2886 7:17.7683 8:39.801 9:67.5195 10:33.4044 11:47.0549 12:28.1124 13:47.5234 14:76.3052 15:34.8059 16:43.622 17:23.2775 18:46.5549 19:60.987 20:46.0894 21:43.5491 22:21.1361 23:36.1074 24:60.3258 25:46.2351 26:44.7958 27:25.4721 28:42.5999 29:68.9504 30:40.8432 31:51.3228 32:31.746 33:68.7831 34:71.4286 35:56.8783 36:44.4928 37:27.5362 38:44.9275 39:56.5217 40:44.9275 
8 1:42.6384 2:18.8457 3:46.5253 4:61.8375 5:44.7585 6:41.6844 7:16.9851 8:39.632 9:65.1097 10:33.9703 11:46.7871 12:29.4511 13:49.5315 14:75.6359 15:36.1446 16:43.4358 17:22.8119 18:45.6238 19:61.4525 20:47.0205 21:42.8886 22:18.9344 23:36.9881 24:58.1242 25:44.0335 26:44.2249 27:24.1546 28:40.404 29:68.072 30:40.404 31:50.3968 32:31.746 33:68.7831 34:70.1058 35:52.9101 36:44.058 37:23.1884 38:42.029 39:56.5217 40:42.029 
8 1:42.874 2:20.0236 3:47.1143 4:61.2485 5:45.9364 6:42.0753 7:17.7683 8:39.0903 9:66.8088 10:33.4044 11:46.921 12:28.7818 13:46.8541 14:75.6359 15:35.4752 16:43.5289 17:22.8119 18:45.6238 19:61.9181 20:47.0205 21:43.1968 22:20.2554 23:36.1074 24:59.0048 25:44.9141 26:44.6201 27:25.0329 28:43.0391 29:66.7545 30:39.9649 31:50.7937 32:30.4233 33:67.4603 34:71.4286 35:55.5556 36:44.6377 37:26.087 38:43.4783 39:57.971 40:42.029 
8 1:42.5206 2:16.49 3:44.7585 4:60.6596 5:46.5253 6:42.0753 7:17.7683 8:39.0903 9:66.0981 10:35.5366 11:46.7871 12:28.7818 13:48.1928 14:74.2972 15:36.1446 16:43.2961 17:22.8119 18:45.6238 19:59.5903 20:47.486 21:42.8005 22:18.9344 23:35.2268 24:57.6838 25:43.5931 26:44.3566 27:25.9113 28:41.2824 29:66.7545 30:38.6473 31:50.2646 32:29.1005 33:67.4603 34:71.4286 35:52.9101 36:43.913 37:24.6377 38:42.029 39:55.0725 40:42.029 
7.9631104393244065 1:42.1673 2:16.49 3:44.7585 4:60.6596 5:47.1143 6:41.5778 7:14.2146 8:34.1151 9:67.5195 10:36.2473 11:46.921 12:28.7818 13:47.5234 14:73.6278 15:39.4913 16:42.8305 17:20.9497 18:43.2961 19:60.987 20:46.5549 21:42.14 22:18.0537 23:34.7864 24:56.3628 25:44.4738 26:44.0931 27:25.4721 28:39.0865 29:66.3153 30:38.6473 31:49.8677 32:27.7778 33:66.1376 34:68.7831 35:56.8783 36:44.086 37:19.9693 38:43.0108 39:55.2995 40:43.0108 
8 1:42.7729 2:20.649 3:41.2979 4:66.0767 5:42.4779 6:44.1135 7:26.2411 8:35.461 9:79.4326 10:39.0071 11:47.5234 12:23.427 13:50.8701 14:76.3052 15:41.4993 16:43.7151 17:23.2775 18:42.365 19:59.5903 20:49.3482 21:44.738 22:28.1814 23:40.5108 24:59.4452 25:46.2351 26:45.0593 27:22.3979 28:41.7216 29:68.5112 30:46.9917 31:50.7937 32:31.746 33:67.4603 34:70.1058 35:58.2011 36:45.942 37:23.1884 38:49.2754 39:55.0725 40:44.9275 
8 1:42.2419 2:19.469 3:40.118 4:66.6667 5:40.118 6:44.0426 7:26.2411 8:35.461 9:78.7234 10:39.7163 11:47.3896 12:23.427 13:50.2008 14:75.6359 15:42.1687 16:43.622 17:21.8808 18:42.8305 19:60.5214 20:49.3482 21:44.782 22:27.7411 23:40.0705 24:62.0872 25:45.7948 26:44.9275 27:21.0804 28:42.5999 29:68.5112 30:46.1133 31:50.7937 32:31.746 33:66.1376 34:71.4286 35:58.2011 36:45.7971 37:23.1884 38:49.2754 39:57.971 40:44.9275 
8 1:41.5929 2:16.5192 3:38.9381 4:64.8968 5:38.9381 6:43.9716 7:24.8227 8:35.461 9:74.4681 10:41.1348 11:47.1218 12:22.0884 13:50.2008 14:74.2972 15:42.1687 16:43.4823 17:21.8808 18:41.8994 19:60.0559 20:50.7449 21:44.0775 22:25.5394 23:42.2721 24:61.6469 25:47.1158 26:44.2688 27:20.202 28:42.1607 29:64.1195 30:44.7958 31:50 32:30.4233 33:67.4603 34:68.7831 35:54.2328 36:45.6522 37:23.1884 38:47.8261 39:56.5217 40:46.3768 
7.9761654862625218 1:41.5339 2:16.5192 3:38.9381 4:64.3068 5:38.9381 6:43.6879 7:24.8227 8:35.461 9:73.0496 10:41.1348 11:47.1218 12:22.0884 13:50.2008 14:74.2972 15:42.1687 16:43.4823 17:21.8808 18:41.8994 19:60.0559 20:50.7449 21:44.0775 22:25.5394 23:42.2721 24:61.6469 25:47.1158 26:44.2688 27:20.202 28:42.1607 29:64.1195 30:44.7958 31:50 32:30.4233 33:67.4603 34:68.7831 35:54.2328 36:45.6522 37:23.1884 38:47.8261 39:56.5217 40:46.3768 
8 1:41.3569 2:20.649 3:39.528 4:57.8171 5:40.118 6:42.4823 7:18.4397 8:33.3333 9:73.0496 10:38.2979 11:46.4525 12:21.419 13:47.5234 14:75.6359 15:38.822 16:42.8771 17:19.0875 18:41.4339 19:58.6592 20:48.4171 21:44.0335 22:27.7411 23:39.1898 24:59.0048 25:44.9141 26:43.9754 27:19.3492 28:38.6983 29:64.204 30:45.2946 31:49.8677 32:29.1005 33:66.1376 34:63.4921 35:56.8783 36:46.2366 37:21.5054 38:47.619 39:62.98 40:43.0108 
8 1:41.5929 2:21.2389 3:38.9381 4:58.9971 5:38.9381 6:42.766 7:21.9858 8:34.0426 9:75.1773 10:36.8794 11:47.1218 12:22.0884 13:50.2008 14:76.3052 15:41.4993 16:43.0633 17:21.8808 18:41.4339 19:57.2626 20:47.9516 21:43.5491 22:25.5394 23:37.8688 24:58.1242 25:46.6755 26:44.0053 27:19.7628 28:40.404 29:63.6803 30:45.6741 31:49.7354 32:29.1005 33:66.1376 34:60.8466 35:55.5556 36:45.7757 37:21.5054 38:46.0829 39:53.7634 40:47.619 
8 1:41.4749 2:17.6991 3:40.708 4:62.5369 5:38.9381 6:42.1986 7:19.1489 8:31.2057 9:73.0496 10:36.8794 11:47.4565 12:26.7738 13:49.5315 14:76.9746 15:41.4993 16:42.5978 17:17.2253 18:40.9683 19:57.2626 20:46.5549 21:43.5491 22:23.7781 23:38.3091 24:57.2435 25:47.1158 26:44.2688 27:21.5195 28:41.2824 29:64.9978 30:46.9917 31:49.8677 32:29.1005 33:64.8148 34:67.4603 35:56.8783 36:45.2174 37:24.6377 38:47.8261 39:55.0725 40:43.4783 
1.7633318710529549 1:40.4005 2:11.7786 3:37.1025 4:63.0153 5:34.7468 6:41.5778 7:17.0576 8:45.4869 9:71.7839 10:34.1151 11:45.9839 12:23.427 13:48.8621 14:74.2972 15:42.1687 16:41.8994 17:19.5531 18:39.5717 19:56.797 20:42.8305 21:42.2721 22:23.7781 23:37.8688 24:57.2435 25:47.1158 26:43.3904 27:18.4453 28:38.6473 29:71.5854 30:34.6948 31:48.6772 32:29.1005 33:66.1376 34:68.7831 35:51.5873 36:46.1187 37:25.8752 38:42.618 39:66.9711 40:47.1842 
8 1:40.4594 2:11.7786 3:37.6914 4:61.2485 5:35.3357 6:41.4357 7:17.0576 8:44.0654 9:72.4947 10:34.1151 11:45.917 12:23.427 13:47.5234 14:72.9585 15:41.4993 16:42.5978 17:21.4153 18:41.4339 19:60.0559 20:42.365 21:42.14 22:21.1361 23:39.6301 24:56.3628 25:46.2351 26:43.7857 27:18.8845 28:39.0865 29:74.6596 30:36.4515 31:48.9418 32:27.7778 33:63.4921 34:67.4603 35:52.9101 36:45.3623 37:26.087 38:44.9275 39:68.1159 40:44.9275 
8 1:40.8127 2:13.5453 3:37.1025 4:61.8375 5:35.9246 6:41.3646 7:16.3468 8:42.6439 9:73.2054 10:34.8259 11:45.6493 12:24.0964 13:45.5154 14:72.2892 15:41.4993 16:42.5512 17:20.9497 18:41.4339 19:59.1248 20:42.8305 21:42.3162 22:21.1361 23:39.6301 24:57.6838 25:47.1158 26:43.8296 27:19.3237 28:38.6473 29:74.2205 30:36.4515 31:48.9418 32:33.0688 33:66.1376 34:68.7831 35:50.2646 36:45.7971 37:28.9855 38:46.3768 39:66.6667 40:44.9275 
8 1:40.8127 2:11.1896 3:37.1025 4:64.1932 5:37.1025 6:41.1514 7:15.6361 8:44.7761 9:67.5195 10:34.1151 11:46.1847 12:23.427 13:48.8621 14:80.3213 15:41.4993 16:41.8994 17:17.6909 18:40.9683 19:59.1248 20:40.9683 21:41.5236 22:24.6587 23:37.8688 24:55.0418 25:43.5931 26:42.8634 27:20.6412 28:39.0865 29:68.9504 30:33.8164 31:48.2804 32:30.4233 33:63.4921 34:70.1058 35:51.5873 36:46.8798 37:27.3973 38:47.1842 39:71.5373 40:48.7062 
8 1:40.8716 2:11.1896 3:37.1025 4:64.1932 5:37.1025 6:41.0092 7:14.9254 8:44.0654 9:67.5195 10:34.1151 11:46.2517 12:24.0964 13:47.5234 14:79.6519 15:42.838 16:41.8063 17:17.6909 18:40.9683 19:58.1937 20:40.5028 21:41.3915 22:24.6587 23:37.8688 24:54.6015 25:43.5931 26:42.5999 27:19.7628 28:37.769 29:67.6329 30:33.8164 31:48.6772 32:31.746 33:64.8148 34:70.1058 35:52.9101 36:46.7275 37:27.3973 38:45.6621 39:71.5373 40:47.1842 
8 1:40.8127 2:11.1896 3:37.1025 4:64.1932 5:37.1025 6:41.0803 7:14.9254 8:44.7761 9:67.5195 10:34.1151 11:46.2517 12:24.0964 13:47.5234 14:79.6519 15:42.838 16:41.8063 17:17.6909 18:40.9683 19:58.1937 20:40.5028 21:41.3474 22:24.2184 23:37.8688 24:54.6015 25:43.5931 26:42.5999 27:19.7628 28:37.3298 29:68.072 30:33.8164 31:48.6772 32:31.746 33:64.8148 34:70.1058 35:52.9101 36:46.8798 37:27.3973 38:45.6621 39:73.0594 40:47.1842 
8 1:40.8716 2:11.1896 3:37.1025 4:64.7821 5:37.1025 6:41.1514 7:14.9254 8:44.0654 9:68.941 10:34.1151 11:46.1178 12:24.0964 13:47.5234 14:78.3133 15:42.838 16:41.8529 17:17.2253 18:40.9683 19:58.6592 20:40.5028 21:41.4355 22:24.6587 23:37.8688 24:54.6015 25:43.5931 26:42.5999 27:20.202 28:37.769 29:67.6329 30:34.2556 31:48.6772 32:31.746 33:64.8148 34:71.4286 35:52.9101 36:46.8798 37:27.3973 38:45.6621 39:73.0594 40:47.1842 
8 1:40.7538 2:11.1896 3:35.9246 4:63.0153 5:37.6914 6:41.2935 7:16.3468 8:44.0654 9:68.941 10:34.8259 11:46.1847 12:24.0964 13:48.1928 14:79.6519 15:41.4993 16:41.7598 17:18.1564 18:40.5028 19:59.1248 20:40.0372 21:41.3474 22:25.0991 23:37.4284 24:53.7208 25:43.5931 26:42.8634 27:20.202 28:38.6473 29:68.9504 30:34.6948 31:48.1481 32:30.4233 33:63.4921 34:70.1058 35:51.5873 36:46.8798 37:27.3973 38:45.6621 39:70.0152 40:48.7062 
8 1:40.8127 2:11.1896 3:35.9246 4:63.6042 5:37.6914 6:40.7164 7:14.6199 8:43.8596 9:68.7135 10:33.6257 11:46.1847 12:24.0964 13:48.1928 14:79.6519 15:41.4993 16:41.7598 17:18.1564 18:40.5028 19:59.1248 20:40.0372 21:41.3474 22:25.0991 23:37.4284 24:53.7208 25:43.5931 26:42.9513 27:20.202 28:38.6473 29:69.3895 30:34.6948 31:48.2804 32:30.4233 33:63.4921 34:70.1058 35:51.5873 36:46.8798 37:27.3973 38:45.6621 39:70.0152 40:48.7062 
8 1:40.8716 2:11.1896 3:36.5135 4:63.6042 5:37.6914 6:41.0803 7:14.9254 8:44.7761 9:68.2303 10:34.8259 11:46.0509 12:23.427 13:48.1928 14:79.6519 15:41.4993 16:41.7132 17:18.1564 18:40.5028 19:59.1248 20:40.0372 21:41.3474 22:24.6587 23:37.4284 24:53.7208 25:43.5931 26:42.9073 27:20.202 28:38.6473 29:69.3895 30:34.6948 31:48.2804 32:30.4233 33:63.4921 34:70.1058 35:51.5873 36:46.8798 37:27.3973 38:45.6621 39:70.0152 40:48.7062 
8 1:40.8716 2:11.1896 3:36.5135 4:63.6042 5:37.6914 6:41.2225 7:15.6361 8:45.4869 9:67.5195 10:33.4044 11:46.5194 12:24.0964 13:48.8621 14:82.3293 15:40.83 16:41.8994 17:18.622 18:40.5028 19:60.5214 20:40.5028 21:41.5236 22:25.0991 23:38.3091 24:55.0418 25:43.5931 26:42.9073 27:20.202 28:38.6473 29:69.3895 30:34.6948 31:48.2804 32:30.4233 33:63.4921 34:70.1058 35:51.5873 36:46.8798 37:27.3973 38:47.1842 39:71.5373 40:48.7062 
8 1:40.9524 2:11.3095 3:36.3095 4:64.2857 5:38.0952 6:41.0803 7:14.9254 8:44.7761 9:68.2303 10:34.8259 11:46.1847 12:24.0964 13:48.1928 14:79.6519 15:41.4993 16:41.7598 17:18.1564 18:40.5028 19:59.1248 20:40.0372 21:41.3474 22:24.6587 23:37.4284 24:53.7208 25:43.5931 26:43.0165 27:20.5266 28:39.2682 29:69.1656 30:35.2521 31:48.2804 32:30.4233 33:63.4921 34:70.1058 35:51.5873 36:46.7275 37:27.3973 38:45.6621 39:70.0152 40:48.7062 
8 1:40.1649 2:9.4229 3:36.5135 4:64.1932 5:34.1578 6:41.2148 7:16.6305 8:43.3839 9:68.6913 10:35.4302 11:46.3855 12:24.7657 13:49.5315 14:79.6519 15:42.838 16:41.8529 17:17.6909 18:40.9683 19:58.1937 20:40.5028 21:41.6116 22:25.0991 23:37.8688 24:53.7208 25:44.4738 26:42.788 27:20.6684 28:38.2586 29:69.0413 30:34.7405 31:48.1481 32:30.4233 33:63.4921 34:68.7831 35:51.5873 36:46.8798 37:25.8752 38:45.6621 39:73.0594 40:47.1842 
8 1:40.5183 2:10.0118 3:37.6914 4:64.1932 5:34.7468 6:41.1424 7:16.6305 8:43.3839 9:68.6913 10:35.4302 11:46.3855 12:24.7657 13:49.5315 14:79.6519 15:42.838 16:41.8529 17:17.6909 18:40.9683 19:58.1937 20:40.5028 21:41.6557 22:25.0991 23:37.8688 24:54.1612 25:44.4738 26:42.788 27:20.6684 28:38.2586 29:69.0413 30:34.7405 31:48.1481 32:30.4233 33:63.4921 34:68.7831 35:51.5873 36:46.8798 37:25.8752 38:45.6621 39:73.0594 40:47.1842 
8 1:40.2827 2:9.4229 3:37.1025 4:64.1932 5:35.3357 6:41.1594 7:15.942 8:43.4783 9:68.8406 10:35.5072 11:46.3855 12:24.7657 13:49.5315 14:79.6519 15:42.838 16:41.8529 17:17.6909 18:40.9683 19:58.1937 20:40.5028 21:41.6116 22:25.0991 23:37.8688 24:53.7208 25:44.4738 26:42.832 27:20.6684 28:38.2586 29:69.4811 30:34.7405 31:48.1481 32:30.4233 33:63.4921 34:68.7831 35:51.5873 36:46.8798 37:25.8752 38:45.6621 39:73.0594 40:47.1842 
8 1:40.3416 2:9.4229 3:37.1025 4:64.1932 5:34.7468 6:41.1424 7:16.6305 8:43.3839 9:68.6913 10:35.4302 11:46.3186 12:24.7657 13:49.5315 14:78.9826 15:42.838 16:41.8529 17:17.6909 18:40.9683 19:58.1937 20:40.5028 21:41.6557 22:25.0991 23:37.8688 24:53.7208 25:44.9141 26:42.788 27:20.6684 28:38.2586 29:69.0413 30:34.7405 31:48.1481 32:30.4233 33:63.4921 34:68.7831 35:51.5873 36:46.8798 37:25.8752 38:45.6621 39:73.0594 40:47.1842 
8 1:40.3416 2:9.4229 3:37.1025 4:64.1932 5:34.7468 6:41.1514 7:15.6361 8:43.3547 9:68.2303 10:35.5366 11:46.3855 12:24.7657 13:49.5315 14:79.6519 15:42.838 16:41.8529 17:17.6909 18:40.9683 19:58.1937 20:40.5028 21:41.6116 22:25.0991 23:37.8688 24:53.7208 25:44.4738 26:42.6877 27:20.6412 28:38.2082 29:68.5112 30:34.6948 31:48.2804 32:30.4233 33:64.8148 34:68.7831 35:51.5873 36:46.8798 37:25.8752 38:45.6621 39:73.0594 40:47.1842 
8 1:40.3416 2:9.4229 3:37.1025 4:64.1932 5:34.7468 6:41.2225 7:15.6361 8:43.3547 9:68.941 10:36.2473 11:46.3855 12:24.7657 13:49.5315 14:79.6519 15:42.838 16:41.8529 17:17.6909 18:40.9683 19:58.1937 20:40.5028 21:41.6116 22:25.0991 23:37.8688 24:53.7208 25:44.4738 26:42.6438 27:20.6412 28:38.2082 29:68.5112 30:34.6948 31:48.1481 32:30.4233 33:63.4921 34:68.7831 35:51.5873 36:46.8798 37:25.8752 38:45.6621 39:73.0594 40:47.1842 
4.1823014651124213 1:40.5183 2:11.1896 3:38.2803 4:64.1932 5:35.9246 6:41.3276 7:17.1306 8:42.8266 9:69.2363 10:37.1163 11:46.1847 12:23.427 13:48.8621 14:80.3213 15:40.83 16:41.4184 17:16.0757 18:42.5532 19:60.0473 20:40.1891 21:41.4355 22:23.7781 23:38.7494 24:53.7208 25:45.3545 26:42.838 27:20.0803 28:38.3757 29:67.3806 30:34.3597 31:48.4127 32:30.4233 33:63.4921 34:70.1058 35:51.5873 36:47.1842 37:25.8752 38:47.1842 39:73.0594 40:45.6621 
8 1:40.6949 2:11.7786 3:38.2803 4:64.1932 5:35.9246 6:41.2935 7:16.3468 8:43.3547 9:68.2303 10:36.9581 11:46.1847 12:24.0964 13:48.8621 14:79.6519 15:41.4993 16:41.3873 17:15.8287 18:41.8994 19:58.1937 20:40.9683 21:41.5676 22:24.2184 23:38.3091 24:53.7208 25:45.3545 26:42.8634 27:20.202 28:39.0865 29:68.5112 30:33.8164 31:48.2804 32:30.4233 33:63.4921 34:70.1058 35:51.5873 36:46.8798 37:25.8752 38:47.1842 39:71.5373 40:47.1842 
8 1:40.7538 2:10.6007 3:35.9246 4:63.0153 5:37.1025 6:41.6489 7:15.6361 8:45.4869 9:72.4947 10:34.8259 11:45.9839 12:23.427 13:46.8541 14:78.3133 15:42.1687 16:41.527 17:17.6909 18:40.5028 19:57.7281 20:39.5717 21:41.6557 22:24.2184 23:39.1898 24:53.7208 25:45.3545 26:43.2278 27:20.6684 28:39.1381 29:70.3606 30:36.4996 31:48.545 32:31.746 33:64.8148 34:72.7513 35:50.2646 36:47.1842 37:28.9193 38:47.1842 39:73.0594 40:50.2283 
8 1:40.8127 2:11.1896 3:35.9246 4:63.0153 5:37.1025 6:41.791 7:15.6361 8:45.4869 9:71.7839 10:35.5366 11:45.8501 12:23.427 13:46.8541 14:77.6439 15:41.4993 16:41.7598 17:17.6909 18:41.4339 19:58.6592 20:39.5717 21:41.6997 22:24.2184 23:39.1898 24:54.1612 25:45.3545 26:43.083 27:20.6412 28:38.6473 29:70.2679 30:36.0123 31:48.2804 32:30.4233 33:63.4921 34:70.1058 35:51.5873 36:47.3364 37:28.9193 38:47.1842 39:73.0594 40:50.2283 
8 1:40.7538 2:11.7786 3:36.5135 4:62.4264 5:36.5135 6:41.5068 7:15.6361 8:44.7761 9:68.941 10:35.5366 11:45.917 12:24.0964 13:48.8621 14:74.2972 15:40.1606 16:41.6201 17:17.6909 18:41.4339 19:58.1937 20:40.0372 21:41.6997 22:24.6587 23:38.7494 24:54.1612 25:44.0335 26:42.9952 27:20.6412 28:38.6473 29:70.7071 30:34.2556 31:48.2804 32:31.746 33:64.8148 34:68.7831 35:51.5873 36:46.8798 37:28.9193 38:47.1842 39:71.5373 40:48.7062 
8 1:40.9894 2:12.9564 3:36.5135 4:63.6042 5:38.8693 6:41.5068 7:15.6361 8:44.7761 9:68.941 10:34.8259 11:46.0509 12:24.0964 13:47.5234 14:75.6359 15:42.1687 16:41.1546 17:16.7598 18:40.9683 19:55.4004 20:40.0372 21:41.6557 22:24.2184 23:39.1898 24:54.1612 25:44.0335 26:43.0391 27:19.7628 28:39.5257 29:69.8287 30:33.8164 31:48.545 32:33.0688 33:63.4921 34:70.1058 35:51.5873 36:46.7275 37:30.4414 38:47.1842 39:71.5373 40:47.1842 
0.28211970576394807 1:41.3428 2:13.5453 3:38.2803 4:63.6042 5:37.6914 6:41.72 7:16.3468 8:44.7761 9:67.5195 10:36.2473 11:45.7162 12:24.0964 13:47.5234 14:74.2972 15:39.4913 16:41.7132 17:18.1564 18:41.4339 19:57.7281 20:40.5028 21:41.5236 22:24.6587 23:38.3091 24:54.1612 25:42.7125 26:42.7756 27:19.7628 28:37.769 29:69.8287 30:33.8164 31:48.2804 32:29.1005 33:63.4921 34:68.7831 35:51.5873 36:46.8798 37:30.4414 38:44.14 39:71.5373 40:48.7062 
8 1:41.225 2:13.5453 3:37.6914 4:62.4264 5:37.6914 6:41.5778 7:16.3468 8:43.3547 9:67.5195 10:35.5366 11:45.5823 12:23.427 13:46.8541 14:74.2972 15:39.4913 16:41.7132 17:17.6909 18:41.4339 19:57.7281 20:40.5028 21:41.6116 22:24.6587 23:38.7494 24:54.6015 25:42.7125 26:42.9073 27:19.3237 28:37.3298 29:71.1462 30:33.8164 31:48.0159 32:27.7778 33:62.1693 34:66.1376 35:51.5873 36:47.032 37:30.4414 38:44.14 39:71.5373 40:48.7062 
8 1:41.1072 2:11.7786 3:37.6914 4:63.6042 5:36.5135 6:41.5068 7:17.0576 8:42.6439 9:66.0981 10:37.6688 11:45.8501 12:24.0964 13:46.8541 14:74.2972 15:41.4993 16:41.6201 17:17.6909 18:40.9683 19:57.7281 20:40.0372 21:41.4795 22:24.6587 23:36.9881 24:54.1612 25:43.5931 26:43.0519 27:20.2287 28:39.1381 29:72.1196 30:33.861 31:47.8836 32:29.1005 33:63.4921 34:68.7831 35:50.2646 36:46.7275 37:30.4414 38:45.6621 39:70.0152 40:47.1842 
8 1:41.1072 2:11.7786 3:37.6914 4:63.0153 5:36.5135 6:41.5068 7:17.0576 8:42.6439 9:66.0981 10:37.6688 11:45.8501 12:24.0964 13:46.8541 14:74.2972 15:41.4993 16:41.6201 17:17.6909 18:40.9683 19:57.7281 20:40.0372 21:41.5676 22:24.6587 23:37.4284 24:54.1612 25:44.0335 26:42.9952 27:20.202 28:39.0865 29:71.5854 30:33.8164 31:47.8836 32:29.1005 33:63.4921 34:68.7831 35:50.2646 36:46.5753 37:30.4414 38:45.6621 39:70.0152 40:47.1842 
8 1:41.6372 2:16.49 3:42.9918 4:56.5371 5:37.6914 6:43.5679 7:18.479 8:42.6439 9:71.7839 10:36.9581 11:47.5904 12:24.0964 13:48.1928 14:76.3052 15:36.1446 16:44.1341 17:25.1397 18:44.6927 19:61.9181 20:45.6238 21:43.2849 22:18.4941 23:39.1898 24:61.2065 25:43.1528 26:43.7418 27:21.0804 28:41.2824 29:66.7545 30:38.2082 31:50.2646 32:30.4233 33:68.7831 34:75.3968 35:46.2963 36:46.8116 37:30.4348 38:49.2754 39:65.2174 40:39.1304 
8 1:41.6963 2:17.2005 3:41.5184 4:56.9395 5:40.3321 6:43.5679 7:18.479 8:42.6439 9:71.7839 10:36.9581 11:47.5904 12:24.0964 13:48.1928 14:75.6359 15:36.1446 16:44.21 17:24.3788 18:44.5382 19:61.8847 20:46.4135 21:43.2849 22:18.0537 23:38.7494 24:62.0872 25:43.1528 26:43.7857 27:21.9587 28:41.7216 29:66.7545 30:37.3298 31:50.2646 32:30.4233 33:67.4603 34:75.3968 35:46.2963 36:46.5793 37:30.5677 38:49.4905 39:64.0466 40:39.3013 
8 1:41.755 2:17.0789 3:41.8139 4:57.126 5:40.636 6:43.5679 7:19.1898 8:42.6439 9:72.4947 10:35.5366 11:46.988 12:22.7577 13:46.1847 14:74.2972 15:35.4752 16:44.2272 17:24.2086 18:44.6927 19:62.8492 20:45.1583 21:43.0647 22:18.0537 23:39.1898 24:60.7662 25:41.3915 26:43.8296 27:22.3979 28:41.7216 29:66.7545 30:37.769 31:50.3968 32:29.1005 33:66.1376 34:76.7196 35:46.2963 36:47.1014 37:31.8841 38:50.7246 39:69.5652 40:40.5797 
8 1:41.4605 2:16.49 3:40.0471 4:57.126 5:39.4582 6:43.6389 7:19.9005 8:42.6439 9:73.2054 10:35.5366 11:46.921 12:22.7577 13:46.1847 14:72.2892 15:35.4752 16:44.1806 17:24.2086 18:44.6927 19:62.8492 20:45.1583 21:43.2409 22:18.4941 23:39.6301 24:61.6469 25:41.8318 26:43.8735 27:22.3979 28:42.1607 29:66.7545 30:37.769 31:50.2646 32:29.1005 33:64.8148 34:76.7196 35:46.2963 36:47.1014 37:31.8841 38:50.7246 39:69.5652 40:40.5797 
8 1:41.6372 2:17.0789 3:40.636 4:57.126 5:41.225 6:43.6389 7:19.9005 8:42.6439 9:73.2054 10:35.5366 11:46.921 12:22.7577 13:46.1847 14:72.2892 15:35.4752 16:44.1806 17:24.2086 18:44.6927 19:62.8492 20:45.1583 21:43.1968 22:18.0537 23:39.6301 24:61.2065 25:41.8318 26:43.8735 27:22.3979 28:42.1607 29:66.7545 30:37.769 31:50.2646 32:29.1005 33:64.8148 34:76.7196 35:46.2963 36:47.1014 37:31.8841 38:50.7246 39:69.5652 40:40.5797 
8 1:41.5194 2:17.0789 3:40.636 4:56.5371 5:40.0471 6:43.5679 7:19.1898 8:42.6439 9:72.4947 10:35.5366 11:47.1218 12:22.0884 13:45.5154 14:74.9665 15:34.8059 16:44.1806 17:24.2086 18:44.6927 19:62.8492 20:45.1583 21:43.2409 22:18.4941 23:39.6301 24:61.6469 25:41.8318 26:43.8296 27:22.3979 28:42.1607 29:66.7545 30:37.769 31:50.2646 32:29.1005 33:64.8148 34:76.7196 35:46.2963 36:47.1014 37:31.8841 38:50.7246 39:69.5652 40:40.5797 
8 1:41.5194 2:17.0789 3:40.636 4:56.5371 5:40.0471 6:43.5679 7:19.1898 8:42.6439 9:72.4947 10:35.5366 11:47.0549 12:22.7577 13:46.1847 14:73.6278 15:35.4752 16:44.1806 17:24.2086 18:44.6927 19:62.8492 20:45.1583 21:43.1968 22:18.0537 23:39.6301 24:61.2065 25:41.8318 26:43.8735 27:22.3979 28:42.1607 29:66.7545 30:37.769 31:50.2646 32:29.1005 33:64.8148 34:76.7196 35:46.2963 36:47.1014 37:31.8841 38:50.7246 39:69.5652 40:40.5797 
8 1:41.8728 2:16.49 3:42.9918 4:57.126 5:40.0471 6:43.5679 7:19.1898 8:42.6439 9:72.4947 10:35.5366 11:47.1218 12:22.0884 13:45.5154 14:74.9665 15:34.8059 16:44.46 17:25.1397 18:45.1583 19:63.3147 20:45.1583 21:43.0647 22:17.6134 23:40.5108 24:60.7662 25:41.8318 26:43.7857 27:22.3979 28:41.7216 29:66.7545 30:37.769 31:50.3968 32:29.1005 33:66.1376 34:76.7196 35:46.2963 36:47.1014 37:31.8841 38:52.1739 39:71.0145 40:39.1304 
8 1:41.8728 2:16.49 3:42.9918 4:57.126 5:40.0471 6:43.5679 7:19.1898 8:42.6439 9:72.4947 10:35.5366 11:47.1218 12:22.0884 13:45.5154 14:74.9665 15:34.8059 16:44.3669 17:25.1397 18:44.6927 19:62.8492 20:45.1583 21:42.9326 22:17.1731 23:40.9511 24:60.7662 25:41.3915 26:43.7857 27:22.3979 28:41.7216 29:66.7545 30:37.769 31:50.3968 32:29.1005 33:66.1376 34:76.7196 35:46.2963 36:47.1014 37:31.8841 38:52.1739 39:71.0145 40:39.1304 
8 1:41.5194 2:16.49 3:41.8139 4:53.5925 5:42.9918 6:43.0912 7:19.2308 8:42.0228 9:71.9373 10:36.3248 11:47.2557 12:23.427 13:48.8621 14:74.9665 15:36.8139 16:43.8082 17:22.3464 18:45.1583 19:63.7803 20:43.7616 21:43.3289 22:18.0537 23:42.7125 24:63.8485 25:41.3915 26:43.61 27:20.202 28:41.7216 29:66.7545 30:36.0123 31:49.7354 32:30.4233 33:63.4921 34:72.7513 35:48.9418 36:46.9298 37:30.7018 38:51.1696 39:68.7135 40:42.3977 
8 1:41.5783 2:16.49 3:40.636 4:57.126 5:41.225 6:42.5729 7:17.7683 8:41.9332 9:69.6517 10:34.1151 11:46.7871 12:22.7577 13:47.5234 14:72.9585 15:34.1365 16:44.2272 17:24.6741 18:45.1583 19:61.9181 20:45.6238 21:43.2409 22:18.4941 23:39.1898 24:64.7292 25:40.9511 26:43.6539 27:20.6412 28:40.404 29:67.6329 30:35.5731 31:50.1323 32:30.4233 33:64.8148 34:72.7513 35:46.2963 36:46.2319 37:28.9855 38:52.1739 39:69.5652 40:40.5797 
8 1:41.5783 2:15.9011 3:41.225 4:57.126 5:41.8139 6:42.5729 7:17.7683 8:42.6439 9:70.3625 10:34.1151 11:46.8541 12:22.7577 13:47.5234 14:73.6278 15:34.1365 16:44.1341 17:24.6741 18:45.1583 19:61.4525 20:45.6238 21:43.2409 22:18.4941 23:39.1898 24:64.7292 25:40.9511 26:43.61 27:20.6412 28:40.8432 29:67.6329 30:35.5731 31:50.2646 32:30.4233 33:64.8148 34:72.7513 35:47.619 36:46.2319 37:28.9855 38:52.1739 39:69.5652 40:40.5797 
8 1:40.4005 2:16.49 3:37.6914 4:56.5371 5:42.4028 6:42.2175 7:19.1898 8:44.0654 9:67.5195 10:39.0903 11:46.3186 12:24.0964 13:46.8541 14:72.2892 15:34.1365 16:43.3892 17:21.8808 18:42.365 19:64.2458 20:44.6927 21:42.9767 22:19.3747 23:38.3091 24:62.9679 25:43.5931 26:43.5222 27:20.202 28:41.7216 29:72.0246 30:36.4515 31:48.1481 32:26.455 33:59.5238 34:67.4603 35:47.619 36:44.6377 37:24.6377 38:44.9275 39:65.2174 40:34.7826 
8 1:40.636 2:17.0789 3:36.5135 4:55.3592 5:35.3357 6:42.0043 7:18.479 8:36.2473 9:68.2303 10:37.6688 11:47.1218 12:24.7657 13:48.8621 14:76.3052 15:36.1446 16:43.4823 17:19.0875 18:41.4339 19:64.2458 20:47.0205 21:42.096 22:17.1731 23:39.6301 24:60.7662 25:36.9881 26:43.1269 27:21.0804 28:41.2824 29:67.1937 30:35.1339 31:48.9418 32:27.7778 33:60.8466 34:68.7831 35:47.619 36:45.0725 37:24.6377 38:47.8261 39:62.3188 40:37.6812 
8 1:41.755 2:16.49 3:42.4028 4:56.5371 5:40.0471 6:43.4473 7:19.2308 8:42.0228 9:71.9373 10:35.6125 11:47.1218 12:23.427 13:46.8541 14:72.2892 15:35.4752 16:44.3669 17:25.1397 18:45.1583 19:63.3147 20:44.6927 21:43.2409 22:18.9344 23:39.6301 24:60.7662 25:41.3915 26:44.0492 27:21.5195 28:42.5999 29:68.072 30:38.2082 31:50.5291 32:29.1005 33:66.1376 34:76.7196 35:46.2963 36:47.076 37:32.1637 38:49.7076 39:68.7135 40:42.3977 
8 1:40.2238 2:14.7232 3:38.2803 4:51.8257 5:42.4028 6:42.5018 7:16.3468 8:39.0903 9:65.3873 10:40.5117 11:45.7831 12:26.1044 13:46.8541 14:72.2892 15:39.4913 16:43.2495 17:24.6741 18:45.1583 19:63.7803 20:41.4339 21:41.9199 22:16.7327 23:38.7494 24:60.3258 25:42.7125 26:42.7756 27:20.202 28:40.404 29:62.3628 30:39.9649 31:48.2804 32:27.7778 33:60.8466 34:75.3968 35:44.9735 36:43.6232 37:21.7391 38:46.3768 39:53.6232 40:36.2319 
4.0088187178482029 1:41.0483 2:15.3121 3:40.0471 4:61.8375 5:45.3475 6:41.2935 7:16.3468 8:38.3795 9:67.5195 10:39.0903 11:45.8501 12:22.0884 13:44.1767 14:72.2892 15:37.4833 16:43.2495 17:21.8808 18:43.2961 19:58.1937 20:45.1583 21:42.92 22:17.1504 23:40.4573 24:64.6438 25:44.8549 26:43.1708 27:18.8845 28:39.9649 29:66.3153 30:36.4515 31:48.8095 32:29.1005 33:62.1693 34:66.1376 35:51.5873 36:45.3623 37:26.087 38:49.2754 39:63.7681 40:36.2319 
0.74007505463808987 1:41.0483 2:15.3121 3:40.0471 4:61.8375 5:45.3475 6:41.2935 7:16.3468 8:38.3795 9:67.5195 10:39.0903 11:45.8501 12:22.0884 13:44.1767 14:72.2892 15:37.4833 16:43.2495 17:21.8808 18:43.2961 19:58.1937 20:45.1583 21:42.92 22:17.1504 23:40.4573 24:64.6438 25:44.8549 26:43.1708 27:18.8845 28:39.9649 29:66.3153 30:36.4515 31:48.8095 32:29.1005 33:62.1693 34:66.1376 35:51.5873 36:45.3623 37:26.087 38:49.2754 39:63.7681 40:36.2319 
8 1:40.9305 2:14.7232 3:42.4028 4:58.8928 5:41.8139 6:42.8571 7:17.0576 8:39.801 9:71.0732 10:36.9581 11:45.8501 12:22.7577 13:42.838 14:71.6198 15:36.8139 16:43.622 17:22.8119 18:44.6927 19:61.9181 20:43.2961 21:42.8886 22:16.2924 23:40.5108 24:64.2889 25:44.9141 26:43.1708 27:17.567 28:40.8432 29:68.072 30:36.8906 31:49.0741 32:27.7778 33:63.4921 34:68.7831 35:50.2646 36:45.0725 37:26.087 38:47.8261 39:62.3188 40:34.7826 
8 1:40.354 2:11.7994 3:39.528 4:54.8673 5:39.528 6:42.715 7:18.479 8:41.2225 9:71.7839 10:41.2225 11:45.5823 12:22.7577 13:45.5154 14:69.6118 15:34.8059 16:42.3184 17:20.9497 18:38.6406 19:57.7281 20:43.7616 21:42.4483 22:18.4941 23:35.6671 24:63.4082 25:40.5108 26:43.7857 27:21.0804 28:38.2082 29:67.6329 30:39.5257 31:49.2063 32:29.1005 33:64.8148 34:66.1376 35:47.619 36:44.9275 37:26.087 38:50.7246 39:60.8696 40:42.029 
8 1:40.5771 2:12.9564 3:40.0471 4:59.4817 5:40.0471 6:43.2125 7:16.3468 8:39.0903 9:70.3625 10:40.5117 11:45.0469 12:22.0884 13:42.838 14:68.2731 15:34.8059 16:42.5512 17:24.2086 18:42.8305 19:62.3836 20:38.175 21:42.6684 22:18.9344 23:40.5108 24:60.3258 25:43.5931 26:42.8195 27:18.4453 28:40.8432 29:62.8019 30:38.6473 31:49.6032 32:30.4233 33:63.4921 34:74.0741 35:51.5873 36:45.942 37:28.9855 38:55.0725 39:62.3188 40:37.6812 
8 1:40.5771 2:13.5453 3:40.636 4:53.0035 5:44.1696 6:40.9382 7:14.2146 8:37.6688 9:66.0981 10:39.0903 11:44.6452 12:22.7577 13:44.1767 14:62.9183 15:37.4833 16:42.8305 17:20.9497 18:40.5028 19:64.2458 20:46.5549 21:41.9639 22:17.1731 23:39.6301 24:63.8485 25:41.8318 26:43.4783 27:18.8845 28:36.8906 29:69.3895 30:36.8906 31:47.7513 32:25.1323 33:60.8466 34:67.4603 35:43.6508 36:44.3932 37:23.0415 38:39.9386 39:69.1244 40:39.9386 
8 1:40.636 2:12.9564 3:42.9918 4:53.0035 5:41.8139 6:42.4307 7:18.479 8:38.3795 9:66.8088 10:38.3795 11:44.913 12:20.7497 13:43.5074 14:66.9344 15:34.8059 16:42.9702 17:23.2775 18:43.7616 19:62.3836 20:41.8994 21:42.7125 22:18.0537 23:40.9511 24:63.4082 25:41.8318 26:42.4242 27:17.567 28:39.5257 29:61.4844 30:37.3298 31:48.9418 32:26.455 33:64.8148 34:68.7831 35:50.2646 36:43.9324 37:23.0415 38:44.5469 39:58.3717 40:38.4025 
8 1:40.9305 2:13.5453 3:41.225 4:57.126 5:41.225 6:42.4307 7:18.479 8:36.9581 9:70.3625 10:39.0903 11:44.9799 12:22.7577 13:42.838 14:62.9183 15:36.1446 16:43.203 17:23.743 18:42.365 19:60.987 20:42.365 21:42.3602 22:17.1731 23:37.4284 24:64.2889 25:44.0335 26:43.083 27:17.567 28:39.0865 29:68.5112 30:38.6473 31:48.1481 32:27.7778 33:58.2011 34:66.1376 35:51.5873 36:44.7826 37:27.5362 38:50.7246 39:66.6667 40:33.3333 
8 1:40.8716 2:14.1343 3:44.1696 4:57.126 5:41.8139 6:42.7861 7:20.6112 8:41.2225 9:68.2303 10:37.6688 11:44.9799 12:20.0803 13:44.1767 14:63.5877 15:36.1446 16:42.5978 17:24.6741 18:43.2961 19:60.0559 20:40.9683 21:42.5804 22:19.3747 23:40.0705 24:63.8485 25:43.1528 26:42.3364 27:18.0061 28:40.404 29:61.4844 30:38.2082 31:48.4127 32:27.7778 33:62.1693 34:68.7831 35:46.2963 36:43.6252 37:23.0415 38:41.4747 39:58.3717 40:38.4025 
8 1:40.636 2:14.1343 3:42.4028 4:54.7703 5:39.4582 6:42.7861 7:17.7683 8:39.0903 9:68.941 10:38.3795 11:45.1138 12:20.0803 13:44.8461 14:63.5877 15:36.8139 16:42.8771 17:25.1397 18:42.365 19:63.7803 20:40.0372 21:42.6244 22:18.0537 23:40.0705 24:65.1695 25:43.1528 26:42.6877 27:19.7628 28:40.404 29:63.6803 30:37.769 31:48.6772 32:27.7778 33:64.8148 34:67.4603 35:48.9418 36:43.7788 37:21.5054 38:43.0108 39:56.8356 40:39.9386 
8 1:40.5183 2:12.9564 3:41.225 4:55.9482 5:40.0471 6:42.1464 7:16.3468 8:35.5366 9:64.6766 10:39.801 11:45.3815 12:22.0884 13:45.5154 14:65.5957 15:38.1526 16:42.1322 17:22.3464 18:37.7095 19:62.3836 20:38.6406 21:41.6997 22:15.852 23:38.7494 24:63.8485 25:39.6301 26:42.2925 27:18.0061 28:38.6473 29:60.6061 30:41.2824 31:47.4868 32:30.4233 33:63.4921 34:67.4603 35:46.2963 36:44.086 37:21.5054 38:41.4747 39:59.9078 40:44.5469 
8 1:40.0471 2:11.7786 3:39.4582 4:54.7703 5:36.5135 6:42.715 7:14.9254 8:39.801 9:70.3625 10:40.5117 11:44.9799 12:22.7577 13:44.8461 14:64.257 15:35.4752 16:42.1322 17:22.3464 18:41.8994 19:60.0559 20:39.5717 21:42.2281 22:15.852 23:39.6301 24:61.6469 25:41.8318 26:42.4682 27:17.1278 28:39.9649 29:62.3628 30:35.1339 31:48.9418 32:33.0688 33:63.4921 34:74.0741 35:48.9418 36:43.4716 37:21.5054 38:44.5469 39:56.8356 40:38.4025 
8 1:40.2827 2:13.5453 3:40.636 4:58.3039 5:38.2803 6:42.2886 7:17.0576 8:39.0903 9:68.941 10:39.801 11:45.0469 12:22.0884 13:45.5154 14:62.9183 15:35.4752 16:42.5978 17:22.8119 18:42.8305 19:62.8492 20:40.5028 21:42.5363 22:18.9344 23:39.1898 24:61.6469 25:43.5931 26:42.4682 27:16.6886 28:38.2082 29:62.8019 30:37.3298 31:49.2063 32:34.3915 33:66.1376 34:72.7513 35:48.9418 36:43.7788 37:23.0415 38:44.5469 39:62.98 40:39.9386 
8 1:39.6938 2:14.7232 3:40.0471 4:55.9482 5:36.5135 6:43.2836 7:17.0576 8:39.0903 9:68.941 10:43.3547 11:44.9799 12:22.0884 13:44.8461 14:64.9264 15:34.1365 16:42.365 17:23.2775 18:41.8994 19:60.0559 20:41.4339 21:42.1841 22:16.2924 23:39.1898 24:60.3258 25:43.1528 26:41.8972 27:15.8103 28:37.769 29:59.7277 30:36.0123 31:49.0741 32:31.746 33:64.8148 34:72.7513 35:48.9418 36:44.086 37:21.5054 38:43.0108 39:61.4439 40:41.4747 
8 1:39.7527 2:15.3121 3:39.4582 4:55.9482 5:36.5135 6:43.2125 7:17.7683 8:39.801 9:69.6517 10:41.2225 11:45.0469 12:21.419 13:44.8461 14:64.9264 15:35.4752 16:42.1788 17:22.3464 18:41.8994 19:59.5903 20:41.4339 21:42.2281 22:16.2924 23:39.1898 24:61.2065 25:43.1528 26:41.8094 27:15.3711 28:38.2082 29:59.2885 30:35.5731 31:48.6772 32:30.4233 33:64.8148 34:72.7513 35:47.619 36:43.6252 37:21.5054 38:43.0108 39:59.9078 40:39.9386 
8 1:39.7527 2:14.7232 3:40.0471 4:56.5371 5:36.5135 6:43.2125 7:17.0576 8:39.0903 9:68.941 10:43.3547 11:44.913 12:22.0884 13:44.8461 14:64.9264 15:34.1365 16:42.2719 17:22.8119 18:41.8994 19:59.5903 20:41.4339 21:42.3162 22:16.2924 23:39.6301 24:61.2065 25:43.1528 26:41.7655 27:15.8103 28:36.8906 29:59.2885 30:36.0123 31:49.0741 32:31.746 33:64.8148 34:72.7513 35:48.9418 36:44.086 37:21.5054 38:44.5469 39:61.4439 40:41.4747 
8 1:39.7527 2:13.5453 3:41.225 4:55.9482 5:35.9246 6:43.3547 7:17.0576 8:39.0903 9:69.6517 10:43.3547 11:45.2477 12:22.7577 13:45.5154 14:64.9264 15:34.8059 16:42.3184 17:22.8119 18:41.8994 19:60.987 20:41.4339 21:42.2721 22:16.2924 23:39.6301 24:60.7662 25:43.1528 26:41.7655 27:15.8103 28:36.8906 29:59.7277 30:35.5731 31:48.9418 32:31.746 33:64.8148 34:71.4286 35:48.9418 36:44.086 37:21.5054 38:43.0108 39:62.98 40:41.4747 
8 1:39.8704 2:14.1343 3:40.0471 4:57.126 5:35.9246 6:43.2125 7:17.0576 8:38.3795 9:70.3625 10:43.3547 11:44.9799 12:22.0884 13:45.5154 14:64.9264 15:33.4672 16:42.365 17:21.8808 18:41.8994 19:61.9181 20:41.4339 21:42.2721 22:16.2924 23:39.1898 24:61.6469 25:43.5931 26:41.8533 27:14.9319 28:38.2082 29:59.2885 30:36.4515 31:48.9418 32:30.4233 33:63.4921 34:72.7513 35:47.619 36:43.6252 37:16.8971 38:41.4747 39:59.9078 40:43.0108 
8 1:39.6349 2:14.7232 3:40.0471 4:56.5371 5:35.9246 6:43.1414 7:17.0576 8:39.0903 9:69.6517 10:42.6439 11:44.7791 12:22.0884 13:44.1767 14:64.9264 15:32.7979 16:42.365 17:22.3464 18:42.8305 19:61.9181 20:41.4339 21:42.0079 22:15.852 23:38.3091 24:61.2065 25:42.2721 26:41.7655 27:15.3711 28:36.4515 29:60.1669 30:34.6948 31:48.4127 32:31.746 33:63.4921 34:71.4286 35:44.9735 36:44.086 37:21.5054 38:43.0108 39:62.98 40:41.4747 
8 1:39.9293 2:14.7232 3:40.0471 4:56.5371 5:36.5135 6:43.3547 7:17.0576 8:39.0903 9:70.3625 10:43.3547 11:44.9799 12:22.0884 13:44.8461 14:64.9264 15:34.1365 16:42.5047 17:22.8119 18:41.8994 19:61.9181 20:41.4339 21:42.3162 22:16.2924 23:39.1898 24:61.2065 25:43.1528 26:41.7216 27:15.8103 28:37.3298 29:58.4102 30:36.0123 31:49.2063 32:31.746 33:64.8148 34:72.7513 35:48.9418 36:44.086 37:21.5054 38:43.0108 39:61.4439 40:41.4747 
8 1:39.9882 2:14.1343 3:40.0471 4:57.126 5:37.1025 6:43.4968 7:17.0576 8:38.3795 9:71.0732 10:43.3547 11:44.7791 12:20.7497 13:44.8461 14:65.5957 15:33.4672 16:42.5047 17:24.2086 18:42.365 19:61.4525 20:41.8994 21:42.3162 22:16.2924 23:39.6301 24:60.7662 25:42.7125 26:41.9851 27:16.2495 28:38.6473 29:59.7277 30:36.0123 31:49.3386 32:31.746 33:64.8148 34:71.4286 35:50.2646 36:43.7788 37:21.5054 38:41.4747 39:62.98 40:39.9386 
8 1:39.9293 2:14.7232 3:40.0471 4:56.5371 5:36.5135 6:43.2836 7:16.3468 8:39.0903 9:70.3625 10:41.9332 11:44.9799 12:22.0884 13:44.8461 14:64.9264 15:34.1365 16:42.4919 17:22.7801 18:41.841 19:62.2966 20:41.3761 21:42.2399 22:16.7549 23:39.2416 24:59.9647 25:43.6508 26:41.9412 27:15.8103 28:38.2082 29:59.2885 30:37.3298 31:49.0741 32:31.746 33:64.8148 34:74.0741 35:47.619 36:43.7788 37:21.5054 38:43.0108 39:61.4439 40:39.9386 
8 1:39.9293 2:15.3121 3:39.4582 4:57.126 5:35.9246 6:42.7861 7:17.0576 8:36.2473 9:68.941 10:44.7761 11:45.2477 12:23.427 13:46.1847 14:64.9264 15:35.4752 16:42.3184 17:21.8808 18:40.9683 19:61.9181 20:41.4339 21:42.096 22:15.852 23:39.1898 24:60.7662 25:43.1528 26:41.8533 27:15.8103 28:37.3298 29:59.2885 30:36.0123 31:49.0741 32:31.746 33:64.8148 34:70.1058 35:48.9418 36:44.086 37:21.5054 38:43.0108 39:61.4439 40:43.0108 
5.1462012815253555 1:40.5183 2:12.3675 3:40.636 4:58.8928 5:44.1696 6:42.9282 7:15.6361 8:39.801 9:68.2303 10:40.5117 11:44.5114 12:21.419 13:44.8461 14:61.5797 15:34.8059 16:42.4581 17:22.8119 18:42.365 19:59.5903 20:40.9683 21:42.2721 22:18.0537 23:38.3091 24:63.8485 25:42.2721 26:42.2925 27:18.4453 28:39.5257 29:62.3628 30:36.8906 31:48.9418 32:29.1005 33:62.1693 34:66.1376 35:47.619 36:43.4716 37:23.0415 38:43.0108 39:58.3717 40:41.4747 
8 1:41.8728 2:20.6125 3:42.9918 4:61.2485 5:41.8139 6:42.8571 7:17.0576 8:41.2225 9:70.3625 10:42.6439 11:45.1138 12:24.0964 13:48.8621 14:69.6118 15:36.8139 16:44.0875 17:22.3464 18:45.1583 19:61.4525 20:45.1583 21:42.6244 22:16.7327 23:37.4284 24:61.6469 25:48.8771 26:44.664 27:20.202 28:43.9174 29:69.3895 30:39.0865 31:48.0159 32:25.1323 33:63.4921 34:67.4603 35:43.6508 36:45.9665 37:31.9635 38:41.0959 39:65.449 40:50.2283 
8 1:41.225 2:19.4346 3:40.0471 4:60.0707 5:41.8139 6:42.715 7:16.3468 8:42.6439 9:68.2303 10:42.6439 11:45.0469 12:22.0884 13:48.1928 14:69.6118 15:40.83 16:43.1099 17:20.0186 18:43.7616 19:57.2626 20:43.7616 21:42.6684 22:17.1731 23:37.4284 24:62.0872 25:47.9965 26:44.2249 27:17.567 28:45.235 29:68.5112 30:37.769 31:48.0159 32:31.746 33:59.5238 34:72.7513 35:46.2963 36:45.3577 37:28.9193 38:38.0518 39:70.0152 40:48.7062 
8 1:41.8728 2:20.6125 3:42.9918 4:61.2485 5:41.8139 6:42.8571 7:17.0576 8:41.2225 9:68.941 10:42.6439 11:45.5154 12:24.0964 13:49.5315 14:70.9505 15:42.1687 16:43.5754 17:21.8808 18:45.1583 19:57.7281 20:44.6927 21:42.5363 22:16.2924 23:37.4284 24:60.7662 25:48.4368 26:44.7958 27:18.4453 28:44.7958 29:71.5854 30:38.6473 31:48.1481 32:29.1005 33:58.2011 34:74.0741 35:47.619 36:45.8143 37:31.9635 38:41.0959 39:66.9711 40:50.2283 
8 1:41.9317 2:20.6125 3:43.5807 4:61.2485 5:41.225 6:42.715 7:17.0576 8:41.2225 9:70.3625 10:42.6439 11:45.5154 12:23.427 13:49.5315 14:70.9505 15:42.1687 16:43.4358 17:21.4153 18:44.6927 19:56.797 20:45.1583 21:42.5804 22:16.7327 23:37.8688 24:61.6469 25:48.4368 26:44.7519 27:18.4453 28:45.235 29:71.5854 30:38.2082 31:48.1481 32:30.4233 33:58.2011 34:74.0741 35:47.619 36:45.8143 37:31.9635 38:41.0959 39:66.9711 40:50.2283 
8 1:41.5783 2:21.7903 3:42.4028 4:60.0707 5:40.636 6:42.6439 7:15.6361 8:39.801 9:70.3625 10:41.9332 11:45.1138 12:24.7657 13:48.1928 14:71.6198 15:36.1446 16:43.9479 17:21.4153 18:45.6238 19:61.4525 20:46.0894 21:42.2721 22:16.2924 23:37.4284 24:59.8855 25:48.4368 26:44.4005 27:19.3237 28:42.5999 29:70.7071 30:39.0865 31:48.0159 32:25.1323 33:63.4921 34:68.7831 35:43.6508 36:45.8143 37:31.9635 38:41.0959 39:68.4932 40:47.1842 
8 1:41.6372 2:21.7903 3:42.4028 4:60.0707 5:40.636 6:42.5729 7:14.9254 8:39.801 9:70.3625 10:41.9332 11:45.1138 12:24.7657 13:48.1928 14:71.6198 15:36.1446 16:43.9013 17:21.4153 18:45.6238 19:61.4525 20:46.0894 21:42.2721 22:16.2924 23:37.4284 24:59.8855 25:48.4368 26:44.4444 27:19.7628 28:43.0391 29:70.7071 30:39.0865 31:48.0159 32:25.1323 33:63.4921 34:68.7831 35:43.6508 36:45.8143 37:31.9635 38:41.0959 39:68.4932 40:47.1842 
8 1:41.6372 2:21.7903 3:45.3475 4:60.6596 5:40.636 6:42.9282 7:15.6361 8:43.3547 9:65.3873 10:44.0654 11:44.9799 12:24.7657 13:47.5234 14:70.2811 15:36.8139 16:43.6685 17:21.8808 18:42.8305 19:61.4525 20:43.7616 21:42.8886 22:17.1731 23:37.4284 24:61.6469 25:50.1982 26:44.4005 27:20.202 28:43.0391 29:67.6329 30:38.2082 31:46.8254 32:25.1323 33:63.4921 34:62.1693 35:43.6508 36:45.3623 37:31.8841 38:40.5797 39:68.1159 40:46.3768 
8 1:42.4028 2:20.6125 3:44.1696 4:61.2485 5:45.9364 6:42.715 7:15.6361 8:40.5117 9:68.941 10:44.0654 11:45.5154 12:24.0964 13:50.2008 14:70.2811 15:42.1687 16:43.5289 17:21.4153 18:44.6927 19:56.797 20:44.6927 21:42.4923 22:17.1731 23:37.8688 24:61.2065 25:46.6755 26:44.8397 27:18.8845 28:44.7958 29:72.4638 30:39.0865 31:48.2804 32:30.4233 33:58.2011 34:72.7513 35:47.619 36:45.8143 37:31.9635 38:41.0959 39:66.9711 40:50.2283 
0.76753071304887022 1:42.1673 2:19.4346 3:42.4028 4:63.6042 5:42.9918 6:42.3596 7:17.0576 8:40.5117 9:68.941 10:41.2225 11:45.5823 12:24.0964 13:48.1928 14:71.6198 15:40.1606 16:43.6685 17:22.8119 18:44.6927 19:55.8659 20:44.6927 21:42.052 22:17.1731 23:37.8688 24:58.1242 25:46.6755 26:44.7079 27:18.4453 28:43.9174 29:71.1462 30:40.404 31:48.6772 32:29.1005 33:58.2011 34:74.0741 35:47.619 36:45.5099 37:31.9635 38:42.618 39:63.9269 40:48.7062 
2.9580920295780668 1:42.2261 2:21.2014 3:45.3475 4:61.8375 5:43.5807 6:42.1464 7:17.7683 8:41.9332 9:68.2303 10:41.9332 11:45.917 12:25.4351 13:48.1928 14:68.9424 15:42.1687 16:43.2961 17:22.8119 18:41.8994 19:56.3315 20:44.2272 21:42.3602 22:16.7327 23:36.9881 24:62.0872 25:46.2351 26:44.7079 27:19.3237 28:43.9174 29:72.0246 30:39.0865 31:47.8836 32:27.7778 33:56.8783 34:74.0741 35:47.619 36:45.5099 37:30.4414 38:39.5738 39:71.5373 40:50.2283 
8 1:42.1084 2:19.4346 3:47.1143 4:64.7821 5:41.8139 6:43.0704 7:20.6112 8:44.7761 9:69.6517 10:39.801 11:45.2477 12:22.7577 13:49.5315 14:70.9505 15:39.4913 16:43.2495 17:23.2775 18:44.2272 19:56.797 20:47.0205 21:42.7125 22:18.0537 23:40.0705 24:60.7662 25:49.3175 26:44.9715 27:18.0061 28:47.4308 29:72.9029 30:42.1607 31:48.1481 32:30.4233 33:60.8466 34:70.1058 35:47.619 36:45.9665 37:31.9635 38:42.618 39:63.9269 40:48.7062 
8 1:42.4617 2:20.6125 3:46.5253 4:65.371 5:41.225 6:42.5729 7:18.479 8:42.6439 9:68.2303 10:39.801 11:46.0509 12:25.4351 13:49.5315 14:72.2892 15:40.83 16:43.5289 17:20.4842 18:44.2272 19:57.2626 20:45.6238 21:42.5804 22:15.852 23:38.7494 24:60.7662 25:49.3175 26:44.9715 27:17.567 28:46.9917 29:73.7813 30:39.5257 31:48.6772 32:31.746 33:59.5238 34:74.0741 35:48.9418 36:46.1187 37:33.4855 38:42.618 39:66.9711 40:47.1842 
8 1:42.4028 2:19.4346 3:45.9364 4:65.96 5:42.9918 6:42.9282 7:18.479 8:42.6439 9:68.941 10:40.5117 11:45.7831 12:25.4351 13:50.2008 14:70.9505 15:40.1606 16:43.8082 17:21.8808 18:45.1583 19:57.7281 20:46.0894 21:42.5804 22:16.7327 23:38.7494 24:60.7662 25:48.4368 26:45.1032 27:18.0061 28:47.4308 29:73.3421 30:40.404 31:48.545 32:31.746 33:59.5238 34:72.7513 35:48.9418 36:45.3577 37:31.9635 38:39.5738 39:62.4049 40:48.7062 
0.025663851497230564 1:42.285 2:18.2568 3:44.7585 4:67.1378 5:43.5807 6:42.7861 7:18.479 8:43.3547 9:70.3625 10:40.5117 11:45.6493 12:25.4351 13:50.2008 14:71.6198 15:40.1606 16:43.8082 17:21.8808 18:44.6927 19:59.5903 20:45.6238 21:42.3162 22:16.7327 23:38.3091 24:59.4452 25:48.4368 26:45.1032 27:18.8845 28:46.9917 29:73.3421 30:40.8432 31:48.6772 32:31.746 33:59.5238 34:74.0741 35:48.9418 36:45.8143 37:33.4855 38:41.0959 39:62.4049 40:48.7062 
8 1:42.3439 2:18.2568 3:45.3475 4:67.1378 5:43.5807 6:42.8571 7:18.479 8:42.6439 9:69.6517 10:40.5117 11:45.6493 12:25.4351 13:50.2008 14:71.6198 15:40.1606 16:43.9013 17:22.3464 18:44.6927 19:59.5903 20:45.6238 21:42.4483 22:16.2924 23:38.7494 24:59.4452 25:47.9965 26:45.1471 27:18.4453 28:46.9917 29:74.2205 30:39.9649 31:48.6772 32:31.746 33:59.5238 34:74.0741 35:48.9418 36:45.8143 37:33.4855 38:41.0959 39:62.4049 40:48.7062 
8 1:42.4028 2:20.6125 3:45.9364 4:64.1932 5:42.9918 6:42.8571 7:17.7683 8:42.6439 9:71.0732 10:38.3795 11:45.3815 12:22.0884 13:47.5234 14:69.6118 15:44.8461 16:44.879 17:24.6741 18:47.9516 19:60.0559 20:47.0205 21:42.6244 22:16.2924 23:38.3091 24:59.0048 25:49.7578 26:44.9715 27:21.0804 28:41.7216 29:70.7071 30:42.5999 31:48.1481 32:26.455 33:63.4921 34:67.4603 35:42.328 36:46.1187 37:31.9635 38:36.5297 39:70.0152 40:48.7062 
1.411274450640247 1:42.2261 2:21.2014 3:46.5253 4:63.6042 5:42.9918 6:42.5018 7:19.9005 8:43.3547 9:67.5195 10:38.3795 11:45.8501 12:23.427 13:50.2008 14:71.6198 15:41.4993 16:43.9013 17:22.3464 18:45.1583 19:58.1937 20:45.1583 21:42.4923 22:16.2924 23:38.7494 24:59.8855 25:47.9965 26:45.191 27:18.4453 28:47.87 29:73.3421 30:42.5999 31:48.0159 32:29.1005 33:59.5238 34:72.7513 35:47.619 36:45.5099 37:30.4414 38:41.0959 39:60.8828 40:50.2283 
8 1:42.2261 2:21.2014 3:46.5253 4:63.6042 5:42.9918 6:42.5018 7:19.9005 8:43.3547 9:67.5195 10:38.3795 11:45.8501 12:23.427 13:50.2008 14:70.9505 15:41.4993 16:43.8547 17:22.3464 18:45.1583 19:58.1937 20:45.1583 21:42.4483 22:16.2924 23:38.7494 24:59.8855 25:47.5561 26:45.191 27:18.4453 28:47.87 29:72.9029 30:42.5999 31:48.0159 32:29.1005 33:59.5238 34:72.7513 35:47.619 36:45.5099 37:30.4414 38:41.0959 39:60.8828 40:50.2283 
8 1:42.1673 2:20.6125 3:46.5253 4:63.6042 5:42.9918 6:42.5018 7:19.9005 8:43.3547 9:67.5195 10:38.3795 11:45.9839 12:23.427 13:50.2008 14:72.2892 15:41.4993 16:43.9479 17:22.3464 18:45.1583 19:58.1937 20:45.1583 21:42.4923 22:16.2924 23:38.7494 24:59.8855 25:47.9965 26:45.235 27:18.4453 28:47.87 29:73.3421 30:42.5999 31:48.0159 32:29.1005 33:59.5238 34:72.7513 35:47.619 36:45.5099 37:30.4414 38:41.0959 39:60.8828 40:50.2283 
8 1:42.285 2:17.6678 3:43.5807 4:63.6042 5:42.4028 6:42.6439 7:15.6361 8:42.6439 9:64.6766 10:39.801 11:45.3815 12:26.1044 13:46.8541 14:70.9505 15:44.1767 16:44.1806 17:22.8119 18:47.0205 19:57.7281 20:46.5549 21:42.4042 22:15.4117 23:37.8688 24:59.0048 25:47.9965 26:44.8836 27:21.9587 28:43.0391 29:69.8287 30:39.0865 31:48.4127 32:31.746 33:56.8783 34:74.0741 35:46.2963 36:46.1187 37:36.5297 38:41.0959 39:65.449 40:51.7504 
8 1:42.285 2:17.6678 3:43.5807 4:63.6042 5:42.4028 6:42.6439 7:15.6361 8:42.6439 9:63.9659 10:41.2225 11:45.3815 12:26.1044 13:46.8541 14:70.9505 15:44.1767 16:44.2737 17:22.8119 18:47.0205 19:58.1937 20:46.5549 21:42.4042 22:15.4117 23:37.8688 24:59.0048 25:47.9965 26:44.8836 27:21.9587 28:43.0391 29:69.8287 30:39.0865 31:48.545 32:31.746 33:56.8783 34:74.0741 35:46.2963 36:45.8143 37:36.5297 38:41.0959 39:65.449 40:48.7062 
8 1:42.285 2:17.6678 3:43.5807 4:63.6042 5:42.4028 6:42.6439 7:15.6361 8:42.6439 9:63.9659 10:41.2225 11:45.3815 12:26.1044 13:46.8541 14:70.9505 15:44.1767 16:44.1806 17:22.8119 18:47.0205 19:57.7281 20:46.5549 21:42.4042 22:15.4117 23:37.8688 24:59.0048 25:47.9965 26:44.8836 27:21.9587 28:43.0391 29:69.8287 30:39.0865 31:48.545 32:31.746 33:56.8783 34:74.0741 35:46.2963 36:45.8143 37:36.5297 38:41.0959 39:65.449 40:50.2283 
8 1:41.5194 2:16.49 3:43.5807 4:59.4817 5:43.5807 6:42.8571 7:19.1898 8:42.6439 9:68.2303 10:43.3547 11:46.2517 12:24.0964 13:50.2008 14:71.6198 15:43.5074 16:44.3203 17:21.8808 18:45.6238 19:59.5903 20:48.8827 21:42.7125 22:16.2924 23:38.3091 24:60.7662 25:49.3175 26:44.7519 27:19.7628 28:44.3566 29:70.2679 30:39.9649 31:48.545 32:26.455 33:62.1693 34:68.7831 35:42.328 36:46.1187 37:31.9635 38:41.0959 39:60.8828 40:54.7945 
