svm_type c_svc
kernel_type linear
nr_class 2
total_sv 895
rho -60.062364595401235
label 1 -1
nr_sv 835 60
SV
1 1:41.4016 2:16.4997 3:34.178 4:65.9988 5:36.5351 6:44.1997 7:23.5121 8:41.881 9:80.0882 10:43.3505 11:46.5598 12:25.4011 13:44.1176 14:71.5241 15:40.107 16:42.8173 17:20 18:44.186 19:60.4651 20:39.5349 21:42.4362 22:16.278 23:38.2754 24:55.8733 25:46.6344 26:44.0789 27:22.3782 28:40.3686 29:66.2571 30:38.6134 31:46.802 32:29.4715 33:59.9593 34:71.1382 35:38.6179 36:45.0355 37:24.8521 38:48.5207 39:57.9882 40:40.2367 
1 1:40.7216 2:15.4728 3:33.2378 4:64.7564 5:36.1032 6:43.7956 7:22.6443 8:40.9058 9:78.1592 10:43.0972 11:46.1939 12:25.3906 13:42.9688 14:69.6615 15:39.0625 16:42.7017 17:19.5011 18:44.4444 19:59.8639 20:39.4558 21:42.2242 22:16.08 23:38.2442 24:55.1934 25:46.5015 26:43.7095 27:22.4913 28:39.7924 29:65.3114 30:38.0623 31:46.6867 32:29.1457 33:59.2965 34:70.3518 35:38.191 36:44.8478 37:24.619 38:48.0657 39:57.4443 40:39.8593 
1 1:41.5756 2:14.3843 3:35.0978 4:65.0173 5:39.1254 6:43.5664 7:16.795 8:45.4864 9:67.1798 10:39.1882 11:46.4402 12:25.4902 13:45.7516 14:78.4314 15:35.9477 16:42.3868 17:20.5855 18:43.9158 19:56.2672 20:38.8838 21:42.7703 22:19.5482 23:39.5308 24:54.3006 25:40.8341 26:42.7521 27:21.2121 28:37.6623 29:65.368 30:33.3333 31:47.5659 32:26.3959 33:61.9289 34:70.0508 35:43.6548 36:43.2243 37:24.5614 38:43.2749 39:54.9708 40:43.2749 
1 1:41.7773 2:14.4342 3:34.642 4:66.3972 5:38.6836 6:43.2451 7:17.4216 8:45.2962 9:67.5958 10:39.0244 11:46.7148 12:25.641 13:46.0224 14:78.238 15:36.1604 16:42.3235 17:20.5105 18:43.7557 19:55.6062 20:38.742 21:42.6343 22:19.0724 23:39.4452 24:53.316 25:41.179 26:42.8509 27:21.3043 28:37.8261 29:65.6522 30:33.4783 31:47.2837 32:26.1833 33:61.43 34:69.4864 35:43.3031 36:43.2783 37:24.7934 38:43.6836 39:55.49 40:43.6836 
1 1:41.6619 2:13.8568 3:35.2194 4:65.2425 5:37.5289 6:43.387 7:18.9076 8:47.619 9:66.5266 10:39.2157 11:46.6185 12:25.6242 13:45.9921 14:77.5296 15:37.4507 16:42.5114 17:20.1005 18:44.3125 19:57.1037 20:39.7442 21:42.6713 22:19.9566 23:39.0456 24:55.0976 25:40.3471 26:42.8261 27:21.3136 28:38.2775 29:65.2458 30:33.9278 31:47.6239 32:26.3158 33:61.7409 34:72.8745 35:43.5223 36:43.2941 37:24.735 38:43.5807 39:55.3592 40:43.5807 
1 1:41.6476 2:13.7378 3:34.917 4:65.2547 5:37.779 6:43.2039 7:18.737 8:47.1895 9:65.9264 10:38.8619 11:46.3335 12:25.3247 13:45.4545 14:76.6234 15:37.013 16:42.4366 17:20.3897 18:43.9511 19:56.638 20:39.8731 21:42.876 22:20.2376 23:39.1553 24:55.8733 25:40.4751 26:42.7029 27:21.5983 28:38.013 29:64.7948 30:33.6933 31:47.3054 32:25.974 33:60.9391 34:71.9281 35:42.957 36:43.237 37:24.3056 38:42.8241 39:54.3981 40:42.8241 
1 1:41.8182 2:14.6714 3:34.0376 4:66.9014 5:36.385 6:43.247 7:18.2073 8:46.2185 9:66.5266 10:39.2157 11:46.4215 12:26.2812 13:45.9921 14:76.2155 15:36.7937 16:42.5571 17:20.1005 18:44.7693 19:56.19 20:39.7442 21:42.9626 22:19.9913 23:39.9826 24:56.0626 25:40.8518 26:42.8261 27:21.7486 28:37.8425 29:66.5507 30:33.4928 31:48.1218 32:27.439 33:63.0081 34:73.1707 35:43.6992 36:43.4988 37:26.0355 38:46.1538 39:55.6213 40:43.787 
1 1:41.476 2:13.1654 3:34.3446 4:64.6823 5:38.3515 6:42.9958 7:18.043 8:43.7196 9:66.6204 10:38.8619 11:46.1389 12:25.974 13:45.4545 14:76.6234 15:37.013 16:42.346 17:20.3897 18:44.4042 19:55.2787 20:39.8731 21:42.8756 22:19.4384 23:39.7408 24:54.8596 25:41.0367 26:42.7893 27:22.4622 28:38.013 29:66.5227 30:33.2613 31:47.1058 32:24.975 33:60.9391 34:71.9281 35:41.958 36:43.4682 37:25.463 38:43.9815 39:56.713 40:42.8241 
1 1:41.7048 2:13.7378 3:34.3446 4:66.3995 5:38.3515 6:43.2339 7:18.0556 8:45.8333 9:66.6667 10:38.8889 11:46.2338 12:25.9909 13:45.4841 14:75.3736 15:37.037 16:42.4545 17:20.4638 18:44.111 19:56.3893 20:40.0182 21:42.919 22:19.9307 23:39.8614 24:55.8925 25:41.1612 26:42.8076 27:21.6732 28:38.1448 29:66.3199 30:33.3767 31:47.505 32:26.973 33:61.9381 34:71.9281 35:42.957 36:43.237 37:25.463 38:43.9815 39:54.3981 40:42.8241 
1 1:41.6479 2:13.5517 3:35.0085 4:64.9351 5:39.5257 6:43.1564 7:18.8679 8:44.724 9:65.6883 10:37.7358 11:46.3415 12:25.0482 13:44.9583 14:76.429 15:38.5356 16:42.2031 17:19.9546 18:43.5374 19:53.9683 20:40.3628 21:42.7711 22:19.3715 23:41.3259 24:55.1012 25:40.8954 26:42.5268 27:19.2802 28:36.8466 29:64.6958 30:34.7044 31:47.6096 32:26.9192 33:62.8116 34:71.7846 35:44.8654 36:42.8736 37:24.1657 38:41.4269 39:54.0852 40:42.5777 
1 1:41.5904 2:12.0206 3:37.2066 4:66.3995 5:39.4963 6:43.2039 7:19.431 8:45.1076 9:65.2325 10:37.474 11:46.1688 12:25.9909 13:44.8343 14:74.7238 15:37.6868 16:42.4091 17:20.4638 18:43.6562 19:55.4798 20:41.3824 21:42.6159 22:18.1976 23:39.8614 24:56.7591 25:38.1282 26:42.3744 27:18.2055 28:35.9775 29:65.0195 30:36.4109 31:47.3054 32:23.976 33:63.9361 34:71.9281 35:41.958 36:43.0058 37:24.3056 38:42.8241 39:50.9259 40:40.5093 
1 1:41.8192 2:12.0206 3:37.2066 4:66.3995 5:37.779 6:43.1167 7:19.5804 8:44.7552 9:65.7343 10:37.7622 11:46.6234 12:25.3411 13:46.1339 14:77.3229 15:40.2859 16:42.0743 17:19.0304 18:43.9511 19:54.3725 20:40.7793 21:42.92 22:18.4778 23:40.0352 24:57.6331 25:39.1553 26:42.6522 27:18.7038 28:36.5376 29:66.1157 30:37.4076 31:47.2306 32:24.1935 33:62.5 34:71.5726 35:41.3306 36:43.3763 37:25.8216 38:43.4272 39:52.8169 40:42.2535 
1 1:42.0959 2:13.6256 3:37.9147 4:67.5355 5:38.5071 6:43.4752 7:19.1625 8:44.0028 9:66.714 10:38.3251 11:46.827 12:26.738 13:46.123 14:78.877 15:39.4385 16:42.4919 17:20.9302 18:44.186 19:55.814 20:41.3953 21:43.0079 22:19.3577 23:40.4751 24:58.073 25:38.7154 26:42.8947 27:18.4291 28:36.8583 29:67.1347 30:37.2971 31:47.7157 32:25.4065 33:65.0407 34:73.1707 35:41.6667 36:42.9752 37:24.8227 38:43.7352 39:52.0095 40:41.3712 
1 1:41.6378 2:12.6947 3:37.5072 4:65.7819 5:39.2383 6:43.1978 7:19.6491 8:44.2105 9:65.2632 10:37.8947 11:46.2344 12:24.9017 13:44.5609 14:75.3604 15:38.6632 16:42.5571 17:20.5573 18:44.7693 19:56.6469 20:41.5715 21:42.764 22:19.1304 23:40.4348 24:56.5217 25:38.6957 26:42.5541 27:18.6228 28:36.3794 29:65.8294 30:36.8125 31:48.1707 32:24.4151 33:65.1068 34:73.2452 35:44.7609 36:43.0933 37:26.0047 38:43.7352 39:52.0095 40:42.5532 
1 1:41.6955 2:12.6947 3:37.5072 4:66.3589 5:39.2383 6:43.3333 7:19.1625 8:43.2931 9:66.714 10:38.3251 11:46.1039 12:24.6914 13:44.8343 14:74.7238 15:38.3366 16:42.3913 17:20.8428 18:43.9511 19:56.1849 20:41.2324 21:42.7029 22:19.0065 23:40.1728 24:56.1555 25:38.8769 26:42.6087 27:18.2688 28:36.5376 29:66.1157 30:36.9726 31:47.6048 32:23.976 33:63.9361 34:71.9281 35:43.956 36:43.0246 37:25.8216 38:43.4272 39:51.6432 40:42.2535 
1 1:42.0222 2:12.8655 3:37.4269 4:67.2515 5:39.7661 6:43.3566 7:18.8943 8:45.4864 9:66.4801 10:37.7887 11:46.3863 12:26.2985 13:44.7074 14:72.9783 15:39.4477 16:42.4658 17:20.1005 18:43.8556 19:56.19 20:41.5715 21:42.8633 22:18.6632 23:39.4965 24:56.8576 25:40.3646 26:42.3611 27:18.2371 28:36.0399 29:65.5667 30:34.3031 31:47.8173 32:24.3902 33:65.0407 34:73.1707 35:42.6829 36:42.8235 37:25.9128 38:43.5807 39:53.0035 40:42.4028 
1 1:41.8631 2:12.6582 3:37.3993 4:66.168 5:40.2762 6:43.3566 7:18.8943 8:45.4864 9:66.4801 10:37.7887 11:46.2794 12:26.1267 13:44.4154 14:73.1548 15:39.1901 16:42.4795 17:20.5198 18:43.7756 19:55.6316 20:41.4957 21:42.9445 22:18.7937 23:39.7727 24:57.2552 25:39.3357 26:42.4348 27:18.2688 28:36.1027 29:65.6807 30:34.3628 31:47.7688 32:24.3655 33:64.9746 34:73.0964 35:42.6396 36:42.8571 37:25.7913 38:44.5487 39:53.9273 40:42.204 
1 1:41.9262 2:12.6947 3:37.5072 4:66.3589 5:39.8153 6:43.2867 7:18.8943 8:45.4864 9:66.4801 10:37.7887 11:46.3654 12:26.2123 13:44.5609 14:73.3945 15:39.3185 16:42.427 17:20.0822 18:43.8156 19:56.1387 20:41.5335 21:42.82 22:18.6632 23:39.4965 24:56.8576 25:39.4965 26:42.4111 27:18.6551 28:36.0087 29:65.5098 30:34.2733 31:47.7688 32:24.3655 33:64.9746 34:73.0964 35:42.6396 36:42.8907 37:25.8824 38:43.5294 39:52.9412 40:42.3529 
1 1:41.9739 2:11.9183 3:36.8899 4:68.1044 5:40.2951 6:43.1866 7:18.1818 8:45.4545 9:66.4336 10:37.7622 11:46.2131 12:25.6904 13:44.316 14:74.5022 15:39.1779 16:42.346 17:20.3897 18:43.9511 19:55.7318 20:42.1386 21:42.7897 22:18.8922 23:40.3607 24:56.2473 25:40.3607 26:42.7409 27:18.8518 28:37.2751 29:66.4096 30:35.1328 31:47.5524 32:24 33:64 34:72 35:43 36:43.2 37:25.1716 38:43.4783 39:54.9199 40:43.4783 
1 1:41.9242 2:12.252 3:37.3396 4:68.2614 5:39.0898 6:43.2168 7:18.8943 8:45.4864 9:66.4801 10:37.7887 11:46.5223 12:26.264 13:44.6487 14:75.5089 15:38.7393 16:42.4201 17:19.6437 18:44.3125 19:56.19 20:42.0283 21:42.7273 22:19.0559 23:39.411 24:56.3014 25:40.2772 26:42.6522 27:18.2688 28:36.9726 29:66.1157 30:35.2327 31:47.8702 32:24.3655 33:63.9594 34:74.1117 35:42.6396 36:42.9074 37:25.8216 38:43.4272 39:53.9906 40:42.2535 
1 1:41.762 2:11.4482 3:37.2066 4:66.972 5:39.4963 6:43.0468 7:18.8811 8:45.4545 9:65.7343 10:37.7622 11:46.2987 12:25.9909 13:44.1845 14:74.7238 15:38.3366 16:42.3007 17:19.9366 18:43.9511 19:55.7318 20:41.6855 21:42.7461 22:19.0065 23:39.3089 24:56.1555 25:40.1728 26:42.6166 27:18.5745 28:36.7171 29:66.5227 30:34.9892 31:47.6334 32:24.1935 33:64.5161 34:72.5806 35:42.3387 36:42.8902 37:25.463 38:42.8241 39:53.2407 40:41.6667 
1 1:41.6715 2:12.2807 3:38.0117 4:65.4971 5:41.5205 6:43.3591 7:19.7044 8:47.8536 9:65.4469 10:36.5939 11:46.4567 12:26.264 13:45.9619 14:75.5089 15:37.4261 16:42.7854 17:20.5573 18:44.7693 19:58.0174 20:42.4852 21:42.7826 22:16.9639 23:39.1475 24:58.7212 25:39.1475 26:42.5347 27:18.6713 28:35.6057 29:66.4351 30:36.0399 31:47.8702 32:24.3655 33:64.9746 34:72.0812 35:42.6396 36:43.5958 37:27.0588 38:44.7059 39:52.9412 40:43.5294 
1 1:42.0481 2:12.0206 3:40.0687 4:68.1168 5:40.0687 6:43.2732 7:23.5947 8:46.4955 9:64.5385 10:37.474 11:45.974 12:24.6914 13:45.4841 14:74.7238 15:37.037 16:42.6364 17:20.4638 18:44.5657 19:58.663 20:42.292 21:43.0056 22:18.6308 23:39.8614 24:56.7591 25:39.8614 26:42.6776 27:18.6389 28:35.9775 29:66.3199 30:36.8444 31:47.6048 32:23.976 33:63.9361 34:71.9281 35:42.957 36:43.237 37:25.463 38:41.6667 39:50.9259 40:42.8241 
1 1:42.2287 2:12.3239 3:38.7324 4:68.0751 5:39.9061 6:43.007 7:20.9937 8:46.1861 9:64.3807 10:37.7887 11:46.3863 12:26.956 13:45.3649 14:74.2932 15:37.4753 16:42.7397 17:20.5573 18:44.7693 19:58.0174 20:42.0283 21:42.8261 22:17.8338 23:40.0174 24:57.4163 25:39.1475 26:42.4848 27:19.1221 28:35.6367 29:66.4928 30:35.6367 31:48.118 32:24.4399 33:65.1731 34:73.3198 35:43.7882 36:43.1953 37:24.8815 38:42.654 39:53.3175 40:41.4692 
1 1:42.1391 2:13.4503 3:38.5965 4:67.2515 5:39.7661 6:43.2867 7:18.1945 8:46.8859 9:65.0805 10:37.7887 11:46.3559 12:25.6242 13:45.3351 14:72.9304 15:38.1078 16:42.6027 17:20.1005 18:43.8556 19:57.1037 20:43.3988 21:43 22:19.1388 23:40.0174 24:56.5463 25:40.0174 26:42.3913 27:18.2688 28:36.5376 29:66.1157 30:35.6677 31:47.9188 32:24.3902 33:65.0407 34:73.1707 35:42.6829 36:43.1419 37:25.8216 38:44.6009 39:52.8169 40:42.2535 
1 1:42.0749 2:12.6874 3:38.639 4:66.3206 5:40.3691 6:43.177 7:18.2073 8:46.2185 9:65.1261 10:37.8151 11:46.5924 12:25.5738 13:45.9016 14:74.7541 15:38.0328 16:42.5493 17:20.1835 18:44.0367 19:57.3394 20:42.6606 21:42.9565 22:18.7038 23:40.0174 24:56.9813 25:40.0174 26:42.6394 27:18.3007 28:36.6013 29:67.1024 30:35.7298 31:47.5709 32:24.3408 33:64.9087 34:72.0081 35:42.5963 36:43.0082 37:25.8824 38:42.3529 39:52.9412 40:42.3529 
1 1:42.3144 2:12.8655 3:39.1813 4:66.6667 5:40.3509 6:43.1469 7:18.8943 8:45.4864 9:65.0805 10:37.7887 11:46.7498 12:25.6242 13:45.9921 14:74.9014 15:40.7359 16:42.8115 17:20.0913 18:44.7489 19:57.0776 20:44.7489 21:42.913 22:20.4437 23:40.0174 24:58.2862 25:39.1475 26:42.5217 27:19.1388 28:35.6677 29:66.1157 30:36.1027 31:48.1707 32:24.4151 33:65.1068 34:73.2452 35:42.7263 36:43.2783 37:25.974 38:43.6836 39:53.1287 40:44.8642 
1 1:41.9908 2:12.593 3:38.9239 4:65.2547 5:39.4963 6:43.1345 7:19.431 8:45.8015 9:65.2325 10:37.474 11:46.3636 12:25.3411 13:44.8343 14:73.4243 15:39.6361 16:42.6818 17:20.4638 18:43.6562 19:56.844 20:43.6562 21:42.8757 22:19.9307 23:40.2946 24:57.6256 25:39.4281 26:42.4177 27:18.2055 28:36.4109 29:65.453 30:35.544 31:47.6048 32:23.976 33:64.9351 34:71.9281 35:41.958 36:43.1214 37:26.6204 38:42.8241 39:52.0833 40:41.6667 
1 1:41.4943 2:12.6509 3:37.9528 4:63.8298 5:37.3778 6:43.3263 7:20.979 8:47.5524 9:65.7343 10:37.0629 11:46.5405 12:28.0862 13:45.7218 14:75.1143 15:37.8837 16:42.792 17:19.1693 18:44.7284 19:57.9644 20:43.3592 21:42.944 22:19.9826 23:41.2685 24:57.7758 25:39.9652 26:42.4924 27:19.4805 28:35.9307 29:66.2338 30:35.4978 31:48.2341 32:25.2525 33:65.6566 34:71.7172 35:44.4444 36:43.1075 37:28.0702 38:43.2749 39:51.462 40:40.9357 
1 1:41.5517 2:12.6509 3:37.9528 4:64.4048 5:37.3778 6:43.3263 7:20.979 8:47.5524 9:65.7343 10:37.0629 11:46.5405 12:28.0862 13:45.7218 14:75.1143 15:37.8837 16:42.792 17:19.1693 18:44.7284 19:57.9644 20:43.3592 21:42.9253 22:20.4082 23:41.2505 24:57.7508 25:39.9479 26:42.5108 27:19.489 28:35.9463 29:66.2625 30:35.5132 31:48.1332 32:24.2424 33:65.6566 34:71.7172 35:44.4444 36:43.1579 37:28.103 38:43.3255 39:51.5222 40:40.9836 
1 1:42.0778 2:14.518 3:34.8432 4:66.2021 5:38.9082 6:43.2281 7:18.2584 8:44.9438 9:67.4157 10:38.6236 11:46.4872 12:25.6242 13:45.9921 14:76.8725 15:37.4507 16:42.5571 17:19.6437 18:45.2261 19:56.6469 20:39.7442 21:42.7766 22:20.8333 23:39.0625 24:55.9896 25:40.7986 26:42.8261 27:21.7486 28:38.2775 29:66.5507 30:33.4928 31:47.8702 32:26.3959 33:62.9442 34:73.0964 35:43.6548 36:43.2113 37:26.0047 38:43.7352 39:54.3735 40:43.7352 
1 1:41.7048 2:14.3102 3:34.3446 4:65.8271 5:38.3515 6:42.9861 7:18.0681 8:44.4753 9:66.713 10:38.221 11:46.1939 12:25.3906 13:44.9219 14:76.1719 15:37.1094 16:42.4819 17:19.9366 18:44.8573 19:56.1849 20:39.8731 21:42.7461 22:20.7343 23:38.8769 24:55.7235 25:41.0367 26:42.8323 27:21.7297 28:38.2442 29:66.4928 30:33.4637 31:47.4052 32:25.974 33:61.9381 34:71.9281 35:42.957 36:43.1214 37:25.463 38:42.8241 39:53.2407 40:42.8241 
1 1:41.8118 2:13.9454 3:34.8635 4:66.8216 5:37.7687 6:43.2888 7:18.2841 8:45.007 9:67.5105 10:39.3812 11:46.4779 12:26.3505 13:46.1133 14:76.4163 15:37.5494 16:42.6027 17:20.1005 18:45.2261 19:56.6469 20:39.7442 21:42.8385 22:20.4082 23:39.5137 24:55.1455 25:40.8163 26:42.7391 27:21.7486 28:37.8425 29:66.5507 30:33.4928 31:48.0691 32:27.4669 33:63.0722 34:73.2452 35:43.7436 36:43.3806 37:27.2189 38:43.787 39:54.4379 40:43.787 
1 1:41.8833 2:14.4509 3:34.6821 4:68.2081 5:38.1503 6:43.5336 7:17.6803 8:44.5545 9:67.1853 10:41.0184 11:46.3654 12:26.2123 13:45.8716 14:76.0157 15:37.3526 16:42.2901 17:20.5386 18:45.1848 19:55.6823 20:39.2515 21:43.0308 22:19.5482 23:40.8341 24:57.7758 25:40.8341 26:42.9192 27:21.7297 28:38.2442 29:66.4928 30:33.4637 31:47.7688 32:26.3959 33:62.9442 34:72.0812 35:43.6548 36:43.1765 37:24.735 38:45.9364 39:56.5371 40:42.4028 
1 1:41.5181 2:13.809 3:34.5224 4:67.3188 5:38.5501 6:43.317 7:18.9076 8:44.1176 9:66.5266 10:39.916 11:46.3096 12:26.1438 13:45.7516 14:75.817 15:37.2549 16:42.3814 17:20.0822 18:45.1848 19:56.5952 20:39.2515 21:42.8571 22:19.0559 23:40.2772 24:57.1676 25:41.5764 26:42.9437 27:21.6544 28:38.1117 29:67.9948 30:33.3478 31:47.5277 32:26.2626 33:61.6162 34:71.7172 35:43.4343 36:43.3411 37:24.5614 38:46.7836 39:56.1404 40:44.4444 
1 1:41.6427 2:13.7931 3:34.4828 4:65.5172 5:38.5057 6:43.3054 7:18.1438 8:44.6615 9:66.9923 10:40.4745 11:46.4872 12:26.2812 13:45.9921 14:76.2155 15:37.4507 16:42.3814 17:20.5386 18:44.7284 19:56.1387 20:39.2515 21:42.9874 22:19.9826 23:39.9652 24:57.3414 25:40.8341 26:42.9688 27:22.145 28:38.211 29:66.4351 30:33.4347 31:47.5327 32:26.2097 33:62.5 34:71.5726 35:43.3468 36:43.4118 37:24.735 38:45.9364 39:56.5371 40:44.7585 
1 1:41.6244 2:12.9797 3:34.9887 4:64.8984 5:39.5034 6:43.1787 7:18.43 8:45.0512 9:66.2116 10:38.9078 11:46.0064 12:25.5754 13:45.3964 14:75.4476 15:36.445 16:42.5437 17:19.7133 18:45.2509 19:56.0036 20:40.3226 21:42.8877 22:20.5128 23:40.5983 24:55.1282 25:41.453 26:42.7595 27:21.7949 28:38.4615 29:65.812 30:33.3333 31:47.1276 32:24.3665 33:61.4035 34:71.1501 35:43.8596 36:43.2584 37:24.7469 38:44.9944 39:53.9933 40:43.8695 
1 1:41.476 2:13.7378 3:34.3446 4:64.6823 5:37.779 6:43.1345 7:17.3491 8:47.1895 9:67.3144 10:38.1679 11:46.2687 12:25.3247 13:45.4545 14:76.6234 15:37.013 16:42.3007 17:19.4835 18:44.4042 19:55.2787 20:39.42 21:42.962 22:19.8704 23:40.6048 24:55.2916 25:40.6048 26:42.5734 27:21.5983 28:38.013 29:65.2268 30:33.2613 31:46.7066 32:23.976 33:59.9401 34:71.9281 35:40.959 36:43.3526 37:26.6204 38:45.1389 39:54.3981 40:42.8241 
1 1:42.2143 2:14.218 3:34.9526 4:67.5355 5:39.6919 6:43.617 7:18.4528 8:45.4223 9:68.1334 10:40.4542 11:46.827 12:26.738 13:46.7914 14:78.2086 15:38.7701 16:42.8173 17:21.3953 18:44.186 19:57.6744 20:39.5349 21:43.1838 22:20.2376 23:40.4751 24:55.8733 25:40.9151 26:43.3333 27:22.817 28:39.0522 29:68.0123 30:33.7867 31:48.318 32:25.5102 33:63.2653 34:77.551 35:43.8776 36:43.7355 37:25.5517 38:44.1347 39:55.7491 40:46.4576 
1 1:43.8515 2:20.8938 3:46.4306 4:72.5479 5:35.9837 6:43.3404 7:20.4513 8:44.4288 9:68.4062 10:38.0818 11:46.4826 12:26.9737 13:46.7105 14:76.9737 15:36.8421 16:42.6424 17:20.0547 18:43.7557 19:56.062 20:42.8441 21:42.356 22:16.4645 23:39.4281 24:54.1594 25:42.0277 26:43.0182 27:20.3905 28:36.8764 29:67.2451 30:36.8764 31:47.5377 32:22.1328 33:63.3803 34:73.4406 35:41.2475 36:43.3411 37:23.3918 38:42.1053 39:54.9708 40:40.9357 
1 1:43.6775 2:20.3134 3:47.011 4:71.3871 5:35.9837 6:42.887 7:18.8416 8:44.6615 9:67.6902 10:37.6832 11:46.4168 12:27.6316 13:46.0526 14:76.3158 15:36.8421 16:42.7069 17:20.1281 18:43.9158 19:55.8097 20:43.4584 21:42.4426 22:16.8977 23:39.4281 24:54.1594 25:42.461 26:42.8881 27:20.3905 28:36.8764 29:66.8113 30:36.8764 31:47.6908 32:22.1106 33:63.3166 34:73.3668 35:41.206 36:42.907 37:22.1187 38:40.7451 39:54.7148 40:37.2526 
0.54644331597321716 1:43.6311 2:19.6078 3:46.7128 4:72.0877 5:35.7555 6:42.9367 7:20.195 8:44.5682 9:67.5487 10:37.6045 11:46.1638 12:27.326 13:46.1939 14:75.4717 15:37.0852 16:42.792 17:20.995 18:43.8156 19:56.5952 20:42.9028 21:42.1713 22:15.5777 23:38.9442 24:54.0891 25:42.4059 26:43.1288 27:21.1846 28:36.7488 29:68.3096 30:36.7488 31:47.5475 32:22.0441 33:63.1263 34:73.1463 35:41.0822 36:43.0556 37:22.0162 38:41.7149 39:54.4612 40:39.3975 
1 1:43.5409 2:20.1962 3:45.5857 4:70.9752 5:36.9302 6:42.8969 7:19.5122 8:44.5993 9:66.899 10:38.3275 11:45.8984 12:28.013 13:46.2541 14:72.3127 15:36.4821 16:42.5639 17:20.5386 18:43.3592 19:54.7695 20:43.3592 21:42.0164 22:15.5844 23:38.0952 24:54.1126 25:43.7229 26:43.1661 27:21.6357 28:37.2133 29:67.5032 30:38.0788 31:47.1471 32:21.0421 33:62.1242 34:70.1403 35:42.0842 36:42.8571 37:20.7612 38:40.3691 39:56.5167 40:41.5225 
1 1:43.9095 2:22.6349 3:45.8503 4:70.2263 5:35.9837 6:43.2584 7:17.5685 8:44.2727 9:68.8686 10:37.948 11:46.2853 12:27.6316 13:46.7105 14:75 15:37.5 16:42.5697 17:19.6706 18:43.9158 19:57.6395 20:42.086 21:41.9662 22:16.4645 23:38.5615 24:53.7262 25:40.2946 26:42.9315 27:19.9566 28:37.744 29:67.2451 30:37.3102 31:47.8261 32:22.2672 33:64.7773 34:72.8745 35:41.498 36:43.4834 37:23.7248 38:41.5184 39:56.9395 40:41.5184 
1 1:43.418 2:20.2195 3:46.2161 4:67.0133 5:36.9728 6:42.7577 7:18.8153 8:45.2962 9:64.8084 10:38.3275 11:45.3716 12:27.3973 13:45.0098 14:72.407 15:35.225 16:42.1077 17:18.7129 18:43.3592 19:54.7695 20:40.6207 21:41.9732 22:16.0173 23:39.3939 24:53.2468 25:42.4242 26:42.7088 27:18.1818 28:37.2294 29:66.2338 30:37.6623 31:47.5 32:23.023 33:63.0631 34:74.0741 35:41.041 36:43.0733 37:20.979 38:40.7925 39:55.9441 40:39.627 
1 1:42.4784 2:20.7612 3:46.1361 4:63.4371 5:38.0623 6:42.5017 7:14.5228 8:45.6432 9:60.166 10:42.8769 11:45.7087 12:27.326 13:45.5433 14:76.7729 15:37.7358 16:42.4077 17:19.6168 18:43.3394 19:56.1131 20:41.5146 21:41.9299 22:14.7186 23:38.0952 24:58.0087 25:44.5887 26:42.684 27:19.0559 28:36.3794 29:66.2625 30:36.8125 31:47.1471 32:25.0501 33:64.1283 34:73.1463 35:41.0822 36:41.9092 37:18.648 38:40.7925 39:53.6131 40:38.4615 
1 1:42.7658 2:20.3488 3:47.093 4:64.5349 5:38.3721 6:42.5087 7:14.6444 8:45.3278 9:61.3668 10:43.2357 11:46.2549 12:28.9283 13:46.0224 14:77.5805 15:38.7903 16:42.2465 17:19.1083 18:43.2211 19:56.8699 20:40.9463 21:42.1828 22:15.1646 23:39.4281 24:57.6256 25:45.0607 26:42.5412 27:19.9566 28:37.3102 29:64.6421 30:34.7072 31:47.3205 32:24.2915 33:63.7652 34:73.8866 35:40.4858 36:42.5904 37:17.5234 38:40.8879 39:53.7383 40:38.5514 
1 1:42.7236 2:21.6374 3:46.7836 4:64.9123 5:38.0117 6:42.6481 7:13.947 8:43.9331 9:62.0642 10:43.9331 11:46.1892 12:28.2709 13:45.3649 14:76.2656 15:39.4477 16:42.3775 17:19.0649 18:43.5769 19:56.7408 20:42.2152 21:41.9229 22:14.7314 23:38.1282 24:58.0589 25:44.1941 26:42.8881 27:19.5228 28:37.3102 29:66.8113 30:35.5748 31:47.5709 32:26.3425 33:64.843 34:73.9615 35:41.54 36:42.0307 37:18.9125 38:41.3712 39:53.1915 40:36.643 
1 1:42.7658 2:22.093 3:45.9302 4:64.5349 5:39.5349 6:42.9965 7:16.0391 8:46.0251 9:64.1562 10:43.2357 11:45.9921 12:27.6134 13:44.7074 14:77.5805 15:38.1328 16:42.4739 17:20.4732 18:42.7662 19:56.8699 20:42.3112 21:42.356 22:16.8977 23:38.5615 24:59.3588 25:44.6274 26:42.4545 27:20.8243 28:36.0087 29:63.7744 30:36.0087 31:47.2617 32:26.3959 33:62.9442 34:71.066 35:41.6244 36:42.5532 37:17.7515 38:40.2367 39:55.6213 40:37.8698 
1 1:42.4753 2:22.093 3:46.5116 4:61.0465 5:40.6977 6:42.8571 7:15.3417 8:45.3278 9:63.4589 10:43.2357 11:45.9974 12:28.2337 13:45.3053 14:76.8221 15:37.4261 16:42.2465 17:19.5632 18:42.3112 19:56.4149 20:41.8562 21:42.1828 22:15.5979 23:37.695 24:58.4922 25:44.6274 26:42.1645 27:19.489 28:35.9463 29:64.5301 30:35.0801 31:47.4216 32:25.3036 33:63.7652 34:73.8866 35:41.498 36:42.6402 37:18.7135 38:40.9357 39:53.8012 40:37.4269 
1 1:42.3345 2:20.9181 3:45.9035 4:61.5921 5:40.674 6:42.9268 7:16.7364 8:46.0251 9:63.4589 10:43.9331 11:46.1235 12:28.9283 13:45.3649 14:76.9231 15:38.1328 16:42.292 17:19.1083 18:42.3112 19:56.4149 20:42.3112 21:42.1828 22:15.5979 23:37.2617 24:58.4922 25:45.0607 26:42.1943 27:19.5228 28:35.5748 29:64.6421 30:34.7072 31:47.5228 32:25.3036 33:63.7652 34:73.8866 35:42.5101 36:42.6402 37:18.7135 38:40.9357 39:53.8012 40:37.4269 
1 1:42.5915 2:22.093 3:46.5116 4:61.6279 5:39.5349 6:42.9965 7:16.7364 8:45.3278 9:64.1562 10:43.9331 11:46.1235 12:28.9283 13:46.0224 14:77.5805 15:38.1328 16:42.3636 17:19.0996 18:42.292 19:56.3893 20:41.8372 21:42.1828 22:16.0312 23:38.1282 24:58.0589 25:43.7608 26:42.281 27:19.5228 28:36.0087 29:65.9436 30:35.141 31:47.6923 32:25.6674 33:64.6817 34:74.9487 35:42.0945 36:43.3294 37:18.9125 38:42.5532 39:55.5556 40:39.0071 
1 1:42.256 2:19.883 3:47.9532 4:61.9883 5:38.0117 6:43.5179 7:18.2328 8:44.8808 9:68.0224 10:44.1795 11:45.5931 12:28.5146 13:44.4297 14:74.9337 15:36.4721 16:42.4943 17:20.4174 18:41.7423 19:57.1688 20:42.6497 21:42.043 22:17.1053 23:36.8421 24:60.5263 25:43.4211 26:42.4256 27:18.3968 28:36.3557 29:63.0749 30:36.3557 31:46.7317 32:23.4375 33:60.5469 34:75.1953 35:42.9688 36:43.0508 37:18.0995 38:42.9864 39:57.6923 40:40.724 
1 1:42.3788 2:19.6418 3:47.9492 4:62.9694 5:38.1282 6:43.0063 7:18.1058 8:45.2646 9:65.4596 10:44.5682 11:45.4782 12:27.9948 13:44.9219 14:75.5208 15:35.8073 16:42.4726 17:20.995 18:42.4464 19:56.5952 20:41.99 21:42.0415 22:17.7412 23:37.646 24:61.0125 25:45.0022 26:42.381 27:18.1897 28:36.3794 29:62.7977 30:37.6786 31:47 32:24.024 33:62.0621 34:76.0761 35:42.042 36:42.7907 37:18.6263 38:41.9092 39:55.8789 40:40.7451 
1 1:42.3144 2:19.2982 3:47.3684 4:63.1579 5:37.4269 6:43.1399 7:17.7596 8:45.082 9:64.8907 10:45.082 11:45.431 12:27.2374 13:44.7471 14:74.5785 15:36.3165 16:42.179 17:19.9005 18:41.6101 19:56.0832 20:42.0624 21:42.0577 22:18.0879 23:37.4677 24:60.2929 25:44.789 26:42.5011 27:18.3727 28:36.7454 29:62.9921 30:36.308 31:46.7317 32:23.4375 33:61.5234 34:75.1953 35:41.0156 36:42.8249 37:18.0995 38:41.8552 39:56.5611 40:40.724 
1 1:42.2746 2:20.6897 3:46.5517 4:62.6437 5:39.6552 6:42.3497 7:15.0376 8:45.1128 9:63.568 10:39.6446 11:45.9371 12:27.541 13:43.2787 14:78.6885 15:38.6885 16:42.2232 17:19.7309 18:41.704 19:56.5022 20:41.704 21:42.1908 22:16.6952 23:38.0993 24:60.3596 25:44.0925 26:42.4373 27:19.8876 28:36.3165 29:63.9862 30:36.3165 31:46.6341 32:24.4141 33:61.5234 34:73.2422 35:41.0156 36:42.6156 37:18.0587 38:42.8894 39:55.3047 40:40.6321 
1 1:42.3591 2:20.3488 3:46.5116 4:62.2093 5:40.1163 6:43.1882 7:17.5685 8:45.6781 9:64.6521 10:42.8672 11:45.7516 12:27.4689 13:43.8195 14:76.5206 15:37.9333 16:42.1555 17:20.9281 18:40.4914 19:54.5951 20:42.3112 21:42.1395 22:17.331 23:37.695 24:61.9584 25:43.7608 26:42.5412 27:20.8243 28:37.3102 29:62.4729 30:37.3102 31:47.1125 32:25.355 33:61.8661 34:75.0507 35:41.5822 36:42.7902 37:18.7793 38:41.0798 39:56.338 40:38.7324 
1 1:42.4784 2:21.3379 3:45.5594 4:61.1303 5:40.3691 6:42.6184 7:16.0279 8:43.9024 9:63.4146 10:42.5087 11:45.5787 12:27.326 13:44.8926 14:78.0742 15:38.3865 16:42.1989 17:18.7129 18:40.6207 19:55.2259 20:41.99 21:42.0484 22:17.2936 23:38.0458 24:56.6364 25:43.6662 26:42.2078 27:19.489 28:36.8125 29:64.5301 30:36.3794 31:46.9469 32:25.0501 33:62.1242 34:74.1483 35:41.0822 36:41.8605 37:18.6263 38:39.5809 39:52.3865 40:37.2526 
1 1:42.9058 2:21.0108 3:47.7002 4:64.7359 5:41.4537 6:42.7204 7:16.4159 8:43.7756 9:62.9275 10:43.0917 11:45.3668 12:26.4005 13:43.7862 14:75.982 15:39.2788 16:42.1148 17:18.9873 18:40.6872 19:54.7016 20:42.4955 21:41.9716 22:16.3652 23:37.4677 24:57.2782 25:43.9276 26:42.2896 27:18.8034 28:36.7521 29:64.1026 30:37.1795 31:46.7836 32:23.4146 33:62.439 34:73.1707 35:40 36:42.1171 37:18.0383 38:40.5862 39:52.9876 40:38.3315 
1 1:42.8409 2:21.0347 3:46.6174 4:63.6725 5:41.5009 6:42.7204 7:16.4159 8:43.7756 9:62.9275 10:43.0917 11:45.5901 12:26.6061 13:45.425 14:77.2226 15:38.2868 16:42.0887 17:18.8341 18:40.8072 19:54.7085 20:42.1525 21:42.1724 22:16.718 23:37.3955 24:58.513 25:43.9947 26:42.5448 27:19.2476 28:36.7454 29:65.1794 30:36.7454 31:46.6341 32:23.4375 33:60.5469 34:72.2656 35:40.0391 36:42.2472 37:19.1226 38:41.6198 39:52.8684 40:39.3701 
1 1:42.849 2:21.0108 3:47.1323 4:64.1681 5:41.4537 6:42.7694 7:16.3823 8:44.3686 9:62.7986 10:43.0034 11:45.4023 12:26.1981 13:44.7284 14:76.6773 15:38.9776 16:42.1406 17:18.8172 18:41.2186 19:54.6595 20:42.1147 21:41.9923 22:16.7526 23:37.8007 24:57.1306 25:44.244 26:42.2896 27:19.2308 28:36.7521 29:64.1026 30:36.3248 31:46.7381 32:23.3918 33:61.4035 34:73.0994 35:39.961 36:42.1348 37:17.9978 38:41.6198 39:52.8684 40:38.2452 
1 1:42.4855 2:21.3997 3:46.2695 4:62.4639 5:41.6426 6:43.0962 7:14.6546 8:45.3594 9:65.5967 10:42.568 11:46.2549 12:28.2709 13:45.3649 14:78.238 15:38.7903 16:42.1654 17:19.1956 18:41.5905 19:55.7587 20:42.0475 21:41.8363 22:15.5979 23:37.2617 24:57.6256 25:44.6274 26:42.4111 27:19.9566 28:36.4425 29:62.9067 30:36.0087 31:47.2194 32:24.2915 33:63.7652 34:73.8866 35:41.498 36:42.4065 37:18.7135 38:40.9357 39:52.6316 40:37.4269 
1 1:42.7077 2:21.5116 3:46.5116 4:62.7907 5:40.6977 6:42.8571 7:15.3417 8:46.0251 9:64.1562 10:42.5384 11:46.0578 12:27.6134 13:44.05 14:79.5529 15:38.7903 16:42.1555 17:19.1083 18:40.9463 19:55.96 20:42.3112 21:42.0528 22:16.4645 23:36.8284 24:58.4922 25:45.0607 26:42.4545 27:20.8243 28:36.0087 29:64.2082 30:36.0087 31:47.3205 32:26.3158 33:63.7652 34:72.8745 35:41.498 36:42.5731 37:17.5644 38:39.8126 39:53.8642 40:38.6417 
1 1:42.4331 2:22.714 3:46.5929 4:61.7356 5:39.0215 6:42.8372 7:15.3846 8:42.6573 9:64.3357 10:43.3566 11:46.2443 12:28.1046 13:42.4837 14:80.3922 15:39.2157 16:42.3235 17:19.5989 18:41.021 19:56.5178 20:42.3883 21:41.9201 22:15.6454 23:38.2442 24:59.1047 25:43.4594 26:42.4771 27:19.1972 28:37.0855 29:64.1361 30:35.7766 31:47.4112 32:26.4228 33:65.0407 34:75.2033 35:42.6829 36:43.1466 37:19.0931 38:42.9594 39:58.4726 40:40.5728 
1 1:42.3188 2:20.8817 3:46.9838 4:62.645 5:38.8631 6:42.9071 7:16.0839 8:44.7552 9:64.3357 10:44.0559 11:45.6564 12:27.451 13:43.1373 14:77.1242 15:37.9085 16:42.1197 17:19.1956 18:41.1335 19:55.7587 20:42.0475 21:41.8514 22:16.087 23:36.9565 24:58.2609 25:43.913 26:42.4414 27:20.4259 28:36.5059 29:64.3199 30:35.6367 31:47.3042 32:25.4582 33:63.1365 34:75.3564 35:41.7515 36:42.8402 37:18.9573 38:42.654 39:58.0569 40:40.2844 
1 1:42.782 2:21.6374 3:46.1988 4:64.9123 5:39.1813 6:43.0273 7:14.7265 8:44.1795 9:65.2174 10:43.4783 11:45.8582 12:27.1883 13:43.7666 14:76.2599 15:38.4615 16:42.1247 17:18.9464 18:41.5896 19:55.915 20:41.5896 21:41.9991 22:16.6667 23:37.2807 24:59.6491 25:42.9825 26:42.6445 27:20.5869 28:36.7937 29:64.827 30:36.3557 31:46.7317 32:24.4141 33:61.5234 34:73.2422 35:41.0156 36:42.5989 37:18.0995 38:41.8552 39:55.4299 40:40.724 
1 1:42.8072 2:21.5618 3:47.2028 4:64.1026 5:39.0443 6:42.9568 7:16.0502 8:45.3594 9:64.201 10:44.6615 11:45.7293 12:27.6134 13:42.735 14:74.2932 15:39.4477 16:42.1101 17:20.0182 18:41.4013 19:55.505 20:41.8562 21:42.0095 22:16.4645 23:36.8284 24:58.4922 25:44.1941 26:42.4545 27:20.3905 28:36.4425 29:64.2082 30:36.0087 31:46.6995 32:24.6548 33:61.144 34:72.9783 35:41.4201 36:42.3077 37:18.6698 38:42.007 39:53.6756 40:39.6733 
1 1:42.4769 2:21.4244 3:46.9021 4:63.1152 5:37.6375 6:42.7774 7:15.3631 8:43.9944 9:63.5475 10:44.6927 11:45.4899 12:27.2727 13:42.8571 14:75.3247 15:38.3117 16:42.2366 17:18.9552 18:41.6089 19:56.4031 20:41.6089 21:41.9257 22:16.4147 23:37.149 24:58.7473 25:43.6285 26:42.4479 27:20.8424 28:36.4742 29:64.264 30:36.0399 31:46.7317 32:24.4141 33:61.5234 34:73.2422 35:41.0156 36:42.6606 37:18.3697 38:42.4799 39:56.2572 40:39.0356 
1 1:41.9092 2:16.8899 3:44.8457 4:62.318 5:41.3512 6:43.0282 7:15.5039 8:44.3975 9:62.0155 10:41.5786 11:46.1435 12:26.8456 13:45.6376 14:81.2081 15:38.9262 16:41.8476 17:18.0222 18:41.1275 19:56.3771 20:42.976 21:42.3937 22:16.2281 23:36.8421 24:60.9649 25:46.9298 26:42.4771 27:22.6876 28:36.6492 29:61.9546 30:36.2129 31:46.6407 32:27.2904 33:62.3782 34:70.1754 35:40.9357 36:41.573 37:17.9978 38:39.3701 39:50.6187 40:37.1204 
1 1:41.7678 2:17.341 3:44.5087 4:62.4277 5:41.0405 6:42.7279 7:15.3203 8:45.2646 9:60.585 10:42.4791 11:45.7682 12:26.0586 13:44.9511 14:80.7818 15:37.785 16:41.9252 17:18.2565 18:40.6207 19:56.1387 20:42.9028 21:42.0415 22:15.5777 23:36.7806 24:59.2817 25:47.1657 26:42.3077 27:22.0493 28:36.7488 29:61.3921 30:35.8841 31:46.7467 32:28.0561 33:62.1242 34:72.1443 35:41.0822 36:41.3953 37:18.6263 38:38.4168 39:50.0582 40:36.0885 
1 1:41.943 2:17.4622 3:44.8196 4:62.8638 5:41.3271 6:42.8073 7:15.3739 8:45.4228 9:61.4955 10:42.6275 11:46.0224 12:26.3158 13:44.7368 14:82.2368 15:38.1579 16:41.937 17:17.8245 18:40.6764 19:56.2157 20:43.4186 21:42.2058 22:15.6386 23:37.3588 24:59.9479 25:46.4813 26:42.4414 27:22.1643 28:36.9405 29:61.7123 30:36.0713 31:47.1545 32:28.4842 33:63.0722 34:73.2452 35:41.7091 36:41.6274 37:18.8902 38:38.961 39:50.7674 40:36.5998 
1 1:41.928 2:17.4317 3:44.7414 4:62.7542 5:41.2551 6:42.8073 7:15.3739 8:45.4228 9:61.4955 10:42.6275 11:45.817 12:26.1609 13:44.4735 14:81.7528 15:37.9333 16:41.8956 17:17.8653 18:40.7696 19:56.3445 20:43.06 21:42.2058 22:15.6386 23:37.3588 24:59.9479 25:46.4813 26:42.4229 27:22.1546 28:36.9244 29:61.6855 30:36.0556 31:47.2081 32:28.4553 33:63.0081 34:73.1707 35:41.6667 36:41.5981 37:18.8235 38:38.8235 39:50.5882 40:36.4706 
0.90380142039574873 1:41.9638 2:17.5439 3:44.4444 4:62.5731 5:41.5205 6:42.6676 7:16.0727 8:44.724 9:61.4955 10:42.6275 11:45.847 12:26.178 13:44.5026 14:81.1518 15:37.9581 16:41.8478 17:19.0304 18:39.8731 19:55.7318 20:43.0449 21:42.2857 22:15.3914 23:36.9393 24:61.1258 25:46.6139 26:42.3504 27:22.2317 28:37.1954 29:61.1372 30:36.3403 31:46.8064 32:27.972 33:60.9391 34:71.9281 35:40.959 36:41.8014 37:18.4971 38:39.3064 39:50.8671 40:35.8382 
1 1:42.0448 2:17.8161 3:44.2529 4:62.6437 5:43.6782 6:42.877 7:15.299 8:45.8971 9:61.1961 10:42.42 11:45.9371 12:26.2295 13:44.5902 14:81.3115 15:38.0328 16:41.8907 17:18.3774 18:40.7889 19:55.5805 20:43.03 21:42.3111 22:15.8242 23:36.9231 24:60.6593 25:46.5934 26:42.5054 27:22.0398 28:37.5972 29:62.2299 30:35.8686 31:46.5887 32:27.3171 33:62.439 34:69.2683 35:40.9756 36:41.7824 37:18.54 38:40.5562 39:50.9849 40:35.9212 
1 1:42.1512 2:18.0337 3:44.7935 4:63.409 5:43.0483 6:42.6481 7:15.3417 8:44.6304 9:60.6695 10:42.5384 11:46.0526 12:26.3331 13:44.7663 14:81.6327 15:38.183 16:41.9736 17:18.6533 18:40.4914 19:55.96 20:43.2211 21:42.1828 22:15.5979 23:36.8284 24:59.792 25:46.7938 26:42.4295 27:22.1354 28:36.8924 29:61.6319 30:36.0243 31:46.9161 32:28.3401 33:62.753 34:69.8381 35:41.498 36:41.6374 37:18.7354 38:38.6417 39:49.1803 40:36.2998 
1 1:42.0598 2:17.2712 3:46.0564 4:65.0547 5:40.8751 6:42.8873 7:14.7992 8:44.3975 9:62.0155 10:42.2833 11:45.983 12:26.1438 13:44.4444 14:81.6993 15:39.2157 16:41.8719 17:18.8172 18:40.3226 19:55.5556 20:43.0108 21:42.1234 22:15.544 23:37.5648 24:60.0173 25:46.6321 26:42.3342 27:22.4041 28:36.1913 29:61.1805 30:36.1913 31:46.6341 32:27.3438 33:61.5234 34:71.2891 35:41.0156 36:41.5073 37:18.018 38:39.4144 39:49.5495 40:37.1622 
1 1:42.0222 2:17.5439 3:44.4444 4:63.7427 5:41.5205 6:43.0407 7:15 8:44.2857 9:62.1429 10:43.5714 11:45.683 12:25.7898 13:45.1322 14:81.2379 15:37.3952 16:41.9713 17:18.0556 18:41.2037 19:56.4815 20:43.0556 21:42.2622 22:15.7895 23:36.8421 24:61.4035 25:46.4912 26:42.6316 27:22.3782 28:36.8583 29:62.308 30:36.4195 31:46.6341 32:27.3438 33:61.5234 34:71.2891 35:41.0156 36:41.5629 37:18.1406 38:39.6825 39:49.8866 40:37.415 
1 1:41.9113 2:17.2811 3:44.9309 4:64.5161 5:40.8986 6:42.9487 7:14.9679 8:44.191 9:62.01 10:43.4783 11:45.5844 12:25.9909 13:44.1845 14:80.5718 15:37.037 16:41.8605 17:18.2482 18:40.6022 19:54.7445 20:43.3394 21:42.2857 22:15.8311 23:36.9393 24:60.686 25:46.6139 26:42.5885 27:22.3097 28:37.1829 29:62.1172 30:36.308 31:46.9062 32:27.972 33:61.9381 34:71.9281 35:41.958 36:41.7532 37:18.4758 38:40.4157 39:50.8083 40:35.7968 
1 1:42.1022 2:17.6263 3:44.6533 4:64.0423 5:41.1281 6:42.8773 7:14.82 8:43.7544 9:61.3973 10:42.343 11:45.7847 12:25.9572 13:44.1272 14:80.4672 15:38.9358 16:41.8742 17:18.1159 18:40.308 19:55.7065 20:43.4783 21:42.2857 22:15.8311 23:36.9393 24:60.686 25:46.6139 26:42.5448 27:22.3097 28:37.1829 29:62.1172 30:36.308 31:46.6341 32:27.3438 33:61.5234 34:71.2891 35:41.0156 36:41.4414 37:18.0383 38:38.3315 39:49.6054 40:37.2041 
1 1:41.7962 2:17.2811 3:44.3548 4:63.3641 5:40.8986 6:43.0605 7:15.6695 8:43.4473 9:62.6781 10:42.735 11:45.8498 12:25.7086 13:44.1661 14:81.0811 15:38.2334 16:42.0785 17:18.4843 18:41.1275 19:56.8392 20:42.976 21:42.2135 22:15.7549 23:36.7615 24:59.9562 25:46.8271 26:42.4967 27:22.1932 28:36.9887 29:62.228 30:36.5535 31:46.6068 32:27.972 33:61.9381 34:69.9301 35:40.959 36:41.5029 37:19.6759 38:38.1944 39:48.6111 40:35.8796 
1 1:41.8361 2:17.4419 3:44.7674 4:62.7907 5:41.2791 6:42.807 7:15.4494 8:45.6461 9:61.0955 10:42.8371 11:45.9477 12:26.1609 13:44.4735 14:81.7528 15:38.5873 16:41.9281 17:18.1984 18:40.4914 19:55.96 20:43.2211 21:42.1828 22:15.5979 23:36.8284 24:59.3588 25:47.227 26:42.4111 27:21.692 28:36.8764 29:61.6052 30:36.4425 31:46.8876 32:28.1407 33:62.3116 34:72.3618 35:41.206 36:41.4404 37:18.9125 38:39.0071 39:49.6454 40:36.643 
1 1:42.029 2:17.4014 3:44.6636 4:64.3852 5:41.1833 6:43.0986 7:14.7992 8:45.1022 9:62.0155 10:42.2833 11:46.1026 12:26.6667 13:45.3333 14:82.6667 15:38.6667 16:41.9087 17:17.0664 18:41.0517 19:56.7343 20:42.8967 21:42.2622 22:15.7895 23:36.8421 24:60.0877 25:46.9298 26:42.5262 27:21.8627 28:36.7293 29:62.0901 30:36.2921 31:46.6407 32:27.2904 33:62.3782 34:71.1501 35:40.9357 36:41.5051 37:18.2648 38:39.9543 39:50.2283 40:35.3881 
1 1:41.7538 2:16.8507 3:44.1604 4:62.1732 5:41.2551 6:42.8771 7:17.4703 8:45.4228 9:60.7966 10:44.0252 11:45.6863 12:26.1609 13:43.8195 14:79.1367 15:37.9333 16:41.937 17:17.8245 18:40.6764 19:55.7587 20:42.9616 21:42.1624 22:15.6386 23:36.9244 24:60.3823 25:46.9157 26:42.4348 27:22.1836 28:36.9726 29:62.201 30:35.6677 31:47.3096 32:28.4553 33:63.0081 34:72.1545 35:41.6667 36:41.5294 37:18.8457 38:38.8693 39:50.6478 40:36.5135 
1 1:41.7097 2:17.2216 3:43.628 4:61.9977 5:41.9059 6:43.1624 7:17.1062 8:44.9038 9:62.01 10:44.191 11:46.0349 12:26.2273 13:45.7297 14:80.6994 15:38.3322 16:42.0055 17:18.0305 18:40.6842 19:56.4031 20:42.5335 21:42.2622 22:15.7895 23:36.8421 24:60.0877 25:47.3684 26:42.5448 27:22.7472 28:37.1829 29:62.5547 30:36.308 31:46.7836 32:27.3171 33:62.439 34:70.2439 35:40.9756 36:41.4414 37:18.0383 38:38.3315 39:50.7328 40:37.2041 
1 1:41.8403 2:17.3712 3:45.165 4:61.9572 5:42.2698 6:42.9286 7:15.0107 8:42.8878 9:62.1873 10:42.173 11:45.5195 12:25.9909 13:44.1845 14:77.9727 15:38.3366 16:41.925 17:18.0556 18:40.7407 19:55.0926 20:43.5185 21:42.2164 22:15.8381 23:36.9556 24:59.8328 25:46.6344 26:42.3824 27:22.8843 28:36.2694 29:62.1762 30:36.2694 31:46.6407 32:26.3158 33:61.4035 34:71.1501 35:40.9357 36:41.573 37:17.9978 38:39.3701 39:50.6187 40:37.1204 
1 1:41.7436 2:17.331 3:43.9053 4:62.3917 5:42.7499 6:42.8273 7:16.0279 8:43.9024 9:61.324 10:41.8118 11:45.5787 12:26.0247 13:44.242 14:79.3754 15:38.3865 16:41.9708 17:18.7129 18:41.0771 19:55.2259 20:41.99 21:41.8253 22:15.145 23:36.7806 24:58.4163 25:45.8676 26:42.4675 27:22.9537 28:36.8125 29:63.6639 30:36.3794 31:46.6 32:27.027 33:61.0611 34:69.0691 35:41.041 36:41.0465 37:19.7905 38:39.5809 39:47.7299 40:34.9243 
1 1:42.1299 2:18.1499 3:44.4965 4:62.6464 5:42.1546 6:42.766 7:14.1945 8:43.2931 9:61.7459 10:43.2931 11:46.1589 12:26.5076 13:45.7256 14:80.1856 15:38.4361 16:41.925 17:18.0556 18:40.2778 19:56.0185 20:42.5926 21:42.2418 22:14.9516 23:36.9393 24:62.0053 25:45.2946 26:42.4694 27:21.901 28:36.7937 29:62.6369 30:35.9177 31:46.9786 32:27.3171 33:62.439 34:72.1951 35:40.9756 36:41.7341 37:18.5185 38:38.1944 39:52.0833 40:37.037 
1 1:41.7391 2:17.4014 3:44.6636 4:61.4849 5:41.1833 6:42.9173 7:15.4386 8:44.2105 9:61.7544 10:42.1053 11:46.0224 12:26.9737 13:45.3947 14:80.2632 15:38.1579 16:41.8423 17:18.3402 18:39.89 19:55.9376 20:42.641 21:42.1167 22:15.2505 23:37.037 24:61.0022 25:46.1874 26:42.5764 27:22.7173 28:36.6972 29:62.4727 30:36.2604 31:47.0411 32:28.1124 33:62.249 34:72.2892 35:41.1647 36:41.5584 37:18.9125 38:37.8251 39:50.8274 40:36.643 
1 1:41.778 2:17.4419 3:44.7674 4:62.2093 5:41.2791 6:42.5384 7:16.0502 8:43.9637 9:60.014 10:42.568 11:45.9566 12:26.3158 13:44.7368 14:80.2632 15:38.1579 16:41.9736 17:18.6533 18:39.5814 19:55.96 20:43.2211 21:42.0961 22:15.5979 23:35.9619 24:60.2253 25:45.9272 26:42.3677 27:21.2581 28:36.8764 29:62.9067 30:34.2733 31:46.9636 32:27.3556 33:62.8166 34:70.922 35:41.54 36:41.8224 37:18.7135 38:38.5965 39:52.6316 40:36.2573 
1 1:41.7487 2:16.8019 3:44.6118 4:61.993 5:41.1356 6:42.807 7:16.1517 8:44.2416 9:60.3933 10:42.8371 11:45.5853 12:26.178 13:43.8482 14:78.534 15:37.9581 16:41.8721 17:17.8164 18:40.201 19:56.19 20:43.8556 21:42.119 22:15.6386 23:36.9244 24:59.9479 25:45.6125 26:42.3795 27:21.2858 28:37.3588 29:62.9887 30:34.318 31:47.2561 32:27.4669 33:63.0722 34:72.2279 35:41.7091 36:41.6471 37:18.8457 38:38.8693 39:53.0035 40:36.5135 
1 1:41.7199 2:17.4419 3:44.186 4:62.7907 5:40.1163 6:42.3693 7:16.7364 8:43.9331 9:59.2748 10:42.5384 11:45.9566 12:25.6579 13:44.7368 14:80.2632 15:38.1579 16:42.1461 17:17.8164 18:40.201 19:56.6469 20:44.3125 21:42.0528 22:15.5979 23:35.5286 24:58.9255 25:45.9272 26:42.3677 27:21.692 28:36.0087 29:62.9067 30:35.141 31:46.5327 32:27.163 33:59.3561 34:70.4225 35:40.2414 36:41.7736 37:18.6916 38:39.7196 39:53.7383 40:35.0467 
1 1:41.7199 2:17.4419 3:44.186 4:62.7907 5:40.1163 6:42.3693 7:16.7364 8:43.9331 9:59.2748 10:42.5384 11:45.8909 12:25.6579 13:44.7368 14:78.9474 15:38.1579 16:42.1461 17:17.8164 18:40.201 19:56.6469 20:44.3125 21:42.0528 22:15.5979 23:35.5286 24:58.9255 25:45.9272 26:42.3677 27:21.692 28:36.0087 29:62.9067 30:35.141 31:46.5327 32:27.163 33:59.3561 34:70.4225 35:40.2414 36:41.6764 37:18.648 38:39.627 39:53.6131 40:34.965 
1 1:41.7199 2:17.4419 3:44.186 4:62.7907 5:40.1163 6:42.3693 7:16.7364 8:43.9331 9:59.2748 10:42.5384 11:45.9566 12:25.6579 13:44.7368 14:80.2632 15:38.1579 16:42.1101 17:18.1984 18:40.0364 19:56.4149 20:44.131 21:42.0528 22:15.5979 23:35.5286 24:58.9255 25:45.9272 26:42.3677 27:21.692 28:36.0087 29:62.9067 30:35.141 31:46.4859 32:27.1357 33:59.2965 34:70.3518 35:40.201 36:41.9393 37:18.7135 38:40.9357 39:54.9708 40:35.0877 
1 1:41.4986 2:16.1476 3:43.8293 4:61.707 5:40.3691 6:42.3398 7:15.331 8:44.5993 9:58.5366 10:42.5087 11:45.4486 12:25.3741 13:44.242 14:78.0742 15:37.7358 16:42.062 17:18.7129 18:40.1643 19:55.6823 20:42.9028 21:42.178 22:15.5642 23:36.3165 24:59.2304 25:46.6926 26:42.381 27:21.2213 28:35.9463 29:63.6639 30:35.5132 31:46.7 32:27.027 33:61.0611 34:71.0711 35:41.041 36:41.2993 37:18.583 38:37.1661 39:52.2648 40:36.0046 
1 1:41.8361 2:16.2791 3:44.7674 4:62.7907 5:41.2791 6:42.7178 7:16.0391 8:42.5384 9:62.7615 10:41.841 11:45.9566 12:26.3158 13:44.7368 14:80.2632 15:38.1579 16:41.8913 17:18.2815 18:40.2194 19:56.6728 20:42.9616 21:42.0528 22:15.1646 23:36.3951 24:60.2253 25:45.4939 26:42.8072 27:23.622 28:37.1829 29:63.867 30:37.1829 31:46.8342 32:27.163 33:62.3742 34:70.4225 35:41.2475 36:41.8224 37:18.7135 38:38.5965 39:52.6316 40:36.2573 
0.95354772503818197 1:42.0775 2:17.0288 3:44.6271 4:64.0047 5:40.5167 6:42.6676 7:15.3739 8:42.6275 9:62.1943 10:41.9287 11:45.817 12:26.1609 13:44.4735 14:80.4447 15:37.9333 16:41.9296 17:18.2983 18:40.2562 19:56.7246 20:42.5435 21:42.1624 22:15.2042 23:36.49 24:60.8167 25:45.6125 26:42.6586 27:23.4681 28:36.9405 29:63.8853 30:36.9405 31:47.1853 32:27.6639 33:63.5246 34:70.6967 35:42.0082 36:41.7946 37:18.9125 38:39.0071 39:53.1915 40:36.643 
1 1:41.7291 2:17.301 3:44.406 4:62.2837 5:41.5225 6:42.8671 7:17.4095 8:44.5682 9:61.2813 10:42.4791 11:45.638 12:26.0586 13:43.6482 14:80.7818 15:37.785 16:41.8339 17:18.2565 18:40.6207 19:55.6823 20:42.4464 21:42.0415 22:15.5777 23:36.7806 24:60.1471 25:46.3003 26:42.2944 27:21.6544 28:35.9463 29:62.3647 30:35.5132 31:46.7467 32:27.0541 33:62.1242 34:71.1423 35:41.0822 36:41.4832 37:18.5615 38:37.123 39:52.2042 40:37.123 
1 1:41.9753 2:17.6471 3:44.1176 4:62.9412 5:38.8235 6:42.695 7:15.6139 8:41.8737 9:62.4556 10:42.5834 11:45.7582 12:27.4064 13:45.4545 14:78.877 15:36.7647 16:42.5848 17:19.0698 18:40 19:59.5349 20:42.7907 21:42.4802 22:16.718 23:38.2754 24:63.3524 25:44.8746 26:41.886 27:23.2558 28:37.2971 29:64.502 30:39.0522 31:47.2505 32:26.5036 33:63.2008 34:73.3945 35:40.7747 36:42.0048 37:19.1159 38:40.6213 39:51.374 40:38.2318 
1 1:41.8728 2:17.089 3:44.7849 4:62.4632 5:39.4814 6:42.8571 7:14.936 8:43.3855 9:61.8777 10:42.6743 11:45.7831 12:27.4615 13:45.5459 14:81.7147 15:34.8292 16:42.5978 17:19.0964 18:40.5217 19:58.6865 20:42.3847 21:42.5363 22:16.2996 23:37.8855 24:62.1145 25:45.3744 26:42.8634 27:22.8471 28:37.7856 29:63.7083 30:37.3462 31:47.5996 32:26.5849 33:63.3947 34:73.6196 35:41.9223 36:42.0359 37:17.9856 38:38.3693 39:53.9568 40:37.1703 
1 1:41.9674 2:17.4723 3:45.4281 4:61.1532 5:39.604 6:43.2545 7:16.0056 8:43.8413 9:62.6305 10:44.5372 11:45.7784 12:27.0627 13:44.8845 14:77.8878 15:37.6238 16:42.1582 17:18.2983 18:40.7136 19:57.6395 20:41.6285 21:42.1329 22:17.0529 23:36.2921 24:61.2156 25:45.0372 26:42.8072 27:22.3097 28:38.4952 29:63.867 30:37.1829 31:47.2195 32:26.3672 33:62.5 34:72.2656 35:41.0156 36:41.6667 37:18.0383 38:38.3315 39:52.9876 40:37.2041 
1 1:41.9886 2:19.3292 3:44.3434 4:63.104 5:40.3638 6:42.7986 7:16.3934 8:45.082 9:63.5246 10:43.7158 11:45.2746 12:27.476 13:44.7284 14:76.0383 15:36.4217 16:42.3129 17:20.6278 18:42.1525 19:56.0538 20:40.8072 21:42.1188 22:18.3761 23:38.8889 24:60.2564 25:44.8718 26:42.112 27:17.5364 28:35.9281 29:62.0188 30:36.7836 31:47.0244 32:23.4375 33:61.5234 34:76.1719 35:41.9922 36:42.6097 37:18.4971 38:41.6185 39:55.4913 40:40.4624 
1 1:41.9886 2:19.3292 3:44.3434 4:63.104 5:40.3638 6:42.8279 7:17.0882 8:45.1128 9:63.568 10:43.7457 11:45.3384 12:27.476 13:45.3674 14:76.0383 15:36.4217 16:42.268 17:20.1794 18:42.1525 19:55.6054 20:40.8072 21:42.0625 22:17.9795 23:38.5274 24:60.3596 25:44.9486 26:42.112 27:17.5364 28:35.9281 29:62.0188 30:36.7836 31:46.9268 32:23.4375 33:60.5469 34:75.1953 35:41.9922 36:43.6975 37:19.2308 38:44.4712 39:60.0962 40:39.6635 
1 1:41.9169 2:19.6418 3:44.483 4:62.3917 5:39.8614 6:42.9972 7:17.5193 8:45.5501 9:64.4709 10:44.1486 11:45.4664 12:28.0679 13:45.0392 14:76.3708 15:35.9008 16:42.3814 17:20.5386 18:42.4464 19:56.1387 20:40.6207 21:42.0597 22:18.1818 23:37.6623 24:60.6061 25:45.0216 26:42.128 27:17.3085 28:35.9152 29:62.3107 30:36.7806 31:47.1471 32:24.0481 33:62.1242 34:77.1543 35:42.0842 36:42.5234 37:18.7135 38:42.1053 39:56.1404 40:38.5965 
1 1:42.1267 2:19.7674 3:45.3488 4:62.7907 5:40.1163 6:43.0951 7:17.3611 8:45.8333 9:64.5833 10:44.4444 11:45.6693 12:28.2337 13:45.3053 14:76.8221 15:36.1129 16:42.2868 17:20.4267 18:42.2152 19:55.833 20:40.8534 21:42.1395 22:17.7643 23:37.695 24:60.6586 25:45.0607 26:42.281 27:17.3536 28:36.4425 29:62.4729 30:36.8764 31:47.3684 32:24.3161 33:62.8166 34:77.001 35:42.5532 36:42.9074 37:19.9531 38:42.2535 39:58.6854 40:38.7324 
1 1:42.0545 2:19.3072 3:45.4287 4:63.0324 5:40.318 6:42.9059 7:17.0648 8:45.7338 9:64.1638 10:43.686 11:45.2746 12:27.476 13:45.3674 14:76.0383 15:36.4217 16:42.268 17:20.1794 18:42.1525 19:55.157 20:41.2556 21:42.0333 22:17.9487 23:38.0342 24:59.8291 25:44.8718 26:42.3392 27:18.1347 28:36.2694 29:62.6079 30:37.133 31:46.9268 32:22.4609 33:61.5234 34:76.1719 35:41.0156 36:42.7119 37:18.0995 38:41.8552 39:56.5611 40:39.5928 
1 1:42.1848 2:19.186 3:44.7674 4:62.7907 5:40.1163 6:42.9568 7:17.4459 8:46.7551 9:65.5967 10:42.568 11:45.795 12:28.2709 13:45.3649 14:75.6082 15:36.1604 16:42.3374 17:20.9281 18:41.8562 19:55.96 20:40.9463 21:42.0961 22:17.331 23:37.695 24:60.2253 25:45.0607 26:42.2376 27:16.9197 28:35.5748 29:61.1714 30:37.744 31:47.3367 32:25.1509 33:62.3742 34:76.4588 35:43.2596 36:42.9074 37:18.7793 38:42.2535 39:56.338 40:38.7324 
1 1:42.1329 2:19.242 3:43.7318 4:62.3907 5:40.2332 6:43.1786 7:16.8895 8:44.335 9:65.4469 10:45.0387 11:45.4308 12:27.4331 13:45.7218 14:75.1143 15:35.9242 16:42.268 17:20.1794 18:41.704 19:55.6054 20:40.8072 21:42.1306 22:18.4211 23:37.2807 24:60.9649 25:44.7368 26:42.3818 27:17.5208 28:36.3557 29:62.6369 30:37.2317 31:47.1642 32:23.9044 33:60.757 34:76.6932 35:41.8327 36:42.7119 37:18.0995 38:41.8552 39:56.5611 40:39.5928 
1 1:42.0455 2:18.7607 3:44.3434 4:63.6725 5:39.7953 6:42.9066 7:17.313 8:45.7064 9:65.7895 10:43.6288 11:45.6678 12:27.3794 13:45.6323 14:76.9231 15:35.854 16:42.1784 17:20.1794 18:41.704 19:54.7085 20:41.704 21:42.2622 22:17.9825 23:37.7193 24:62.2807 25:44.7368 26:42.0693 27:17.1086 28:35.9281 29:61.1634 30:37.2113 31:47.122 32:24.4141 33:62.5 34:76.1719 35:41.0156 36:43.6823 37:19.2771 38:44.5783 39:60.241 40:39.759 
1 1:41.9954 2:17.9919 3:44.6895 4:62.101 5:40.0464 6:42.9769 7:17.4825 8:45.4545 9:65.7343 10:44.0559 11:45.3298 12:28.1046 13:44.4444 14:73.8562 15:36.6013 16:42.3675 17:21.043 18:41.6285 19:56.2672 20:41.1711 21:42.2541 22:17.8494 23:37.8755 24:61.3844 25:45.2764 26:42.1624 27:16.9418 28:36.49 29:61.6855 30:36.9244 31:47.6142 32:24.3902 33:63.0081 34:78.252 35:42.6829 36:43.0095 37:18.9798 38:42.7046 39:56.9395 40:39.1459 
1 1:42.0105 2:18.6047 3:44.7674 4:62.2093 5:40.1163 6:42.887 7:17.4459 8:45.3594 9:65.5967 10:43.2659 11:45.7293 12:28.9283 13:45.3649 14:75.6082 15:36.8179 16:42.292 17:20.9281 18:41.8562 19:55.96 20:40.9463 21:42.1828 22:18.1976 23:37.695 24:60.6586 25:45.0607 26:42.281 27:17.3536 28:36.4425 29:62.039 30:36.8764 31:47.3367 32:24.1449 33:62.3742 34:77.4648 35:42.2535 36:42.9074 37:18.7793 38:42.2535 39:56.338 40:38.7324 
1 1:42.1083 2:18.0653 3:44.8718 4:62.3543 5:40.2098 6:42.9568 7:17.4459 8:45.3594 9:65.5967 10:43.2659 11:45.6936 12:28.9474 13:45.3947 14:75.6579 15:36.8421 16:42.292 17:20.9281 18:41.8562 19:55.96 20:40.9463 21:42.0961 22:17.7643 23:37.695 24:60.2253 25:45.0607 26:42.2376 27:17.3536 28:36.4425 29:62.039 30:36.8764 31:47.4645 32:24.3655 33:61.9289 34:78.1726 35:42.6396 36:42.9074 37:18.7793 38:42.2535 39:56.338 40:38.7324 
1 1:42.1267 2:18.6047 3:45.3488 4:62.7907 5:40.6977 6:42.887 7:17.4459 8:45.3594 9:65.5967 10:43.2659 11:45.8607 12:28.9283 13:46.0224 14:76.2656 15:37.4753 16:42.201 17:20.9281 18:41.8562 19:55.96 20:40.9463 21:42.1395 22:17.7643 23:37.695 24:60.2253 25:45.0607 26:42.2376 27:17.3536 28:36.4425 29:62.039 30:36.8764 31:47.3367 32:24.1449 33:62.3742 34:77.4648 35:42.2535 36:42.9074 37:18.7793 38:42.2535 39:56.338 40:38.7324 
1 1:42.2248 2:18.648 3:45.4545 4:62.9371 5:40.7925 6:42.887 7:17.4459 8:45.3594 9:65.5967 10:43.2659 11:45.6993 12:28.9093 13:45.3351 14:75.5585 15:36.7937 16:42.3374 17:20.9281 18:41.8562 19:56.4149 20:40.9463 21:42.0961 22:17.7643 23:37.695 24:60.2253 25:45.0607 26:42.2376 27:16.9197 28:36.4425 29:62.039 30:36.8764 31:47.2362 32:24.1449 33:62.3742 34:76.4588 35:42.2535 36:42.9074 37:18.7793 38:42.2535 39:56.338 40:38.7324 
1 1:42.1267 2:18.6047 3:45.3488 4:62.7907 5:40.6977 6:42.8967 7:17.337 8:45.7698 9:65.8807 10:42.9958 11:45.7293 12:28.9283 13:45.3649 14:75.6082 15:36.8179 16:42.2152 17:20.8901 18:41.7802 19:55.8583 20:40.8719 21:42.0961 22:17.7643 23:37.695 24:60.2253 25:45.0607 26:42.281 27:17.3536 28:36.4425 29:62.039 30:36.8764 31:47.4798 32:24.218 33:62.5631 34:77.6993 35:42.3814 36:42.9074 37:18.7793 38:42.2535 39:56.338 40:38.7324 
1 1:42.0105 2:18.6047 3:44.186 4:62.7907 5:41.2791 6:43.0962 7:17.4459 8:46.0572 9:66.9923 10:43.9637 11:45.6993 12:28.9093 13:45.3351 14:75.5585 15:36.7937 16:42.292 17:20.9281 18:41.8562 19:55.96 20:40.9463 21:42.0961 22:17.7643 23:37.695 24:60.2253 25:45.0607 26:42.3677 27:17.3536 28:36.8764 29:62.039 30:36.8764 31:47.3367 32:24.1449 33:62.3742 34:77.4648 35:42.2535 36:42.6729 37:18.7793 38:42.2535 39:56.338 40:38.7324 
1 1:42.1267 2:18.6047 3:44.7674 4:62.7907 5:40.6977 6:42.9758 7:17.313 8:46.3989 9:65.7895 10:42.9363 11:45.6693 12:28.8903 13:45.3053 14:75.5089 15:36.7695 16:42.2727 17:20.9186 18:41.8372 19:55.9345 20:41.3824 21:42.0528 22:17.7643 23:37.695 24:59.792 25:45.0607 26:42.306 27:17.3461 28:36.4267 29:62.8794 30:36.8604 31:47.3367 32:24.1449 33:62.3742 34:77.4648 35:42.2535 36:42.9074 37:18.7793 38:42.2535 39:56.338 40:38.7324 
1 1:42.0686 2:18.6047 3:44.7674 4:62.7907 5:40.1163 6:42.9568 7:17.4459 8:45.3594 9:65.5967 10:43.2659 11:45.6693 12:28.8903 13:45.3053 14:75.5089 15:36.7695 16:42.292 17:20.9281 18:41.8562 19:55.96 20:40.9463 21:42.0528 22:17.7643 23:37.695 24:59.792 25:45.0607 26:42.1943 27:16.9197 28:36.4425 29:62.039 30:36.4425 31:47.3205 32:24.2915 33:62.753 34:75.9109 35:42.5101 36:42.9074 37:18.7793 38:42.2535 39:56.338 40:38.7324 
1 1:42.0686 2:18.6047 3:44.7674 4:62.7907 5:40.1163 6:42.887 7:17.4459 8:45.3594 9:65.5967 10:43.2659 11:45.6693 12:28.8903 13:45.3053 14:75.5089 15:36.7695 16:42.201 17:20.9281 18:41.8562 19:55.05 20:40.9463 21:42.0803 22:17.7029 23:37.5648 24:60.4491 25:44.905 26:42.4335 27:17.452 28:36.6492 29:62.3909 30:37.0855 31:47.2362 32:24.1449 33:61.3682 34:76.4588 35:42.2535 36:42.891 37:18.9798 38:42.7046 39:56.9395 40:39.1459 
1 1:42.0686 2:18.6047 3:44.7674 4:62.7907 5:40.1163 6:42.9758 7:17.313 8:46.3989 9:65.7895 10:42.9363 11:45.6693 12:28.8903 13:45.3053 14:75.5089 15:36.7695 16:42.3374 17:20.9281 18:41.8562 19:55.96 20:40.9463 21:42.0961 22:17.7643 23:37.695 24:60.2253 25:45.0607 26:42.2376 27:17.3536 28:36.4425 29:61.1714 30:36.8764 31:47.3367 32:24.1449 33:62.3742 34:77.4648 35:42.2535 36:42.9074 37:18.7793 38:42.2535 39:56.338 40:38.7324 
1 1:42.0686 2:18.6047 3:44.7674 4:62.7907 5:40.1163 6:42.8173 7:17.4459 8:45.3594 9:64.8988 10:43.2659 11:45.7293 12:28.9283 13:45.3649 14:75.6082 15:36.8179 16:42.292 17:20.9281 18:41.8562 19:55.96 20:40.9463 21:42.0961 22:17.7643 23:37.695 24:60.2253 25:45.0607 26:42.3899 27:17.452 28:36.2129 29:62.3909 30:36.6492 31:47.4216 32:24.2915 33:62.753 34:76.9231 35:42.5101 36:42.891 37:18.9798 38:42.7046 39:56.9395 40:39.1459 
1 1:42.0686 2:18.6047 3:45.3488 4:62.2093 5:40.1163 6:42.9568 7:17.4459 8:46.0572 9:65.5967 10:43.2659 11:45.6693 12:28.8903 13:45.3053 14:75.5089 15:36.7695 16:42.4284 17:20.9281 18:41.8562 19:55.96 20:41.4013 21:42.0961 22:17.7643 23:37.2617 24:60.6586 25:45.0607 26:42.2376 27:17.3536 28:36.0087 29:62.039 30:37.3102 31:47.2892 32:24.1206 33:62.3116 34:77.3869 35:42.2111 36:42.9074 37:18.7793 38:42.2535 39:56.338 40:38.7324 
1 1:42.0455 2:19.3292 3:44.9119 4:63.104 5:40.3638 6:43.0855 7:17.3853 8:47.2879 9:66.064 10:43.1154 11:45.5253 12:27.904 13:45.425 14:76.5737 15:35.6911 16:42.2232 17:21.5247 18:41.704 19:55.157 20:41.2556 21:42.0577 22:17.6572 23:38.329 24:59.8622 25:44.789 26:41.9604 27:17.6344 28:35.6989 29:61.5054 30:36.5591 31:47.2195 32:23.4375 33:61.5234 34:78.125 35:42.9688 36:42.841 37:18.0587 38:42.8894 39:57.5621 40:40.6321 
0.13470474236172356 1:42.0216 2:18.75 3:44.3182 4:63.0682 5:40.3409 6:42.7012 7:17.0648 8:46.4164 9:64.8464 10:42.3208 11:45.3384 12:27.476 13:44.7284 14:75.3994 15:36.4217 16:42.1784 17:20.6278 18:41.704 19:55.157 20:41.704 21:42.076 22:17.9487 23:38.8889 24:59.8291 25:44.4444 26:42.1975 27:17.5364 28:35.9281 29:61.5911 30:37.2113 31:47.2195 32:23.4375 33:61.5234 34:78.125 35:42.9688 36:42.8249 37:18.0995 38:41.8552 39:57.6923 40:40.724 
1 1:42.1546 2:17.585 3:43.9625 4:63.306 5:41.0317 6:42.99 7:14.3164 8:43.665 9:62.2763 10:42.2334 11:46.25 12:27.6498 13:45.4246 14:81.6327 15:38.8413 16:41.9833 17:17.6171 18:40.7974 19:56.0964 20:42.1882 21:42.2251 22:16.6521 23:36.8098 24:60.0351 25:46.4505 26:42.6323 27:22.7472 28:36.7454 29:62.5547 30:36.7454 31:46.7381 32:26.3158 33:62.3782 34:71.1501 35:40.9357 36:41.5888 37:18.7135 38:38.5965 39:52.6316 40:36.2573 
1 1:41.9648 2:17.0455 3:44.3182 4:62.5 5:40.9091 6:42.6721 7:15.6889 8:45.7026 9:60.0273 10:42.9741 11:46.0143 12:27.2374 13:44.7471 14:79.7665 15:39.559 16:41.8907 17:18.3774 18:40.7889 19:55.1322 20:42.1336 21:42.0371 22:16.4076 23:37.133 24:59.1537 25:46.2003 26:42.4359 27:22.6593 28:36.7678 29:61.9923 30:36.3403 31:46.7381 32:26.3158 33:62.3782 34:71.1501 35:40.9357 36:42.0139 37:18.54 38:40.5562 39:54.4612 40:35.9212 
1 1:42.0686 2:17.4419 3:43.6047 4:63.3721 5:44.186 6:42.6676 7:14.6751 8:44.724 9:61.4955 10:41.9287 11:45.6209 12:25.5069 13:44.4735 14:80.4447 15:38.5873 16:41.9826 17:18.7386 18:40.2194 19:56.2157 20:42.9616 21:42.0756 22:16.5074 23:36.0556 24:59.9479 25:45.6125 26:42.5098 27:22.1546 28:36.49 29:62.1199 30:36.9244 31:46.9574 32:27.4112 33:62.9442 34:70.0508 35:41.6244 36:41.8632 37:17.7096 38:40.1417 39:56.6706 40:35.4191 
1 1:42.0686 2:17.4419 3:43.6047 4:63.3721 5:44.186 6:42.6676 7:14.6751 8:44.724 9:61.4955 10:41.9287 11:45.6209 12:25.5069 13:44.4735 14:80.4447 15:38.5873 16:41.9826 17:18.7386 18:40.2194 19:56.2157 20:42.9616 21:42.0938 22:16.5146 23:36.0713 24:59.9739 25:45.6323 26:42.5098 27:22.1546 28:36.49 29:62.1199 30:36.9244 31:46.9574 32:27.4112 33:62.9442 34:70.0508 35:41.6244 36:41.8632 37:17.7096 38:40.1417 39:56.6706 40:35.4191 
1 1:41.8794 2:16.8311 3:44.6895 4:62.6814 5:41.7876 6:42.8073 7:16.0727 8:43.3263 9:60.0978 10:42.6275 11:45.6919 12:26.1267 13:44.4154 14:79.6865 15:37.8837 16:41.8913 17:18.7386 18:39.7623 19:55.7587 20:42.9616 21:42.2909 22:16.122 23:37.4728 24:60.1307 25:46.6231 26:42.2927 27:21.2858 28:36.0556 29:61.6855 30:35.6212 31:47.4112 32:28.4553 33:63.0081 34:73.1707 35:41.6667 36:41.7946 37:18.9125 38:39.0071 39:50.8274 40:36.643 
1 1:41.8551 2:16.8213 3:44.6636 4:62.645 5:41.7633 6:42.7374 7:16.0727 8:43.3263 9:60.0978 10:42.6275 11:45.9264 12:26.2985 13:44.7074 14:80.2104 15:38.1328 16:41.937 17:18.7386 18:39.7623 19:55.7587 20:42.9616 21:42.378 22:16.5577 23:37.4728 24:60.1307 25:46.6231 26:42.4269 27:21.3974 28:36.2445 29:62.0087 30:35.8079 31:47.0884 32:28.1407 33:62.3116 34:72.3618 35:41.206 36:41.8139 37:18.8679 38:38.9151 39:50.7075 40:36.5566 
1 1:41.9059 2:16.6571 3:44.8018 4:63.7565 5:41.3555 6:42.4966 7:15.6997 8:43.686 9:58.0205 10:42.3208 11:45.5195 12:25.9909 13:44.1845 14:79.2723 15:37.6868 16:41.8025 17:19.0304 18:39.42 19:55.2787 20:42.5918 21:42.137 22:15.9483 23:37.5 24:59.4828 25:46.5517 26:42.2156 27:21.8228 28:35.9435 29:61.1896 30:35.5156 31:46.8354 32:27.2904 33:62.3782 34:71.1501 35:39.961 36:41.6198 37:18.018 38:39.4144 39:50.6757 40:36.036 
1 1:41.9918 2:16.8998 3:44.8718 4:62.9371 5:41.958 6:42.5784 7:16.0391 8:43.2357 9:58.5774 10:42.5384 11:45.8553 12:26.3331 13:44.7663 14:80.316 15:38.183 16:41.8913 17:18.7386 18:39.7623 19:55.7587 20:42.9616 21:42.119 22:16.073 23:36.9244 24:59.5135 25:46.4813 26:42.4335 27:21.3787 28:36.2129 29:61.9546 30:35.7766 31:47.166 32:28.3688 33:62.8166 34:71.9352 35:40.5268 36:41.7544 37:18.7354 38:38.6417 39:50.3513 40:35.1288 
1 1:41.7962 2:16.129 3:44.9309 4:62.788 5:42.0507 6:42.5358 7:15.6889 8:43.6562 9:59.3452 10:41.6098 11:45.5844 12:25.9909 13:44.1845 14:79.2723 15:37.6868 16:41.7563 17:18.8256 18:39.8924 19:55.1322 20:42.5818 21:42.268 22:15.9003 23:38.2467 24:59.7336 25:46.4117 26:42.2469 27:21.7949 28:36.3248 29:61.1111 30:35.4701 31:46.8354 32:27.2904 33:62.3782 34:71.1501 35:40.9357 36:41.6854 37:17.9978 38:39.3701 39:50.6187 40:37.1204 
1 1:41.7971 2:17.4014 3:44.6636 4:60.9049 5:42.3434 6:42.1788 7:13.2774 8:44.0252 9:59.399 10:41.9287 11:45.6209 12:24.8528 13:45.1275 14:77.8286 15:37.9333 16:41.9963 17:18.4077 18:40.497 19:55.2232 20:44.6387 21:41.9887 22:16.5074 23:36.9244 24:59.9479 25:45.6125 26:42.4663 27:21.7202 28:36.49 29:62.5543 30:36.49 31:46.9223 32:27.2727 33:62.6263 34:71.7172 35:41.4141 36:41.6961 37:18.8679 38:40.0943 39:54.2453 40:36.5566 
1 1:41.5945 2:17.3511 3:44.5344 4:61.3071 5:41.0642 6:42.688 7:16.7247 8:42.5087 9:59.2334 10:43.2056 11:45.5729 12:25.4072 13:44.2997 14:78.8274 15:38.4365 16:41.8796 17:19.1693 18:39.7079 19:55.2259 20:42.9028 21:42.0415 22:16.4431 23:36.7806 24:60.1471 25:45.8676 26:42.4242 27:22.0875 28:36.3794 29:63.2308 30:35.9463 31:46.7467 32:27.0541 33:61.1222 34:71.1423 35:43.0862 36:41.3673 37:18.5615 38:38.2831 39:49.884 40:35.9629 
1 1:41.7989 2:17.6471 3:44.1176 4:60.5882 5:41.1765 6:42.6241 7:14.1945 8:42.5834 9:61.7459 10:42.5834 11:45.431 12:25.2918 13:45.3956 14:79.118 15:35.668 16:42.8637 17:19.1606 18:41.5146 19:59.7628 20:42.427 21:42.3979 22:15.6454 23:38.6788 24:62.1469 25:45.1977 26:42.3361 27:20.417 28:36.9244 29:62.9887 30:36.9244 31:47.4059 32:26.4766 33:63.1365 34:73.3198 35:41.7515 36:41.6 37:18.3066 38:38.9016 39:53.7757 40:35.4691 
1 1:41.4153 2:16.8311 3:43.5287 4:59.1991 5:40.0464 6:42.6172 7:16.1064 8:43.4174 9:60.2241 10:42.7171 11:45.7516 12:26.8149 13:44.4735 14:80.4447 15:37.2793 16:42.074 17:18.2815 18:40.2194 19:56.6728 20:43.4186 21:42.1395 22:15.5979 23:36.3951 24:60.2253 25:46.3605 26:42.281 27:19.9566 28:36.8764 29:63.7744 30:33.4056 31:47.1414 32:26.1044 33:62.249 34:72.2892 35:41.1647 36:41.8903 37:18.6916 38:38.5514 39:53.7383 40:36.215 
1 1:41.4875 2:16.8605 3:43.6047 4:59.8837 5:40.1163 6:42.5978 7:16.0727 8:43.3263 9:60.0978 10:42.6275 11:45.8716 12:26.8852 13:44.5902 14:80.6557 15:37.377 16:42.074 17:18.2815 18:40.2194 19:56.6728 20:43.4186 21:42.1397 22:15.7274 23:36.6972 24:60.7252 25:45.8716 26:42.4759 27:20.1313 28:37.1991 29:64.3326 30:33.698 31:47.561 32:26.4496 33:63.0722 34:73.2452 35:41.7091 36:41.8632 37:18.8902 38:38.961 39:54.3093 40:36.5998 
1 1:41.652 2:16.9988 3:43.9625 4:59.789 5:39.8593 6:42.5279 7:16.0727 8:43.3263 9:60.0978 10:41.9287 11:46.2264 12:27.6467 13:45.853 14:82.94 15:39.1099 16:41.8679 17:18.2315 18:41.021 19:55.6062 20:42.8441 21:42.2406 22:15.7 23:36.1971 24:60.1832 25:47.0999 26:42.2959 27:19.6507 28:37.1179 29:65.0655 30:33.6245 31:47.7858 32:28.866 33:65.9794 34:74.2268 35:44.3299 36:43.3243 37:21.8281 38:38.1992 39:58.663 40:42.292 
1 1:41.2918 2:16.734 3:43.8546 4:58.2804 5:39.8153 6:42.5191 7:15.3203 8:43.1755 9:59.8886 10:43.1755 11:45.3125 12:24.1042 13:44.2997 14:79.4788 15:37.1336 16:42.0164 17:18.7129 18:40.1643 19:56.1387 20:42.9028 21:42.1348 22:15.5642 23:36.7488 24:60.5275 25:46.2603 26:42.1645 27:19.922 28:37.2456 29:62.7977 30:33.3478 31:47.047 32:26.0521 33:62.1242 34:72.1443 35:42.0842 36:41.6279 37:18.6263 38:38.4168 39:53.5506 40:36.0885 
1 1:41.3395 2:16.7533 3:41.5945 4:58.3478 5:40.4391 6:42.5191 7:16.0167 8:43.1755 9:59.8886 10:42.4791 11:45.6437 12:26.6753 13:44.242 14:80.026 15:37.7358 16:42.0164 17:18.7129 18:40.1643 19:57.508 20:42.4464 21:42.0415 22:16.0104 23:36.7806 24:61.0125 25:45.8676 26:42.1212 27:19.922 28:36.8125 29:63.2308 30:33.3478 31:47 32:26.026 33:62.0621 34:72.0721 35:41.041 36:41.7442 37:19.7905 38:38.4168 39:53.5506 40:36.0885 
1 1:42.1512 2:17.452 3:45.3752 4:62.2455 5:40.7213 6:42.8372 7:16.0839 8:44.7552 9:60.8392 10:41.958 11:45.7871 12:26.1438 13:45.098 14:80.3922 15:37.9085 16:42.5648 17:19.5632 18:41.4013 19:58.6897 20:42.7662 21:41.8796 22:16.4645 23:36.3951 24:57.1924 25:44.6274 26:42.5412 27:22.1258 28:36.4425 29:62.4729 30:36.0087 31:47.0411 32:27.1084 33:63.253 34:72.2892 35:41.1647 36:41.6569 37:18.6916 38:38.5514 39:53.7383 40:36.215 
0.93081712183231868 1:42.2429 2:18.0233 3:45.9302 4:63.9535 5:40.6977 6:43.1167 7:16.0839 8:45.4545 9:62.2378 10:41.958 11:45.795 12:24.9836 13:45.3649 14:80.8679 15:37.4753 16:42.3923 17:19.2572 18:40.807 19:58.6887 20:41.724 21:42.0296 22:16.5577 23:37.037 24:57.5163 25:45.3159 26:42.64 27:22.5891 28:36.49 29:62.9887 30:36.0556 31:47.3042 32:26.4766 33:63.1365 34:73.3198 35:41.7515 36:41.5094 37:18.8902 38:38.961 39:51.9481 40:36.5998 
1 1:41.8444 2:18.4544 3:44.406 4:61.707 5:41.5225 6:42.9666 7:16.0279 8:45.993 9:60.6272 10:42.5087 11:45.3776 12:24.7557 13:44.9511 14:78.1759 15:37.785 16:42.6551 17:20.5386 18:41.0771 19:59.3336 20:42.4464 21:41.9299 22:16.0173 23:36.7965 24:60.1732 25:45.0216 26:42.5357 27:22.9437 28:36.3636 29:62.7706 30:36.3636 31:47.1471 32:27.0541 33:63.1263 34:73.1463 35:41.0822 36:41.1356 37:17.4014 38:37.123 39:52.2042 40:37.123 
1 1:41.6522 2:16.185 3:45.0867 4:60.1156 5:39.8844 6:42.7279 7:17.4095 8:41.0864 9:61.2813 10:41.7827 11:45.1529 12:26.6927 13:42.3177 14:79.4271 15:37.1094 16:42.6095 17:21.9078 18:40.6207 19:56.5952 20:41.5335 21:42.1234 22:13.3851 23:36.7012 24:61.3126 25:44.905 26:41.9048 27:20.3551 28:35.9463 29:61.9316 30:35.9463 31:46.6466 32:26.0521 33:62.1242 34:70.1403 35:40.0802 36:41.6279 37:18.6263 38:38.4168 39:54.7148 40:34.9243 
1 1:41.6522 2:16.185 3:45.0867 4:60.1156 5:39.8844 6:42.6583 7:17.4095 8:41.0864 9:61.2813 10:41.7827 11:45.0878 12:26.6927 13:42.9688 14:78.125 15:37.1094 16:42.6095 17:21.9078 18:40.6207 19:56.5952 20:42.4464 21:42.2961 22:13.8169 23:37.133 24:62.1762 25:45.3368 26:41.8615 27:20.3551 28:35.5132 29:61.9316 30:35.9463 31:46.6466 32:26.0521 33:62.1242 34:70.1403 35:40.0802 36:41.6279 37:18.6263 38:38.4168 39:54.7148 40:34.9243 
1 1:41.6522 2:16.185 3:45.0867 4:60.1156 5:39.8844 6:42.8671 7:17.4095 8:41.0864 9:61.9777 10:41.7827 11:45.1529 12:26.6927 13:42.9688 14:78.125 15:37.1094 16:42.2901 17:19.1693 18:40.1643 19:55.6823 20:42.4464 21:42.2529 22:14.6805 23:36.7012 24:61.3126 25:45.7686 26:41.9913 27:20.3551 28:35.9463 29:61.9316 30:36.3794 31:46.5465 32:26.0521 33:62.1242 34:70.1403 35:39.0782 36:41.6279 37:18.6263 38:38.4168 39:54.7148 40:34.9243 
1 1:41.8403 2:15.634 3:44.586 4:60.7991 5:39.3746 6:42.6974 7:17.4825 8:41.2587 9:60.8392 10:41.958 11:45.5199 12:26.8325 13:43.8482 14:77.8796 15:38.6126 16:42.2273 17:19.5543 18:39.5634 19:55.4798 20:43.6562 21:42.0961 22:14.2981 23:36.3951 24:59.792 25:46.3605 26:42.0711 27:20.3728 28:36.4109 29:61.9853 30:35.9775 31:46.9223 32:26.2626 33:62.6263 34:70.7071 35:40.404 36:41.6374 37:18.7354 38:38.6417 39:53.8642 40:35.1288 
1 1:41.71 2:16.185 3:44.5087 4:60.1156 5:40.4624 6:42.4306 7:17.3732 8:41.0007 9:60.4587 10:43.0855 11:45.1948 12:27.2904 13:42.2352 14:77.9727 15:37.6868 16:42.3358 17:19.1693 18:40.1643 19:56.1387 20:42.4464 21:42.0121 22:15.1188 23:35.4212 24:61.3391 25:44.9244 26:41.8072 27:21.1938 28:35.0346 29:60.9862 30:35.4671 31:46.7467 32:26.0521 33:61.1222 34:69.1383 35:40.0802 36:41.7341 37:17.3611 38:38.1944 39:53.2407 40:32.4074 
1 1:42.1517 2:17.0588 3:44.7059 4:61.7647 5:40.5882 6:43.0496 7:17.0334 8:41.1639 9:63.1654 10:42.5834 11:45.6914 12:28.0749 13:44.1176 14:78.877 15:40.107 16:42.4919 17:18.6047 18:40 19:57.2093 20:43.2558 21:42.1724 22:15.3982 23:36.9556 24:62.4725 25:45.3146 26:42.0175 27:20.1843 28:35.1031 29:62.7468 30:36.4195 31:47.1487 32:26.5036 33:62.1814 34:72.3751 35:40.7747 36:41.8854 37:19.1159 38:39.4265 39:56.1529 40:33.4528 
1 1:42.0341 2:17.0588 3:44.1176 4:61.1765 5:40.5882 6:43.0802 7:17.0576 8:41.2225 9:63.2552 10:43.3547 11:45.7582 12:28.7433 13:44.1176 14:79.5455 15:40.107 16:42.4454 17:18.6047 18:40 19:57.2093 20:43.2558 21:42.2047 22:14.9385 23:36.9069 24:61.9508 25:45.2548 26:41.9737 27:20.1843 28:35.1031 29:62.7468 30:36.4195 31:47.1545 32:26.4496 33:62.0549 34:72.2279 35:40.6918 36:41.8854 37:19.1159 38:39.4265 39:56.1529 40:33.4528 
1 1:41.6522 2:16.185 3:44.5087 4:59.5376 5:40.4624 6:42.8671 7:17.4095 8:41.7827 9:61.9777 10:42.4791 11:45.283 12:26.6927 13:42.3177 14:77.474 15:39.0625 16:42.4726 17:19.1693 18:40.1643 19:56.5952 20:42.9028 21:41.9689 22:14.2549 23:36.7171 24:60.9071 25:45.3564 26:41.7639 27:20.3287 28:35.0346 29:61.8512 30:35.8997 31:46.5465 32:26.0521 33:61.1222 34:71.1423 35:40.0802 36:41.3873 37:18.5185 38:38.1944 39:54.3981 40:32.4074 
1 1:42.2105 2:17.0588 3:44.7059 4:61.1765 5:41.1765 6:43.0802 7:17.0576 8:41.2225 9:63.2552 10:43.3547 11:45.6914 12:28.0749 13:43.4492 14:78.877 15:40.107 16:42.4651 17:18.622 18:40.0372 19:57.2626 20:43.7616 21:42.2603 22:14.9582 23:36.5156 24:62.9125 25:44.4347 26:42.1491 27:20.6231 28:35.1031 29:62.7468 30:36.4195 31:47.0948 32:26.5577 33:61.287 34:71.5015 35:40.858 36:41.9355 37:19.1617 38:38.3234 39:55.0898 40:34.7305 
0.75661073273712365 1:42.2105 2:16.4706 3:44.7059 4:61.7647 5:41.1765 6:43.0496 7:17.0334 8:41.1639 9:63.1654 10:43.2931 11:45.6914 12:28.0749 13:43.4492 14:78.2086 15:40.107 16:42.4454 17:18.6047 18:40 19:57.2093 20:44.186 21:42.2164 22:14.5183 23:36.5156 24:62.4725 25:44.8746 26:42.1491 27:20.6231 28:35.5419 29:62.7468 30:35.9807 31:47.0468 32:26.5036 33:62.1814 34:71.3558 35:40.7747 36:41.9355 37:19.1617 38:39.521 39:56.2874 40:33.5329 
1 1:42.1517 2:16.4706 3:44.7059 4:61.1765 5:41.1765 6:43.1512 7:17.0455 8:41.1932 9:64.6307 10:43.3239 11:45.6914 12:28.0749 13:43.4492 14:78.2086 15:40.107 16:42.3256 17:18.622 18:40.0372 19:56.3315 20:43.7616 21:42.1724 22:14.5183 23:36.5156 24:62.4725 25:44.8746 26:42.1491 27:20.6231 28:35.5419 29:62.7468 30:36.4195 31:47.0468 32:26.5036 33:62.1814 34:71.3558 35:40.7747 36:41.816 37:19.1617 38:38.3234 39:55.0898 40:33.5329 
1 1:42.0341 2:16.4706 3:44.7059 4:61.1765 5:40.5882 6:43.0496 7:17.0334 8:41.1639 9:62.4556 10:43.2931 11:45.6914 12:28.0749 13:44.1176 14:78.877 15:40.107 16:42.4919 17:18.6047 18:40 19:57.2093 20:43.2558 21:42.2603 22:15.3982 23:36.5156 24:61.5926 25:45.7545 26:42.0175 27:19.7455 28:35.1031 29:63.1856 30:36.4195 31:47.0468 32:25.4842 33:62.1814 34:71.3558 35:40.7747 36:41.8854 37:19.1159 38:39.4265 39:56.1529 40:33.4528 
1 1:41.8577 2:15.2941 3:44.7059 4:61.1765 5:40 6:43.1206 7:16.3236 8:41.8737 9:63.1654 10:43.2931 11:45.8556 12:28.1124 13:44.1767 14:78.9826 15:40.1606 16:42.4919 17:18.6047 18:40 19:57.2093 20:43.2558 21:42.3669 22:14.9714 23:36.9881 24:62.9679 25:45.3545 26:42.2807 27:21.0619 28:35.5419 29:63.1856 30:37.2971 31:47.1967 32:26.5577 33:62.3085 34:72.523 35:40.858 36:41.9355 37:20.3593 38:38.3234 39:56.2874 40:33.5329 
1 1:41.5945 2:15.0289 3:44.5087 4:60.1156 5:39.8844 6:42.7083 7:17.3732 8:41.6956 9:61.1536 10:42.3905 11:45.4486 12:27.326 13:42.9408 14:77.4236 15:39.0371 16:42.4726 17:19.1693 18:40.6207 19:57.0516 20:42.9028 21:42.1416 22:14.6868 23:36.7171 24:61.7711 25:45.3564 26:41.8936 27:21.1938 28:35.4671 29:62.2837 30:35.8997 31:46.6466 32:26.0521 33:61.1222 34:71.1423 35:40.0802 36:41.3873 37:18.5185 38:38.1944 39:54.3981 40:32.4074 
1 1:41.5945 2:15.0289 3:44.5087 4:60.1156 5:39.8844 6:42.7778 7:17.3732 8:41.6956 9:61.8485 10:42.3905 11:45.4486 12:27.326 13:42.9408 14:77.4236 15:39.0371 16:42.4726 17:19.1693 18:40.6207 19:57.0516 20:42.9028 21:42.1416 22:14.6868 23:36.7171 24:61.7711 25:45.3564 26:41.8936 27:21.1938 28:35.4671 29:62.2837 30:35.8997 31:46.6466 32:26.0521 33:61.1222 34:71.1423 35:40.0802 36:41.3873 37:18.5185 38:38.1944 39:54.3981 40:32.4074 
1 1:41.5945 2:15.0289 3:44.5087 4:60.1156 5:39.8844 6:42.7778 7:17.3732 8:41.6956 9:61.8485 10:42.3905 11:45.4486 12:27.326 13:42.9408 14:77.4236 15:39.0371 16:42.3814 17:19.1693 18:40.1643 19:56.5952 20:42.9028 21:42.1416 22:14.6868 23:36.7171 24:61.7711 25:45.3564 26:41.8936 27:21.1938 28:35.4671 29:62.2837 30:35.8997 31:46.7467 32:26.0521 33:61.1222 34:72.1443 35:40.0802 36:41.3873 37:18.5185 38:38.1944 39:54.3981 40:32.4074 
1 1:41.3056 2:15.0289 3:42.7746 4:59.5376 5:40.4624 6:43.0556 7:17.3732 8:41.6956 9:61.8485 10:43.7804 11:45.3186 12:27.326 13:42.2902 14:78.0742 15:37.7358 16:42.3524 17:18.1395 18:40 19:57.6744 20:42.7907 21:41.9689 22:14.6868 23:37.149 24:60.4752 25:44.9244 26:42.0666 27:21.1938 28:35.4671 29:64.4464 30:35.8997 31:46.4464 32:25.0501 33:61.1222 34:71.1423 35:38.0762 36:41.6569 37:19.8598 38:38.5514 39:54.9065 40:32.7103 
1 1:41.6522 2:15.0289 3:45.0867 4:60.6936 5:39.3064 6:42.8472 7:16.6782 8:41.6956 9:61.8485 10:42.3905 11:45.4782 12:27.3438 13:42.3177 14:77.474 15:38.4115 16:42.3814 17:19.1693 18:40.1643 19:56.1387 20:42.9028 21:42.0553 22:14.2549 23:37.149 24:60.9071 25:44.9244 26:42.0233 27:21.6263 28:35.8997 29:62.7163 30:35.8997 31:46.5465 32:26.0521 33:61.1222 34:71.1423 35:38.0762 36:41.5029 37:18.5185 38:38.1944 39:54.3981 40:32.4074 
1 1:41.5945 2:15.0289 3:44.5087 4:59.5376 5:40.4624 6:42.8472 7:17.3732 8:41.6956 9:62.5434 10:42.3905 11:45.4782 12:27.3438 13:42.9688 14:77.474 15:39.0625 16:42.427 17:19.1693 18:40.1643 19:56.5952 20:42.9028 21:42.228 22:14.6868 23:36.7171 24:61.7711 25:45.3564 26:41.9801 27:21.1938 28:35.4671 29:62.2837 30:35.8997 31:46.7467 32:26.0521 33:62.1242 34:72.1443 35:40.0802 36:41.6185 37:18.5185 38:38.1944 39:54.3981 40:33.5648 
1 1:41.8833 2:15.6069 3:45.6647 4:60.1156 5:39.8844 6:42.6389 7:16.6782 8:41.0007 9:61.1536 10:41.6956 11:45.3481 12:27.3438 13:42.3177 14:78.776 15:37.7604 16:42.5182 17:19.1693 18:40.6207 19:57.508 20:42.4464 21:42.1848 22:14.2549 23:36.7171 24:62.203 25:45.7883 26:41.8001 27:20.3463 28:35.9307 29:61.4719 30:35.4978 31:46.5465 32:26.0521 33:62.1242 34:71.1423 35:39.0782 36:41.7341 37:18.5185 38:38.1944 39:54.3981 40:34.7222 
1 1:42.1517 2:15.8824 3:45.2941 4:61.1765 5:40.5882 6:43.0802 7:17.0576 8:39.801 9:63.2552 10:42.6439 11:45.491 12:28.0749 13:43.4492 14:79.5455 15:38.7701 16:42.4919 17:19.0698 18:40.4651 19:57.6744 20:43.2558 21:42.3043 22:14.0783 23:36.0757 24:63.3524 25:45.3146 26:42.0175 27:20.1843 28:34.6643 29:62.308 30:35.9807 31:47.4542 32:28.5423 33:63.2008 34:71.3558 35:40.7747 36:42.055 37:19.1617 38:38.3234 39:55.0898 40:35.9281 
1 1:41.6522 2:15.6069 3:43.3526 4:60.1156 5:40.4624 6:43.0556 7:15.9833 8:43.0855 9:61.8485 10:43.0855 11:45.1235 12:27.326 13:41.6396 14:78.0742 15:38.3865 16:42.4726 17:19.1693 18:40.6207 19:57.508 20:42.9028 21:42.0121 22:13.8229 23:35.8531 24:60.9071 25:45.3564 26:41.8072 27:20.7612 28:35.0346 29:61.4187 30:35.4671 31:46.4464 32:26.0521 33:62.1242 34:70.1403 35:39.0782 36:41.7341 37:18.5185 38:38.1944 39:54.3981 40:33.5648 
1 1:42.2693 2:16.4706 3:45.2941 4:61.1765 5:41.1765 6:43.3333 7:17.0334 8:41.8737 9:63.8751 10:43.2931 11:45.4242 12:27.4064 13:43.4492 14:79.5455 15:38.7701 16:42.3524 17:18.6047 18:40 19:57.2093 20:43.7209 21:42.2047 22:14.4991 23:36.0281 24:62.8295 25:45.2548 26:42.1053 27:20.1843 28:35.5419 29:61.8692 30:35.9807 31:46.7413 32:26.5036 33:63.2008 34:69.317 35:39.7554 36:42.2434 37:19.1159 38:39.4265 39:57.3477 40:35.8423 
1 1:41.7678 2:15.6069 3:45.0867 4:59.5376 5:41.0405 6:43.0556 7:17.3732 8:43.0855 9:62.5434 10:43.0855 11:45.0878 12:26.6927 13:42.3177 14:78.125 15:37.7604 16:42.1989 17:18.7129 18:40.1643 19:56.1387 20:42.9028 21:41.9689 22:13.8229 23:35.8531 24:61.7711 25:45.3564 26:41.7639 27:20.3287 28:35.4671 29:60.5536 30:35.4671 31:46.3463 32:26.0521 33:62.1242 34:70.1403 35:39.0782 36:41.7341 37:18.5185 38:38.1944 39:54.3981 40:34.7222 
1 1:41.71 2:16.185 3:44.5087 4:61.2717 5:40.4624 6:42.9861 7:17.3732 8:41.0007 9:61.1536 10:44.4753 11:45.1235 12:26.6753 13:42.2902 14:78.0742 15:37.7358 16:42.427 17:19.1693 18:40.1643 19:57.0516 20:42.9028 21:41.9689 22:14.2549 23:34.9892 24:62.203 25:45.3564 26:41.8936 27:20.7612 28:35.4671 29:61.4187 30:35.8997 31:46.4464 32:25.0501 33:62.1242 34:70.1403 35:39.0782 36:41.7341 37:17.3611 38:38.1944 39:54.3981 40:34.7222 
1 1:41.8981 2:16.2131 3:44.586 4:61.3781 5:40.5327 6:43.0468 7:16.7832 8:41.958 9:61.5385 10:43.3566 11:45.1929 12:26.178 13:42.5393 14:77.8796 15:37.9581 16:42.4091 17:19.0996 18:40.4729 19:56.844 20:43.2015 21:42.0528 22:14.2981 23:35.5286 24:61.9584 25:45.4939 26:41.8544 27:20.3728 28:35.1105 29:61.9853 30:36.4109 31:46.8214 32:26.2626 33:62.6263 34:70.7071 35:39.3939 36:41.7544 37:18.7354 38:38.6417 39:55.0351 40:35.1288 
1 1:41.956 2:16.2131 3:44.586 4:61.3781 5:40.5327 6:43.1167 7:16.7832 8:41.958 9:61.5385 10:44.0559 11:45.2583 12:26.178 13:42.5393 14:78.534 15:37.9581 16:42.4091 17:19.0996 18:40.4729 19:56.844 20:43.2015 21:42.0528 22:14.2981 23:35.5286 24:61.9584 25:45.4939 26:41.8544 27:20.3728 28:35.9775 29:61.9853 30:35.544 31:46.8214 32:26.2626 33:62.6263 34:70.7071 35:39.3939 36:41.8713 37:18.7354 38:38.6417 39:55.0351 40:35.1288 
1 1:41.7245 2:16.2131 3:44.586 4:61.3781 5:39.9537 6:42.9769 7:16.7832 8:41.958 9:60.8392 10:43.3566 11:45.1929 12:26.178 13:42.5393 14:78.534 15:37.9581 16:42.4545 17:19.0996 18:40.4729 19:56.3893 20:43.2015 21:42.0528 22:14.2981 23:35.5286 24:61.9584 25:45.9272 26:41.9411 27:20.3728 28:35.544 29:61.9853 30:36.8444 31:46.8214 32:26.2626 33:62.6263 34:70.7071 35:39.3939 36:41.6374 37:17.5644 38:37.4707 39:55.0351 40:33.9578 
1 1:41.8403 2:16.2131 3:44.586 4:61.3781 5:40.5327 6:43.0468 7:16.7832 8:41.958 9:61.5385 10:43.3566 11:45.2225 12:26.2123 13:42.595 14:77.9817 15:38.0079 16:42.4091 17:19.0996 18:40.4729 19:56.844 20:43.2015 21:42.0961 22:14.2981 23:35.5286 24:61.9584 25:45.9272 26:41.8544 27:20.3728 28:35.544 29:61.9853 30:35.544 31:46.8214 32:26.2626 33:62.6263 34:70.7071 35:39.3939 36:41.8713 37:18.7354 38:38.6417 39:55.0351 40:35.1288 
1 1:41.7824 2:16.2131 3:44.0069 4:61.3781 5:40.5327 6:42.9769 7:16.7832 8:41.958 9:60.8392 10:43.3566 11:45.2583 12:26.178 13:42.5393 14:78.534 15:37.9581 16:42.4091 17:19.0996 18:40.4729 19:56.844 20:43.2015 21:42.0095 22:13.8648 23:35.5286 24:61.9584 25:45.4939 26:41.8544 27:20.3728 28:35.544 29:61.5518 30:35.544 31:46.8214 32:26.2626 33:62.6263 34:70.7071 35:39.3939 36:41.8713 37:18.7354 38:38.6417 39:55.0351 40:35.1288 
1 1:41.8108 2:16.157 3:45.0087 4:61.1656 5:39.8153 6:42.7878 7:15.9611 8:41.6378 9:61.0687 10:43.0257 11:45.0228 12:26.6927 13:42.3177 14:78.125 15:37.7604 16:42.2101 17:19.0304 18:39.8731 19:56.638 20:42.1386 21:42.0415 22:14.2795 23:35.4825 24:62.3107 25:45.4349 26:41.7568 27:20.3463 28:35.4978 29:61.4719 30:35.4978 31:46.4464 32:26.0521 33:62.1242 34:69.1383 35:39.0782 36:41.7341 37:17.3611 38:38.1944 39:54.3981 40:34.7222 
1 1:41.7678 2:16.185 3:44.5087 4:61.2717 5:40.4624 6:42.9167 7:16.6782 8:42.3905 9:61.1536 10:43.0855 11:45.0878 12:26.6927 13:42.3177 14:78.125 15:37.7604 16:42.4726 17:19.1693 18:40.1643 19:57.508 20:43.3592 21:42.0121 22:14.2549 23:35.4212 24:62.203 25:45.3564 26:41.8072 27:20.7612 28:35.4671 29:61.4187 30:35.4671 31:46.5465 32:26.0521 33:62.1242 34:70.1403 35:39.0782 36:41.7341 37:17.3611 38:38.1944 39:54.3981 40:34.7222 
1 1:42.0341 2:15.8824 3:45.2941 4:61.1765 5:39.4118 6:42.9787 7:16.3236 8:41.1639 9:62.4556 10:41.8737 11:44.9577 12:26.6927 13:41.6667 14:78.125 15:37.1094 16:42.3814 17:19.1693 18:40.1643 19:57.508 20:42.4464 21:42.1234 22:14.2487 23:36.2694 24:62.6079 25:45.3368 26:41.6883 27:20.3551 28:35.5132 29:61.4985 30:34.647 31:46.945 32:26.5036 33:63.2008 34:70.3364 35:39.7554 36:41.9431 37:18.9798 38:37.9597 39:56.9395 40:35.5872 
1 1:41.7678 2:16.185 3:45.0867 4:60.1156 5:40.4624 6:42.7083 7:16.6782 8:41.6956 9:61.1536 10:41.6956 11:45.1529 12:27.3438 13:41.6667 14:78.125 15:37.7604 16:42.5639 17:19.1693 18:40.6207 19:57.508 20:42.9028 21:42.1416 22:14.2549 23:36.2851 24:61.7711 25:45.3564 26:41.8866 27:20.7792 28:35.4978 29:61.9048 30:35.9307 31:46.5465 32:26.0521 33:62.1242 34:70.1403 35:39.0782 36:41.5029 37:18.5185 38:38.1944 39:54.3981 40:33.5648 
1 1:42.0929 2:16.4706 3:45.2941 4:61.1765 5:40.5882 6:43.1965 7:15.8501 8:41.0663 9:63.4006 10:42.5072 11:45.9347 12:27.8164 13:43.8108 14:81.363 15:40.3338 16:42.7243 17:20 18:40.4651 19:58.1395 20:43.7209 21:42.328 22:14.5631 23:36.6284 24:62.2242 25:45.4545 26:42.1239 27:20.8057 28:35.4139 29:62.417 30:35.8566 31:47.0103 32:26.8318 33:62.9515 34:71.2074 35:39.2157 36:42.1241 37:19.1159 38:39.4265 39:56.1529 40:35.8423 
1 1:41.6522 2:16.185 3:45.0867 4:60.1156 5:38.7283 6:42.4306 7:15.2884 8:39.6108 9:60.4587 10:41.6956 11:45.218 12:27.9948 13:41.6667 14:78.776 15:37.7604 16:42.2901 17:19.1693 18:40.6207 19:56.5952 20:42.4464 21:42.0553 22:14.6868 23:35.8531 24:61.7711 25:45.7883 26:41.7207 27:20.3287 28:35.4671 29:60.5536 30:35.4671 31:46.4464 32:26.0521 33:62.1242 34:69.1383 35:39.0782 36:41.6185 37:18.5185 38:38.1944 39:53.2407 40:34.7222 
1 1:41.8872 2:16.1197 3:44.905 4:60.4491 5:40.8751 6:42.7878 7:16.6667 8:41.6667 9:61.1111 10:41.6667 11:45.2536 12:27.326 13:42.2902 14:78.0742 15:38.3865 16:42.5765 17:18.7386 18:40.6764 19:57.5868 20:43.4186 21:42.1416 22:14.2549 23:36.2851 24:62.203 25:45.3564 26:41.793 27:20.364 28:35.5286 29:61.5251 30:35.5286 31:46.5603 32:25.9481 33:61.8762 34:69.8603 35:38.9222 36:41.8331 37:18.8235 38:38.8235 39:54.1176 40:35.2941 
1 1:41.7678 2:16.185 3:45.0867 4:60.6936 5:39.8844 6:42.5694 7:16.6782 8:41.0007 9:61.1536 10:43.7804 11:45.3481 12:26.6927 13:42.9688 14:79.4271 15:37.1094 16:42.5639 17:20.5386 18:40.1643 19:57.0516 20:42.4464 21:42.2145 22:14.7122 23:36.7806 24:61.4453 25:45.4349 26:41.5837 27:20.3463 28:34.632 29:61.039 30:34.632 31:46.7402 32:26.1044 33:62.249 34:70.2811 35:40.1606 36:41.6185 37:18.5185 38:38.1944 39:54.3981 40:33.5648 
1 1:41.9988 2:16.763 3:44.5087 4:61.2717 5:40.4624 6:42.7778 7:16.6782 8:41.6956 9:61.1536 10:42.3905 11:45.3481 12:27.3438 13:42.3177 14:78.125 15:37.7604 16:42.4726 17:19.1693 18:40.6207 19:57.0516 20:42.4464 21:42.1416 22:14.2549 23:36.7171 24:62.203 25:45.7883 26:41.8072 27:20.7612 28:35.8997 29:61.4187 30:35.4671 31:46.6466 32:27.0541 33:62.1242 34:71.1423 35:40.0802 36:41.8497 37:18.5185 38:38.1944 39:54.3981 40:34.7222 
1 1:41.8444 2:16.7243 3:43.8293 4:61.1303 5:40.3691 6:42.6583 7:16.7131 8:41.0864 9:61.2813 10:42.4791 11:45.5433 12:27.3438 13:43.6198 14:80.0781 15:37.7604 16:42.3358 17:19.1693 18:40.1643 19:56.1387 20:42.4464 21:41.955 22:14.7122 23:35.4825 24:59.7144 25:45.4349 26:41.7316 27:20.3551 28:35.5132 29:61.4985 30:35.9463 31:46.5465 32:25.0501 33:62.1242 34:70.1403 35:40.0802 36:41.9467 37:18.5615 38:39.4432 39:54.5244 40:35.9629 
1 1:41.7678 2:16.185 3:45.0867 4:60.6936 5:39.8844 6:42.5 7:16.6782 8:41.0007 9:60.4587 10:42.3905 11:45.3186 12:27.326 13:43.5914 14:78.0742 15:37.7358 16:42.427 17:20.0822 18:39.7079 19:54.7695 20:43.3592 21:42.2145 22:15.145 23:36.7806 24:60.5798 25:45.8676 26:41.7568 27:20.3463 28:35.0649 29:60.6061 30:35.4978 31:46.6466 32:26.0521 33:62.1242 34:70.1403 35:40.0802 36:41.6185 37:18.5185 38:38.1944 39:54.3981 40:34.7222 
0.92292446344774248 1:41.8833 2:16.763 3:45.0867 4:60.6936 5:41.0405 6:42.5 7:16.6782 8:41.0007 9:60.4587 10:42.3905 11:45.1886 12:27.326 13:43.5914 14:77.4236 15:37.0852 16:42.4726 17:20.0822 18:39.7079 19:55.2259 20:43.3592 21:42.2145 22:15.145 23:36.7806 24:60.5798 25:45.8676 26:41.8504 27:20.7612 28:35.0346 29:60.9862 30:35.4671 31:46.6466 32:26.0521 33:62.1242 34:70.1403 35:40.0802 36:41.5029 37:17.3611 38:38.1944 39:53.2407 40:34.7222 
1 1:41.7678 2:16.763 3:45.0867 4:60.6936 5:39.8844 6:42.5 7:16.6782 8:41.0007 9:60.4587 10:42.3905 11:45.2536 12:27.326 13:43.5914 14:78.0742 15:37.0852 16:42.4726 17:20.0822 18:39.7079 19:55.2259 20:43.3592 21:42.228 22:15.1188 23:36.7171 24:60.4752 25:45.7883 26:41.7568 27:20.3463 28:35.0649 29:60.6061 30:35.4978 31:46.5465 32:26.0521 33:61.1222 34:70.1403 35:40.0802 36:41.6185 37:18.5185 38:38.1944 39:54.3981 40:34.7222 
1 1:41.8842 2:15.3322 3:44.293 4:61.3288 5:42.0216 6:43.2856 7:17.7353 8:42.292 9:61.3915 10:45.0205 11:45.0192 12:26.8371 13:43.4505 14:76.6773 15:37.6997 16:42.4093 17:20.1613 18:40.3226 19:55.5556 20:43.0108 21:42.2042 22:14.5299 23:37.1795 24:61.1111 25:44.8718 26:41.9906 27:20.9402 28:35.8974 29:62.3932 30:35.0427 31:46.5433 32:26.3158 33:62.3782 34:69.2008 35:39.961 36:41.7978 37:19.1226 38:40.4949 39:55.1181 40:35.9955 
1 1:41.71 2:16.763 3:45.0867 4:59.5376 5:39.3064 6:42.5694 7:16.6782 8:41.0007 9:60.4587 10:41.6956 11:44.8926 12:24.7396 13:42.3177 14:76.8229 15:36.4583 16:42.4726 17:19.6257 18:39.7079 19:56.1387 20:42.4464 21:42.128 22:15.5777 23:36.3479 24:61.0125 25:45.8676 26:41.9369 27:21.1938 28:35.0346 29:61.4187 30:35.8997 31:46.6466 32:26.0521 33:62.1242 34:70.1403 35:40.0802 36:41.6185 37:18.5185 38:38.1944 39:54.3981 40:34.7222 
1 1:41.7678 2:16.763 3:45.0867 4:60.6936 5:39.3064 6:42.5694 7:16.6782 8:41.0007 9:60.4587 10:42.3905 11:45.3186 12:27.9766 13:43.5914 14:78.0742 15:37.0852 16:42.4726 17:20.0822 18:39.7079 19:55.2259 20:43.3592 21:42.2145 22:15.145 23:36.7806 24:60.5798 25:45.8676 26:41.8504 27:20.7612 28:35.4671 29:60.9862 30:35.4671 31:46.6466 32:26.0521 33:62.1242 34:70.1403 35:40.0802 36:41.6185 37:18.5185 38:38.1944 39:54.3981 40:34.7222 
1 1:41.7678 2:16.763 3:45.0867 4:60.6936 5:39.3064 6:42.7083 7:16.6782 8:41.6956 9:60.4587 10:42.3905 11:45.2536 12:27.326 13:43.5914 14:78.0742 15:37.0852 16:42.4726 17:20.0822 18:39.7079 19:55.2259 20:43.3592 21:42.2145 22:15.145 23:36.7806 24:60.5798 25:45.8676 26:41.9369 27:20.7612 28:35.4671 29:61.4187 30:35.4671 31:46.6466 32:26.0521 33:62.1242 34:70.1403 35:40.0802 36:41.6185 37:18.5185 38:38.1944 39:54.3981 40:34.7222 
1 1:41.7678 2:16.763 3:45.0867 4:60.6936 5:39.3064 6:42.5694 7:16.6782 8:41.0007 9:60.4587 10:42.3905 11:45.4131 12:27.9948 13:43.6198 14:78.776 15:37.1094 16:42.4726 17:20.0822 18:39.7079 19:55.2259 20:43.3592 21:42.2145 22:15.145 23:36.7806 24:60.5798 25:45.8676 26:41.8504 27:20.7612 28:35.4671 29:60.9862 30:35.4671 31:46.6466 32:26.0521 33:62.1242 34:70.1403 35:40.0802 36:41.6185 37:18.5185 38:38.1944 39:54.3981 40:34.7222 
1 1:41.7678 2:16.763 3:45.0867 4:60.6936 5:39.3064 6:42.5694 7:16.6782 8:41.0007 9:60.4587 10:42.3905 11:45.3186 12:27.9766 13:43.5914 14:78.0742 15:37.0852 16:42.4726 17:20.0822 18:39.7079 19:55.2259 20:43.3592 21:42.1713 22:15.145 23:36.3479 24:60.5798 25:45.8676 26:41.7568 27:20.3463 28:35.0649 29:60.6061 30:35.4978 31:46.6466 32:26.0521 33:62.1242 34:70.1403 35:40.0802 36:41.7341 37:18.5185 38:38.1944 39:55.5556 40:34.7222 
1 1:41.7678 2:16.763 3:45.0867 4:60.6936 5:39.3064 6:42.5694 7:16.6782 8:41.0007 9:60.4587 10:42.3905 11:45.1886 12:26.6753 13:42.9408 14:77.4236 15:37.0852 16:42.5639 17:20.0822 18:39.7079 19:56.5952 20:43.3592 21:42.128 22:14.7122 23:36.7806 24:61.0125 25:45.8676 26:41.8072 27:20.7612 28:35.4671 29:60.5536 30:35.4671 31:46.5465 32:26.0521 33:62.1242 34:70.1403 35:39.0782 36:41.5029 37:18.5185 38:38.1944 39:54.3981 40:34.7222 
1 1:41.7678 2:16.763 3:45.0867 4:60.6936 5:39.3064 6:42.7778 7:17.3732 8:41.6956 9:60.4587 10:42.3905 11:45.283 12:27.3438 13:43.6198 14:78.125 15:37.1094 16:42.4726 17:20.0822 18:39.7079 19:55.2259 20:43.3592 21:42.2145 22:15.145 23:36.7806 24:60.5798 25:45.8676 26:41.9369 27:20.7612 28:35.4671 29:61.4187 30:35.4671 31:46.6466 32:26.0521 33:62.1242 34:70.1403 35:40.0802 36:41.6185 37:18.5185 38:38.1944 39:54.3981 40:34.7222 
1 1:41.6522 2:16.763 3:45.0867 4:60.6936 5:39.3064 6:42.5 7:16.6782 8:40.3058 9:60.4587 10:42.3905 11:45.283 12:26.6927 13:42.9688 14:78.125 15:37.1094 16:42.4726 17:19.6257 18:39.7079 19:56.1387 20:43.3592 21:42.0848 22:14.2795 23:36.7806 24:60.5798 25:45.8676 26:41.8072 27:20.7612 28:35.4671 29:60.5536 30:35.4671 31:46.6466 32:26.0521 33:62.1242 34:68.1363 35:40.0802 36:41.6185 37:18.5185 38:38.1944 39:54.3981 40:34.7222 
1 1:41.6522 2:16.763 3:45.0867 4:60.6936 5:39.3064 6:42.5 7:16.6782 8:40.3058 9:60.4587 10:42.3905 11:45.283 12:26.6927 13:42.9688 14:78.125 15:37.1094 16:42.4726 17:19.6257 18:39.7079 19:56.1387 20:43.3592 21:42.0848 22:14.2795 23:36.7806 24:60.5798 25:45.8676 26:41.8072 27:20.7612 28:35.4671 29:60.5536 30:35.4671 31:46.6466 32:26.0521 33:62.1242 34:68.1363 35:40.0802 36:41.6185 37:18.5185 38:38.1944 39:54.3981 40:34.7222 
1 1:41.8833 2:16.185 3:44.5087 4:60.6936 5:41.0405 6:42.599 7:17.3853 8:41.0292 9:61.1961 10:42.42 11:45.1886 12:26.6753 13:42.9408 14:78.7248 15:37.0852 16:42.427 17:19.6257 18:40.6207 19:56.1387 20:42.9028 21:42.1098 22:14.7059 23:35.8997 24:62.2837 25:45.8478 26:41.7639 27:20.7612 28:35.0346 29:61.4187 30:35.4671 31:46.6466 32:26.0521 33:62.1242 34:70.1403 35:40.0802 36:41.8497 37:18.5185 38:39.3519 39:54.3981 40:34.7222 
1 1:42.2105 2:17.0588 3:44.7059 4:61.7647 5:40.5882 6:42.766 7:15.6139 8:40.4542 9:62.4556 10:42.5834 11:45.5439 12:26.2295 13:43.9344 14:80 15:37.377 16:42.3472 17:19.6429 18:40.625 19:55.8036 20:43.3036 21:42.4191 22:15.3387 23:37.9207 24:63.9114 25:44.738 26:41.9369 27:21.3402 28:35.8515 29:61.0329 30:35.8515 31:46.5932 32:26.0782 33:62.1866 34:70.2106 35:40.1204 36:43.7229 37:23.1214 38:39.0173 39:62.1387 40:43.3526 
1 1:41.6814 2:17.6471 3:43.5294 4:60.5882 5:40 6:43.1915 7:17.0334 8:41.1639 9:62.4556 10:44.0028 11:45.6914 12:29.4118 13:44.7861 14:82.2193 15:36.0963 16:43.7006 17:22.7907 18:44.186 19:60.9302 20:44.6512 21:42.4802 22:14.9582 23:36.9556 24:65.1122 25:44.4347 26:43.4211 27:20.6231 28:38.6134 29:67.1347 30:38.1746 31:47.8615 32:27.5229 33:63.2008 34:74.4139 35:43.8328 36:42.0048 37:19.1159 38:40.6213 39:56.1529 40:37.037 
1 1:42.2105 2:17.0588 3:45.2941 4:62.9412 5:41.1765 6:43.0496 7:15.6139 8:40.4542 9:61.7459 10:43.2931 11:45.5578 12:26.738 13:42.7807 14:78.2086 15:38.7701 16:42.5848 17:19.5349 18:40.4651 19:57.6744 20:42.3256 21:42.1284 22:15.8381 23:36.9556 24:60.7127 25:46.1945 26:42.5439 27:21.0619 28:36.8583 29:62.7468 30:35.9807 31:47.6045 32:27.5792 33:63.3299 34:71.5015 35:43.9224 36:42.0048 37:19.1159 38:40.6213 39:54.9582 40:38.2318 
1 1:41.7402 2:16.4706 3:44.7059 4:60 5:40.5882 6:43.2624 7:17.7431 8:39.7445 9:63.1654 10:44.0028 11:45.5882 12:26.1044 13:43.5074 14:77.6439 15:38.1526 16:42.6313 17:20.4651 18:40.4651 19:57.2093 20:42.3256 21:42.4362 22:15.8381 23:36.9556 24:60.7127 25:46.6344 26:42.6754 27:21.5007 28:35.9807 29:63.6244 30:35.9807 31:47.556 32:27.5229 33:64.2202 34:72.3751 35:42.8135 36:42.6582 37:18.7416 38:40.1606 39:58.9023 40:38.822 
1 1:41.714 2:17.6036 3:44.8609 4:60.7609 5:40.318 6:42.7012 7:16.3823 8:40.9556 9:60.7509 10:43.0034 11:45.2107 12:26.1981 13:42.8115 14:76.6773 15:38.3387 16:42.6332 17:21.5054 18:40.7706 19:57.7957 20:42.5627 21:41.9906 22:15.3846 23:37.6068 24:58.9744 25:46.5812 26:42.2896 27:20.9402 28:37.1795 29:61.9658 30:35.0427 31:46.8354 32:26.3158 33:62.3782 34:69.2008 35:42.885 36:41.573 37:17.9978 38:39.3701 39:52.8684 40:38.2452 
1 1:41.8275 2:17.6036 3:44.8609 4:61.3288 5:41.4537 6:42.7403 7:16.3711 8:40.2456 9:61.3915 10:42.9741 11:45.0192 12:24.9201 13:42.8115 14:76.0383 15:37.6997 16:42.4093 17:20.1613 18:40.3226 19:58.2437 20:42.5627 21:42.076 22:15.812 23:38.0342 24:58.9744 25:46.5812 26:42.5032 27:21.3675 28:37.1795 29:63.6752 30:35.8974 31:46.8354 32:26.3158 33:62.3782 34:69.2008 35:40.9357 36:41.6854 37:17.9978 38:40.4949 39:53.9933 40:38.2452 
1 1:41.7989 2:18.2353 3:44.1176 4:61.1765 5:40.5882 6:43.1206 7:16.3236 8:39.7445 9:62.4556 10:45.4223 11:45.5578 12:25.4011 13:43.4492 14:77.5401 15:38.1016 16:42.6313 17:20.4651 18:40.9302 19:58.6047 20:42.7907 21:41.9525 22:14.9582 23:36.5156 24:61.5926 25:44.8746 26:42.5439 27:21.9394 28:36.4195 29:64.0632 30:35.5419 31:47.4542 32:28.5423 33:62.1814 34:71.3558 35:43.8328 36:42.2434 37:19.1159 38:41.816 39:57.3477 40:38.2318 
1 1:41.8824 2:18.2568 3:44.1696 4:61.2485 5:41.225 6:43.1206 7:16.3236 8:39.7445 9:62.4556 10:45.4223 11:45.3574 12:26.0695 13:43.4492 14:76.2032 15:38.1016 16:42.3989 17:20.9302 18:39.5349 19:57.2093 20:41.8605 21:42.0844 22:15.8381 23:36.9556 24:61.5926 25:45.3146 26:42.4748 27:21.5195 28:36.0123 29:62.8019 30:35.5731 31:47.556 32:28.5423 33:62.1814 34:72.3751 35:43.8328 36:42.2434 37:19.1159 38:40.6213 39:56.1529 40:38.2318 
1 1:41.7386 2:17.2811 3:43.7788 4:61.0599 5:39.7465 6:42.9167 7:17.3732 8:41.6956 9:61.8485 10:42.3905 11:45.4242 12:26.0695 13:42.1123 14:78.877 15:36.7647 16:42.427 17:20.0822 18:40.1643 19:56.5952 20:42.4464 21:41.9662 22:16.0312 23:37.2617 24:61.5251 25:42.8943 26:41.8504 27:21.1938 28:35.4671 29:60.5536 30:35.0346 31:47.1471 32:27.0541 33:62.1242 34:70.1403 35:42.0842 36:41.5029 37:18.5185 38:39.3519 39:54.3981 40:34.7222 
1 1:41.6811 2:17.8571 3:43.7788 4:61.0599 5:39.7465 6:42.5798 7:15.9611 8:40.9438 9:61.0687 10:40.9438 11:45.2906 12:26.0695 13:41.4439 14:78.2086 15:36.7647 16:42.4726 17:20.0822 18:39.7079 19:57.0516 20:42.9028 21:42.1713 22:15.5777 23:37.2133 24:61.0125 25:45.4349 26:41.8504 27:20.7612 28:35.4671 29:60.9862 30:35.4671 31:46.6466 32:26.0521 33:62.1242 34:70.1403 35:40.0802 36:41.5691 37:18.7573 38:39.8593 39:55.0996 40:36.3423 
1 1:41.7402 2:18.2353 3:43.5294 4:63.5294 5:38.8235 6:42.8369 7:17.0334 8:39.7445 9:61.7459 10:41.8737 11:45.491 12:28.0749 13:46.123 14:78.877 15:36.7647 16:42.3989 17:18.6047 18:39.5349 19:57.2093 20:43.2558 21:41.9831 22:17.618 23:37.3502 24:57.0825 25:45.8069 26:42.5107 27:22.8735 28:32.8806 29:60.0429 30:40.7434 31:47.2561 32:26.4496 33:62.0549 34:69.176 35:40.6918 36:41.7661 37:19.1159 38:40.6213 39:58.5424 40:35.8423 
1 1:42.2105 2:17.6471 3:43.5294 4:66.4706 5:40.5882 6:43.1915 7:16.3236 8:41.8737 9:62.4556 10:43.2931 11:46.159 12:24.7326 13:46.7914 14:72.1925 15:35.4278 16:43.6541 17:17.6744 18:45.5814 19:62.3256 20:46.9767 21:42.6561 22:17.1579 23:39.5952 24:58.513 25:47.9542 26:43.5088 27:21.5007 28:38.6134 29:67.5735 30:36.4195 31:46.8432 32:30.581 33:59.1233 34:66.2589 35:41.7941 36:42.2434 37:22.7001 38:43.0108 39:53.7634 40:40.6213 
1 1:41.7989 2:17.0588 3:44.7059 4:64.1176 5:40.5882 6:42.8369 7:15.6139 8:42.5834 9:63.1654 10:41.8737 11:46.0254 12:26.738 13:48.1283 14:74.8663 15:39.4385 16:42.8638 17:19.5349 18:42.7907 19:57.2093 20:48.8372 21:42.2164 22:15.3982 23:37.8355 24:62.0326 25:45.3146 26:43.7719 27:18.8679 28:38.6134 29:69.3287 30:37.7358 31:47.3523 32:26.5036 33:63.2008 34:71.3558 35:43.8328 36:41.8854 37:20.3106 38:39.4265 39:57.3477 40:33.4528 
1 1:41.2781 2:14.4009 3:44.9309 4:63.3641 5:40.8986 6:42.9958 7:16.6551 8:43.0257 9:60.3747 10:41.6378 11:44.9708 12:25.974 13:43.5065 14:74.6753 15:37.6623 16:41.8478 17:19.4835 18:39.8731 19:53.9193 20:43.498 21:42.1416 22:17.7106 23:36.7171 24:61.7711 25:44.9244 26:42.4007 27:22.4622 28:36.7171 29:62.203 30:35.4212 31:46.507 32:26.973 33:61.9381 34:68.9311 35:40.959 36:41.8497 37:20.8333 38:38.1944 39:56.713 40:34.7222 
1 1:41.6226 2:17.0588 3:42.9412 4:62.9412 5:40 6:43.0496 7:18.4528 8:40.4542 9:63.1654 10:42.5834 11:45.2381 12:26.5668 13:44.2779 14:77.6567 15:38.1471 16:42.4685 17:19.9468 18:37.234 19:55.1862 20:47.8723 21:43.1373 22:16.9262 23:35.8835 24:64.9966 25:52.1327 26:42.4977 27:23.3863 28:34.6118 29:68.2881 30:37.4181 31:47.1545 32:27.4669 33:62.0549 34:72.2279 35:41.7091 36:41.8854 37:20.3106 38:39.4265 39:57.3477 40:35.8423 
1 1:40.7995 2:15.2941 3:38.8235 4:61.7647 5:37.0588 6:42.2995 7:16.3468 8:36.9581 9:69.6517 10:39.0903 11:46.3594 12:24.7326 13:51.4706 14:72.861 15:44.7861 16:44.0725 17:21.8605 18:46.0465 19:61.3953 20:45.5814 21:41.8646 22:15.3982 23:37.8355 24:59.8328 25:40.9151 26:44.3616 27:18.4453 28:42.5999 29:66.7545 30:41.2824 31:46.7413 32:27.5229 33:60.1427 34:64.2202 35:38.736 36:44.0334 37:32.2581 38:44.2055 39:58.5424 40:40.6213 
1 1:40.5421 2:13.8488 3:39.2383 4:60.5886 5:36.3531 6:41.831 7:16.2086 8:36.6455 9:69.0627 10:37.3502 11:46.1589 12:24.3101 13:50.5913 14:69.6452 15:44.6781 16:43.954 17:21.1592 18:46.4581 19:61.1776 20:45.5382 21:41.5979 22:15.2042 23:37.3588 24:59.0791 25:40.3997 26:44.396 27:19.1972 28:42.7574 29:66.3176 30:41.4485 31:46.5046 32:27.3834 33:58.8235 34:64.9087 35:36.5112 36:43.5294 37:31.8021 38:42.4028 39:57.715 40:38.8693 
1 1:40.468 2:14.2776 3:38.835 4:60.5368 5:35.9794 6:42.1277 7:17.0334 8:37.6153 9:69.5529 10:38.3251 11:45.8442 12:24.0416 13:50.6823 14:69.5257 15:43.5348 16:44.0514 17:21.5993 18:46.875 19:61.5809 20:45.4963 21:41.6177 22:14.4731 23:36.1827 24:59.2492 25:42.0624 26:44.1278 27:19.4384 28:42.3326 29:65.6587 30:41.0367 31:46.1078 32:26.973 33:57.9421 34:63.9361 35:36.963 36:44.1247 37:31.2125 38:43.2173 39:58.8235 40:40.8163 
1 1:40.5056 2:14.7059 3:39.4118 4:59.4118 5:36.4706 6:42.3404 7:16.3236 8:36.9056 9:70.2626 10:39.0348 11:46.2258 12:24.7326 13:51.4706 14:70.8556 15:45.4545 16:44.212 17:22.3256 18:45.5814 19:62.3256 20:46.5116 21:42.0405 22:15.3982 23:37.8355 24:60.2728 25:42.2349 26:44.4737 27:18.8679 28:43.0013 29:66.6959 30:41.6849 31:46.8432 32:27.5229 33:59.1233 34:65.2396 35:38.736 36:44.0334 37:32.2581 38:44.2055 39:59.7372 40:38.2318 
1 1:40.2786 2:15.1075 3:37.7687 4:62.1732 5:33.7013 6:42.0269 7:16.3236 8:36.9056 9:69.5529 10:36.9056 11:45.7932 12:22.4936 13:48.2005 14:70.0514 15:43.7018 16:43.7976 17:22.4014 18:46.595 19:60.4839 20:46.147 21:41.6062 22:14.9573 23:38.4615 24:58.547 25:41.0256 26:44.0888 27:18.7874 28:43.1255 29:65.3288 30:39.7096 31:46.7005 32:26.4228 33:58.9431 34:65.0407 35:38.6179 36:43.5466 37:30.3371 38:43.8202 39:57.3034 40:39.3258 
1 1:40.0353 2:14.7059 3:37.6471 4:61.7647 5:34.1176 6:41.9858 7:16.3236 8:36.9056 9:69.5529 10:36.9056 11:45.8918 12:22.7273 13:49.4652 14:70.8556 15:43.4492 16:43.9331 17:23.2558 18:45.5814 19:61.3953 20:46.0465 21:41.8206 22:15.3982 23:37.8355 24:59.8328 25:40.4751 26:44.386 27:18.4291 28:43.4401 29:66.2571 30:40.3686 31:46.945 32:27.5229 33:59.1233 34:65.2396 35:38.736 36:44.0334 37:32.2581 38:44.2055 39:58.5424 40:39.4265 
1 1:40.7518 2:14.4491 3:39.1331 4:63.817 5:36.7249 6:42.2904 7:15.3846 8:36.9231 9:71.5385 10:37.6923 11:46.3014 12:24.3902 13:50.8711 14:72.4739 15:43.2056 16:44.1694 17:23.166 18:45.3668 19:64.1892 20:46.332 21:42.0885 22:15.3275 23:38.5509 24:60.3809 25:39.9443 26:44.8632 27:18.1406 28:43.9909 29:67.5737 30:42.1769 31:46.6667 32:27.6498 33:61.0599 34:64.5161 35:40.3226 36:44.5006 37:30.8087 38:44.9294 39:61.6175 40:39.7946 
1 1:40.6838 2:14.2531 3:38.7685 4:61.0034 5:38.7685 6:41.4923 7:16.0502 8:35.5897 9:66.9923 10:38.381 11:45.7495 12:23.3766 13:49.3506 14:70.1299 15:43.5065 16:43.6281 17:22.2323 18:45.8258 19:60.7985 20:45.3721 21:41.9085 22:14.9582 23:37.3955 24:59.3929 25:41.355 26:44.386 27:17.9903 28:42.5625 29:66.2571 30:40.8074 31:45.8624 32:25.9481 33:56.8862 34:62.8743 35:37.9242 36:43.237 37:31.25 38:42.8241 39:56.713 40:38.1944 
1 1:40.4558 2:14.8233 3:37.6283 4:61.5735 5:37.6283 6:41.3529 7:15.3524 8:34.8918 9:66.2945 10:39.0789 11:45.6846 12:22.7273 13:48.7013 14:70.1299 15:43.5065 16:43.908 17:22.9991 18:45.5382 19:61.6375 20:45.5382 21:41.9965 22:14.9582 23:37.3955 24:59.8328 25:41.355 26:44.4298 27:17.9903 28:43.8789 29:66.6959 30:41.2462 31:45.8624 32:25.9481 33:56.8862 34:62.8743 35:38.9222 36:43.0058 37:30.0926 38:42.8241 39:56.713 40:38.1944 
1 1:40.6232 2:14.7059 3:38.2353 4:62.3529 5:37.6471 6:41.9149 7:16.3236 8:36.1959 9:68.8432 10:39.0348 11:45.9586 12:23.3957 13:50.1337 14:72.1925 15:43.4492 16:43.8401 17:22.7907 18:44.6512 19:61.8605 20:45.5814 21:41.9965 22:14.9582 23:37.3955 24:59.8328 25:41.355 26:44.4298 27:17.9903 28:43.4401 29:66.2571 30:41.2462 31:46.4358 32:26.5036 33:58.104 34:64.2202 35:38.736 36:43.4531 37:31.3225 38:42.9234 39:56.8445 40:40.6032 
0.45668296056908908 1:40.6232 2:14.7059 3:38.2353 4:62.3529 5:37.6471 6:41.844 7:16.3236 8:36.1959 9:68.1334 10:39.0348 11:45.8918 12:23.3957 13:50.1337 14:71.5241 15:43.4492 16:43.7936 17:22.7907 18:45.1163 19:61.8605 20:45.5814 21:42.0405 22:15.3982 23:37.3955 24:60.2728 25:41.355 26:44.4737 27:17.9903 28:43.8789 29:66.6959 30:41.2462 31:46.4358 32:26.5036 33:58.104 34:64.2202 35:38.736 36:43.4531 37:31.3225 38:42.9234 39:56.8445 40:40.6032 
1 1:40.4748 2:14.4844 3:38.2387 4:61.993 5:37.08 6:41.5621 7:16.0502 8:35.5897 9:66.9923 10:39.0789 11:46.0066 12:23.7781 13:50.8587 14:70.6737 15:44.2536 16:43.796 17:22.9885 18:45.977 19:61.6092 20:45.5172 21:42.0405 22:15.3982 23:37.3955 24:59.8328 25:41.355 26:44.5175 27:17.9903 28:43.4401 29:67.1347 30:41.2462 31:46.3019 32:26.3692 33:57.8093 34:63.8945 35:38.5396 36:43.5446 37:31.7274 38:43.4783 39:57.5793 40:38.7779 
1 1:40.6011 2:14.7754 3:37.8251 4:63.2388 5:37.8251 6:42.0567 7:17.0334 8:36.1959 9:68.1334 10:39.7445 11:45.9586 12:23.3957 13:50.1337 14:72.1925 15:43.4492 16:43.8401 17:22.7907 18:44.6512 19:61.8605 20:45.5814 21:42.059 22:14.9714 23:37.4284 24:59.8855 25:41.8318 26:44.386 27:17.5516 28:43.0013 29:66.2571 30:41.2462 31:46.334 32:26.5036 33:57.0846 34:64.2202 35:38.736 36:43.3372 37:31.3225 38:42.9234 39:56.8445 40:39.4432 
1 1:40.7059 2:14.7232 3:38.2803 4:63.0153 5:37.6914 6:41.9149 7:16.3236 8:36.9056 9:68.1334 10:39.0348 11:45.9586 12:23.3957 13:50.8021 14:72.1925 15:43.4492 16:43.7471 17:22.3256 18:44.186 19:61.3953 20:45.5814 21:41.9965 22:14.9582 23:37.3955 24:59.8328 25:41.355 26:44.386 27:17.9903 28:43.4401 29:66.6959 30:41.2462 31:46.4358 32:26.5036 33:58.104 34:64.2202 35:38.736 36:43.4531 37:31.3225 38:42.9234 39:56.8445 40:41.7633 
1 1:40.5789 2:14.828 3:38.5528 4:63.4638 5:37.9597 6:42.0745 7:16.2602 8:36.2158 9:69.4752 10:37.694 11:46.1853 12:24.2215 13:51.2111 14:73.3564 15:40.8304 16:44.2046 17:23.1569 18:44.896 19:63.7996 20:45.8412 21:42.3166 22:15.0801 23:39.114 24:59.3779 25:40.9991 26:44.7263 27:17.9131 28:44.335 29:67.622 30:41.648 31:46.4821 32:27.7778 33:59.0278 34:63.6574 35:40.5093 36:44.5963 37:33.7922 38:45.0563 39:60.0751 40:40.0501 
1 1:40.5359 2:13.6908 3:37.6497 4:61.6087 5:38.7906 6:41.6312 7:15.6139 8:36.1959 9:67.4237 10:39.0348 11:45.7495 12:23.3766 13:49.3506 14:70.1299 15:43.5065 16:43.704 17:22.5287 18:45.0575 19:61.6092 20:44.5977 21:41.9525 22:14.9582 23:37.3955 24:59.8328 25:41.355 26:44.0846 27:18.5745 28:42.7646 29:65.6587 30:40.6048 31:45.8624 32:25.9481 33:56.8862 34:62.8743 35:37.9242 36:43.3526 37:31.25 38:42.8241 39:56.713 40:38.1944 
1 1:40.5359 2:13.6908 3:37.6497 4:61.6087 5:38.7906 6:41.2831 7:15.3524 8:35.5897 9:66.2945 10:38.381 11:45.6846 12:23.3766 13:48.7013 14:70.1299 15:43.5065 16:43.6735 17:22.2323 18:45.3721 19:60.7985 20:44.9183 21:41.7782 22:14.6805 23:37.133 24:58.7219 25:41.8826 26:44.0846 27:18.5745 28:42.7646 29:65.6587 30:40.6048 31:45.8624 32:25.9481 33:56.8862 34:62.8743 35:37.9242 36:43.3526 37:31.25 38:42.8241 39:56.713 40:38.1944 
1 1:40.6159 2:13.3721 3:38.3721 4:62.2093 5:38.3721 6:41.3817 7:16.0615 8:35.6145 9:67.0391 10:37.7095 11:45.8144 12:23.3766 13:49.3506 14:71.4286 15:43.5065 16:43.75 17:22.5287 18:45.5172 19:61.6092 20:45.5172 21:41.9965 22:14.9582 23:37.3955 24:59.8328 25:41.355 26:44.2982 27:17.9903 28:43.0013 29:66.6959 30:41.2462 31:45.9621 32:25.9481 33:57.8842 34:62.8743 35:38.9222 36:43.237 37:31.25 38:42.8241 39:56.713 40:38.1944 
1 1:40.4558 2:13.1129 3:38.1984 4:61.5735 5:38.1984 6:41.5911 7:15.3631 8:36.3128 9:68.4358 10:37.0112 11:45.8144 12:23.3766 13:49.3506 14:70.7792 15:43.5065 16:43.7188 17:22.2323 18:45.8258 19:60.7985 20:45.8258 21:41.9965 22:14.9582 23:37.3955 24:59.3929 25:41.355 26:44.4737 27:17.9903 28:43.4401 29:67.1347 30:41.2462 31:46.3019 32:26.3692 33:58.8235 34:63.8945 35:39.5538 36:43.4272 37:30.5523 38:42.3032 39:57.5793 40:38.7779 
1 1:40.5128 2:14.8233 3:38.1984 4:61.5735 5:38.1984 6:41.4515 7:15.3631 8:35.6145 9:67.0391 10:39.1061 11:45.7649 12:23.6531 13:49.9343 14:68.3311 15:43.364 16:43.6281 17:22.2323 18:45.8258 19:60.7985 20:45.8258 21:41.7782 22:14.6805 23:37.133 24:58.7219 25:41.4508 26:44.1278 27:19.4384 28:42.7646 29:65.2268 30:41.0367 31:45.7627 32:25.9481 33:56.8862 34:61.8762 35:37.9242 36:43.3526 37:31.25 38:42.8241 39:56.713 40:38.1944 
